{"version": 3, "feature_size": 512, "hidden1_size": 256, "hidden2_size": 64, "state_dict": {"fc1.weight": [[4.919958908244433e-41, 4.919958908244433e-41, 4.912952415922809e-41, 4.912952415922809e-41, 4.912952415922809e-41, 4.912952415922809e-41, 4.905945923601185e-41, 4.920799687323028e-41, 4.923041764865947e-41, 4.938315918127088e-41, 4.951908513231039e-41, 4.905245274369022e-41, -6.897220941693501e-16, -9.329638044785387e-16, -5.525459974679186e-41, -5.002074998253867e-41, 5.062611091912699e-41, 4.912952415922809e-41, -5.794369149983119e-41, 6.011990801492763e-41, 4.912952415922809e-41, 4.926965400566057e-41, 2.8729000726048102e-40, 4.912952415922809e-41, 5.57086204492331e-41, 5.51663179435394e-41, 4.912952415922809e-41, -4.906926832526212e-41, 5.19363249832707e-41, 4.912952415922809e-41, 4.935513321198438e-41, 6.286365040807562e-41, 4.920799687323028e-41, -4.98301733913905e-41, -5.840892258998703e-41, 4.947144098452334e-41, -4.926124621487462e-41, 4.930748906419734e-41, 4.912952415922809e-41, 4.946303319373739e-41, -4.90510514452259e-41, 4.951768383384606e-41, 5.469267906259761e-41, 6.198363497247963e-41, 4.912952415922809e-41, 4.94013760613071e-41, -4.913092545769241e-41, 4.920659557476595e-41, -4.925704231948164e-41, 4.927105530412489e-41, 4.942099423980765e-41, -4.946303319373739e-41, 4.948125007377362e-41, 4.91813722024081e-41, -4.94069812551644e-41, 4.953029552002498e-41, 4.940838255362873e-41, 4.944341501523685e-41, 4.930468646726869e-41, 4.936914619662763e-41, -4.935513321198438e-41, -4.948965786455956e-41, 4.930188387034004e-41, 4.954570980313256e-41, -4.943220462752225e-41, -4.904824884829725e-41, -4.94350072244509e-41, 4.941959294134332e-41, -4.918557609780108e-41, 4.932570594423356e-41, 4.935373191352006e-41, -4.908188001144104e-41, -4.954991369852553e-41, 4.928646958723247e-41, -4.905245274369022e-41, -4.941538904595035e-41, -4.92430293348384e-41, -4.955551889238283e-41, -4.930048257187571e-41, 4.919818778398e-41, -4.927245660258922e-41, 4.909589299608429e-41, -4.921220076862325e-41, -4.930468646726869e-41, 4.959755784631258e-41, -4.985399546528402e-41, -4.932850854116221e-41, 4.94294020305936e-41, -4.945742799988009e-41, -4.912952415922809e-41, 4.926965400566057e-41, -5.341189226620473e-41, -4.905245274369022e-41, 4.928226569183949e-41, 5.635602033975117e-41, -4.912952415922809e-41, -4.915614883005026e-41, 5.031081876465391e-41, -4.912952415922809e-41, -4.925003582716002e-41, 4.953730201234661e-41, -4.912952415922809e-41, -6.275294782939396e-41, -5.009361750268356e-41, -4.912952415922809e-41, -4.92430293348384e-41, -4.911971506997781e-41, -4.953169681848931e-41, 4.957513707088338e-41, -4.952328902770336e-41, -4.952328902770336e-41, 1.6072010567773127e-39, 4.925704231948164e-41, 4.948405267070227e-41, 4.944481631370117e-41, -4.917296441162216e-41, -5.062050572526969e-41, -4.917856960547946e-41, -4.933691633194816e-41, -5.36529156020686e-41, 5.059808494984049e-41, -6.111482992459825e-41, 5.321430918273493e-41, 4.91925825901227e-41, -6.181407785829633e-41, 6.154222595621732e-41, 5.16939003489425e-41, 5.968970938637991e-41, -4.990584350846404e-41, -4.968443835110071e-41, 5.451331285916403e-41, -5.924689907165327e-41, 5.87634511014612e-41, 4.924443063330272e-41, -4.952889422156066e-41, -5.583053341562936e-41, 5.211428988823995e-41, -5.091057450738493e-41, 6.293932052514916e-41, -4.927525919951787e-41, -5.041171225408529e-41, 4.955551889238283e-41, 4.923882543944542e-41, 4.955271629545418e-41, 5.056165118976805e-41, -4.959615654784825e-41, 4.908468260836969e-41, 5.264398070775473e-41, 5.30153248008008e-41, 5.439560378816075e-41, 4.985119286835537e-41, -2.8719612026337126e-41, -4.941959294134332e-41, 4.375260182176733e-40, -5.084611477802599e-41, 4.929767997494706e-41, -4.930748906419734e-41, -5.009922269654086e-41, -5.223480155617188e-41, -5.548020879954816e-41, 5.011183438271978e-41, 5.034725252472635e-41, -5.431292717876558e-41, 4.954711110159688e-41, -5.987748338059943e-41, 5.043273173105017e-41, -5.708329424273575e-41, -5.803337460154797e-41, 5.060929533755509e-41, 5.006559153339706e-41, -5.720240461220336e-41, 5.110815759085473e-41, 4.916455662083621e-41, -4.924443063330272e-41, -4.9638195501778e-41, 5.063732130684159e-41, 5.749807858817589e-41, -4.905945923601185e-41, 4.916315532237188e-41, -5.760457727146458e-41, 4.93957708674498e-41, 5.24730222951071e-41, -6.237179464709761e-41, -4.912391896537079e-41, 4.980635131749697e-41, 5.999519245160272e-41, -4.925283842408867e-41, -5.257671838146714e-41, -5.725285135691905e-41, -5.047757328190856e-41, 2.814774212304617e-40, -4.947564487991632e-41, -5.161682893340464e-41, -1.3402158642648983e-40, 5.475153359809925e-41, -4.97965422282467e-41, -4.969284614188666e-41, 4.970685912652991e-41, -5.989289766370701e-41, 6.124234808485181e-41, -4.908748520529834e-41, -4.999132271478785e-41, -5.756954480985646e-41, -5.252907423368009e-41, -4.908188001144104e-41, -5.76396097330727e-41, -4.991144870232133e-41, 5.142204844686349e-41, 4.928787088569679e-41, -4.946723708913037e-41, 5.294525987758456e-41, 4.906086053447617e-41, 4.934952801812708e-41, -6.0168953461179e-41, 5.566658149530336e-41, 5.354641691877991e-41, 5.346794420477772e-41, -6.142451688521403e-41, 5.557409579665792e-41, 6.173140124890117e-41, 5.117682121560664e-41, 4.910289948840591e-41, -8.915060830034486e-42, 5.044113952183612e-41, 5.326055203205765e-41, -5.551243866422763e-41, -6.285804521421832e-41, 5.434235444651641e-41, 5.011183438271978e-41, 4.914914233772863e-41, -4.926545011026759e-41, 5.32633546289863e-41, -4.907487351911942e-41, 5.215492754370537e-41, -5.319048710884141e-41, -4.919678648551568e-41, -5.01917083951863e-41, -5.076904336248812e-41, -6.092985852730737e-41, -6.116107277392097e-41, -5.016648502282845e-41, -5.003616426564624e-41, 5.958321070309122e-41, -4.946583579066604e-41, 4.910570208533456e-41, -5.193912758019934e-41, -5.137300300061212e-41, -5.161402633647599e-41, -5.818611613415938e-41, -6.01241119103206e-41, -4.968443835110071e-41, -5.022674085679442e-41, -4.917436571008648e-41, -4.922200985787352e-41, -5.013705775507763e-41, -5.4025660993579e-41, -4.918837869472973e-41, 5.412795578147471e-41, -4.908047871297672e-41, -4.988902792689214e-41, 5.625372555185546e-41, -4.999552661018082e-41, -5.626493593957006e-41, -5.194473277405664e-41, -5.107312512924661e-41, 5.732431757859962e-41, 5.123427445264396e-41, -5.490847902610363e-41, 5.129733288353858e-41, 4.914774103926431e-41, 5.581371783405746e-41, 5.05532433989821e-41, 5.372718442067781e-41, 5.391635971336166e-41, -5.332501176141659e-41, 5.083770698724004e-41, -6.275995432171558e-41, -4.95877487570623e-41, -4.972367470810181e-41, 4.954150590773958e-41, 4.990864610539268e-41, 4.961717602481312e-41, -6.099151565973766e-41, -5.657182030325719e-41, 6.215038948973429e-41, 5.583753990795099e-41, -5.577588277552069e-41, -5.089235762734871e-41, 4.906086053447617e-41, 4.934672542119843e-41, -8.123327197690965e-42, -9.4776821634609e-41, 6.294912961439943e-41, 4.978953573592508e-41, 6.167534931032817e-41, 5.16939003489425e-41, 5.915161077607918e-41, 5.251786384596549e-41, 4.909028780222699e-41, -5.708189294427142e-41, 5.701322931951951e-41, 4.930048257187571e-41, 5.105490824921039e-41, 5.088675243349141e-41, 1.2816556014407642e-40, 5.537090751933082e-41, -4.961157083095582e-41, 5.088114723963411e-41, 6.003162621167516e-41, 5.676660078979834e-41, 4.94237968367363e-41, 5.000113180403812e-41, -4.913232675615674e-41, 6.084157672405491e-41, 4.951067734152444e-41, 5.011743957657708e-41, -4.910289948840591e-41, 5.171491982590737e-41, 4.906086053447617e-41, 6.022500539975199e-41, -5.78203772349706e-41, -5.708469554120007e-41, 5.466745569023976e-41, -6.08976286626279e-41, 5.009782139807654e-41, -5.018189930593602e-41, -5.182141850919606e-41, 5.178918864451659e-41, -5.253888332293037e-41, 5.974436002648858e-41, -5.662787224183018e-41, -5.772789153632516e-41, 1.459452350594297e-40, 4.942099423980765e-41, -4.984979156989104e-41, 5.166307178272736e-41, -5.048317847576586e-41, 1.3528976153670379e-40, -5.092879138742115e-41, 4.909168910069132e-41, 5.21114872913113e-41, 5.382387401471622e-41, -5.141784455147051e-41, 5.106751993538931e-41, 5.010482789039816e-41, 5.103108617531686e-41, 5.354501562031559e-41, 6.282161145414587e-41, 5.133937183746832e-41, 5.000673699789542e-41, -5.171491982590737e-41, 4.923602284251677e-41, 5.095121216285035e-41, 4.94350072244509e-41, 5.289341183440455e-41, -5.373138831607079e-41, 4.909028780222699e-41, 4.937054749509196e-41, -6.119190134013611e-41, 6.246988553960035e-41, 5.36585207959259e-41, -6.213917910201969e-41, -2.703328945436864e-40, -5.17443470936582e-41, 5.064713039609186e-41, -4.983297598831914e-41, 2.826979521928886e-40, -4.908608390683402e-41, -5.007119672725436e-41, -5.122586666185801e-41, 4.910149818994159e-41, 5.750648637896184e-41, 5.462962063170299e-41, -4.947564487991632e-41, 4.987501494224889e-41, -6.023761708593091e-41, -4.950226955073849e-41, 5.808522264472799e-41, -6.103495591213173e-41, 5.236932620874706e-41, -5.432133496955153e-41, -5.03612655093696e-41, 5.071999791623675e-41, 5.085171997188329e-41, -5.040470576176367e-41, 4.91813722024081e-41, -4.905945923601185e-41, 4.966482017260017e-41, 5.250945605517955e-41, -5.070318233466486e-41, 5.445165572673374e-41, 4.975170067738831e-41, -5.114319005246285e-41, 5.664468782340208e-41, -5.485943357985226e-41, 5.098764592292279e-41, -5.638544760750199e-40, 5.01412616504706e-41, 4.97685162589602e-41, -5.062470962066267e-41, 5.000253310250245e-41, 5.358845587270965e-41, -4.994367856700081e-41, -5.136739780675482e-41, -5.796050708140308e-41, -5.6329395668929e-41, -4.910570208533456e-41, 5.97121301618091e-41, -5.581091523712881e-41, -1.329692112797819e-40, 4.981756170521157e-41, -5.219416390070646e-41, 5.89498237972164e-41, -5.064292650069889e-41, 5.36024688573529e-41, 5.640226318907389e-41, -4.935653451044871e-41, -5.862472255349305e-41, -4.947284228298767e-41, -5.040330446329935e-41, 4.980635131749697e-41, -4.979373963131805e-41, -5.139682507450564e-41, -5.328577540441549e-41, -5.519154131589725e-41, -1.2695203567397113e-40, -5.656060991554259e-41, -4.994367856700081e-41, -4.926825270719624e-41, -5.201339639880856e-41, 5.047897458037289e-41, 5.618786452403219e-41, 5.351138445717179e-41, -5.052802002662425e-41, -5.407330514136604e-41, 4.999272401325217e-41, 5.24786274889644e-41, -5.034585122626203e-41, 4.978813443746075e-41, 4.97685162589602e-41, 4.910850468226321e-41, 6.14399311683216e-41, -4.946583579066604e-41, -5.691373712855245e-41, 5.024635903529497e-41, -5.013005126275601e-41, -5.012584736736303e-41, -4.906786702679779e-41, 5.355062081417288e-41, 4.925984491641029e-41, 4.914633974079998e-41, -5.09596199536363e-41, 4.93845604797352e-41, 5.052802002662425e-41, -5.684227090687188e-41, -4.913653065154971e-41, 5.137440429907644e-41, -4.926685140873192e-41, -5.287099105897535e-41, 5.398502333811358e-41, 4.983998248064077e-41, 5.075503037784487e-41, -4.912812286076376e-41, -5.169670294587115e-41, 4.973068120042343e-41, 5.445866221905537e-41, 4.95653279816331e-41, -5.880408875692662e-41, 5.419661940622663e-41, 5.372578312221349e-41, -5.454133882845053e-41, 5.111376278471203e-41, 5.027999019843876e-41, -5.181861591226741e-41, -5.021553046907982e-41, -5.750788767742617e-41, -5.014826814279223e-41, 6.121292081710098e-41, 5.192931849094907e-41, -5.012164347197006e-41, 4.913793195001404e-41, 4.930188387034004e-41, 5.007399932418301e-41, 5.168128866276358e-41, 4.990304091153539e-41, -5.001234219175272e-41, 5.038088368787015e-41, 5.284997158201048e-41, 5.063592000837726e-41, -6.187573499072662e-41, 5.444745183134077e-41, 5.041731744794259e-41, 5.63181852812144e-41, -6.24222413918133e-41, 5.030801616772526e-41, -4.996469804396568e-41, 5.341889875852635e-41, -4.967322796338612e-41, 5.538772310090272e-41, 5.657041900479287e-41, -5.446426741291267e-41, -5.529803999918593e-41, 5.405648955979414e-41, -5.034304862933338e-41, 5.76620305085019e-41, 5.094981086438602e-41, -5.707768904887845e-41, -5.194193017712799e-41, -6.288326858657617e-41, -5.040750835869232e-41, 5.334322864145281e-41, 6.290288676507671e-41], [-3.6292228927548437e-41, -3.6292228927548437e-41, -5.953513551637362e-20, -5.95353681609209e-20, -5.953513551637362e-20, -5.95347865495527e-20, -5.953513551637362e-20, -5.953513551637362e-20, -5.953196250324266e-20, -5.3932263180162635e-20, -5.991650455285178e-20, -5.953419201348743e-20, -2.7068618180248194e-11, -1.8323147166210418e-10, 5.94066470965863e-41, -5.117261732021367e-41, 4.948545396916659e-41, -5.953513551637362e-20, 4.988762662842781e-41, -5.059948624830482e-41, -5.953513551637362e-20, -5.331800526909496e-41, -4.939997476284278e-41, -5.953513551637362e-20, 6.08696026933414e-41, 1.2099651720059065e-40, -5.95353681609209e-20, -5.934639126262033e-41, -5.926091205629651e-41, -5.95353681609209e-20, 4.906086053447617e-41, -5.970232107255883e-41, -5.95353681609209e-20, -4.990724480692836e-41, -4.993386947775053e-41, -5.953575590183304e-20, -4.936494230123466e-41, -4.996329674550135e-41, -5.95353681609209e-20, -4.909449169761997e-41, 4.927525919951787e-41, -6.764571897063849e-20, -6.405112193713218e-38, 4.989323182228511e-41, -5.953513551637362e-20, -4.909869559301294e-41, 4.908608390683402e-41, -1.100170247975987e-19, -5.868637968592334e-41, -4.966201757567152e-41, -6.334997617919455e-20, 1.0275116367640397e-35, 4.910570208533456e-41, -1.0149704025449551e-20, -2.1619978876723354e-22, -4.936774489816331e-41, -5.921464180310054e-20, -5.152015727598657e-37, 4.945882929834442e-41, -1.4924877694937157e-17, -4.93733500920206e-41, 4.975590457278128e-41, -4.173537464530586e-17, -1.863012295335201e-40, -4.923462154405245e-41, -2.504511816089068e-18, 1.4628224734009982e-39, 4.907347222065509e-41, 5.97035830933018e-20, -1.1444544412425647e-26, -4.966061627720719e-41, 7.889596983742493e-20, 4.1941107513377055e-35, -4.967042536645747e-41, 5.432440818282386e-20, -4.93957708674498e-41, -4.969985263420829e-41, 5.109801734542462e-19, -5.448949078527051e-41, -4.953590071388228e-41, 5.95353681609209e-20, 4.906086053447617e-41, -4.990304091153539e-41, 6.055876506205946e-20, -7.315478633007708e-41, 4.926965400566057e-41, 5.95353681609209e-20, 4.906786702679779e-41, -4.955972278777581e-41, 6.030153127860107e-20, -4.994648116392945e-41, 5.091898229817088e-41, 5.95353681609209e-20, -4.96325903079207e-41, 4.907627481758374e-41, 5.95353681609209e-20, 6.091584554266412e-41, 6.212376481891212e-41, 5.953575590183304e-20, 4.936073840584168e-41, -1.1731250353788071e-40, 5.953513551637362e-20, -4.951067734152444e-41, 4.955692019084716e-41, 5.953575590183304e-20, -4.934812671966276e-41, -4.90622618329405e-41, 5.880289326615666e-20, 4.962558381559907e-41, 5.194893666944962e-41, 1.3389582369214312e-15, -1.4317996124458437e-16, -5.902815484803503e-15, -1.2918145800689637e-18, -1.3391430629846806e-18, 5.028279279536741e-41, 5.010482789039816e-41, -4.933551503348383e-41, -4.912532026383511e-41, -5.808802524165664e-41, 5.066534727612809e-41, -5.108153292003256e-41, -5.920766271465217e-41, 5.854484854102653e-41, -4.914073454694269e-41, 5.066814987305674e-41, -5.170370943819278e-41, 5.565256851066011e-41, 5.054343430973183e-41, -4.987501494224889e-41, 5.243238463964168e-41, 5.437458431119588e-41, 5.112217057549798e-41, 4.984839027142672e-41, 5.951454707833931e-41, 4.910289948840591e-41, 5.364450781128265e-41, -5.291303001290509e-41, 4.906646572833347e-41, -4.91813722024081e-41, -4.931729815344761e-41, 6.289447897429076e-41, -5.932397048719113e-41, 4.932010075037626e-41, 6.233956478241814e-41, -4.990023831460674e-41, 4.906926832526212e-41, -5.933798347183438e-41, -1.4720360108039338e-40, 5.764941882232297e-41, 4.2221543119646036e-40, 5.022954345372307e-41, -4.915334623312161e-41, 5.079987192870327e-41, 4.927946309491084e-41, -5.172893281055062e-41, 4.927105530412489e-41, 5.298589753304998e-41, -1.2550029046493062e-40, -5.480338164127927e-41, -6.11176325215269e-41, -5.990550934988593e-41, 5.755553182521321e-41, 5.34329117431696e-41, -5.602671520063484e-41, -4.904824884829725e-41, -2.5257564040376233e-40, -4.983717988371212e-41, -5.273926900332882e-41, 5.437178171426723e-41, 5.018189930593602e-41, -1.0724837796709987e-40, -4.916315532237188e-41, -5.597066326206184e-41, -1.3646965484366528e-40, 6.262963356453337e-41, -5.879988486153365e-41, 6.068603259451485e-41, -5.071579402084378e-41, 4.90566566390832e-41, -5.160281594876139e-41, 5.005578244414679e-41, 5.468427127181166e-41, 4.904965014676157e-41, 5.017769541054305e-41, -4.992966558235756e-41, 1.530091806180911e-40, -5.03388447339404e-41, -4.958915005552663e-41, 5.057286157748265e-41, -5.387712335636057e-41, 5.801655901997608e-41, 5.060228884523347e-41, 5.093299528281413e-41, -4.985399546528402e-41, 5.201059380187991e-41, -5.367954027289077e-41, 5.05364278174102e-41, -5.065974208227079e-41, -5.099605371370874e-41, -5.736075133867206e-41, -5.092318619356385e-41, 5.226563012238703e-41, -4.973348379735208e-41, 5.528823090993566e-41, 5.048177717730153e-41, -5.222919636231458e-41, -4.995909285010838e-41, -5.171351852744305e-41, -5.243658853503465e-41, -5.103949396610281e-41, -5.078025375020272e-41, -5.083350309184706e-41, -4.917997090394378e-41, -5.095541605824332e-41, -4.92374241409811e-41, 4.976150976663858e-41, 5.064292650069889e-41, -5.025056293068794e-41, -5.066814987305674e-41, -4.921640466401623e-41, -4.917856960547946e-41, -4.907767611604807e-41, 5.156638218868894e-41, 5.023935254297334e-41, -5.044954731262206e-41, -6.222886220373648e-41, 5.356323250035181e-41, 5.410973890143849e-41, -4.955131499698986e-41, -5.054623690666048e-41, 5.007680192111166e-41, -4.97573058712456e-41, -5.87802666830331e-41, -5.318908581037708e-41, 4.943360592598657e-41, -5.001374349021705e-41, 4.9418191642879e-41, 4.914073454694269e-41, -5.245340411660655e-41, -5.959021719541285e-41, -4.912111636844214e-41, 5.07564316763092e-41, -5.202320548805883e-41, -5.21170924851686e-41, 6.261281798296148e-41, -5.231047167324542e-41, 5.517052183893237e-41, 2.8825129800700785e-40, -5.002074998253867e-41, 5.412655448301038e-41, 5.150332375779433e-41, -5.789324475511549e-41, 4.990584350846404e-41, 5.291022741597644e-41, 5.046496159572964e-41, -5.392897139954058e-41, -4.914774103926431e-41, 1.5353326624374858e-40, 5.421483628626285e-41, -4.960036044324123e-41, -4.935233061505573e-41, -5.728087732620555e-41, -4.984418637603374e-41, -5.025897072147389e-41, 5.013145256122033e-41, 5.080407582409624e-41, -5.860090047959953e-41, 5.208065872509615e-41, 5.599868923134834e-41, 5.464643621327489e-41, -4.968443835110071e-41, -4.986520585299862e-41, 5.021693176754414e-41, 4.962558381559907e-41, -5.062050572526969e-41, 4.912952415922809e-41, 5.336705071534633e-41, 5.034585122626203e-41, 5.105911214460336e-41, -5.057846677133995e-41, -6.014793398421412e-41, 4.962978771099205e-41, 4.986800844992727e-41, -5.070598493159351e-41, -5.39920298304352e-41, -5.160561854569004e-41, 4.915755012851458e-41, 5.367393507903347e-41, 4.940557995670008e-41, -4.941679034441467e-41, 5.02029187829009e-41, 6.05416988526894e-41, -5.057426287594697e-41, 4.980915391442562e-41, 6.103075201673876e-41, 5.147249519157918e-41, -5.315265205030464e-41, 5.189848992473393e-41, 1.4596905713332322e-40, 5.524058676214861e-41, -5.126650431732343e-41, 5.182562240458903e-41, 1.5380231554889895e-40, -4.973208249888776e-41, 5.637003332439442e-41, 4.93901656735925e-41, -4.994227726853648e-41, 5.401585190432872e-41, 5.942906787201549e-41, -5.273646640640017e-41, -4.990304091153539e-41, -4.99492837608581e-41, 4.915755012851458e-41, 1.38819632368338e-40, 5.593703209891805e-41, -5.313163257333976e-41, 5.602951779756349e-41, -6.30037802545081e-41, -5.070598493159351e-41, 5.437458431119588e-41, 5.737336302485099e-41, -4.917436571008648e-41, -5.53358750577227e-41, 6.261001538603283e-41, 4.906786702679779e-41, 5.255429760603794e-41, 4.957233447395473e-41, 5.213671066366914e-41, 4.950086825227416e-41, 6.15127986884665e-41, -5.205403405427398e-41, 4.972787860349478e-41, 5.077184595941677e-41, 5.002635517639597e-41, -1.5628821902461117e-40, -4.932710724269789e-41, 6.194860251087151e-41, -5.549141918726276e-41, 5.612340479467325e-41, 4.996469804396568e-41, 5.384068959628812e-41, 6.063138195440619e-41, -4.907767611604807e-41, -1.742402536510764e-40, -4.988202143457051e-41, -6.095087800427224e-41, 5.833605506984213e-41, 4.948265137223794e-41, -5.788904085972252e-41, -5.743922405267425e-41, 6.153662076236002e-41, 5.169109775201385e-41, -5.097783683367252e-41, 5.070738623005783e-41, 5.8633130344279e-41, 6.222185571141485e-41, 5.241977295346276e-41, -5.507663484182261e-41, -1.270066863140798e-40, -6.124515068178045e-41, 5.148790947468675e-41, -5.374960519610701e-41, 4.921920726094487e-41, 5.081108231641787e-41, -2.5075255110167574e-40, -5.577027758166339e-41, 5.302793648697973e-41, 4.909028780222699e-41, 5.276449237568666e-41, 5.247162099664278e-41, -5.204842886041668e-41, -4.99829149240019e-41, 5.180180033069551e-41, 5.763540583767973e-41, 4.922341115633785e-41, 6.175802591972334e-41, -5.291303001290509e-41, -5.005157854875382e-41, 4.969424744035099e-41, -5.033744343547608e-41, 5.042292264179989e-41, -4.955551889238283e-41, 5.128051730196668e-41, -5.026597721379551e-41, -5.481459202899387e-41, 5.160842114261869e-41, -4.915895142697891e-41, -5.039209407558475e-41, -5.024635903529497e-41, -5.478516476124305e-41, 8.280272625695344e-42, -6.077991959162462e-41, 5.030801616772526e-41, -2.646015838245979e-40, -4.916595791930053e-41, 4.964099809870664e-41, -4.907627481758374e-41, 4.937755398741358e-41, -6.237739984095491e-41, -5.661946445104423e-41, -5.364310651281832e-41, 5.122166276646504e-41, 5.171211722897872e-41, 5.51495023619675e-41, 5.025056293068794e-41, -5.905772377896942e-41, 5.220817688534971e-41, 5.776152269946896e-41, 5.215072364831239e-41, -5.108853941235418e-41, -5.183823409076796e-41, -5.257811967993146e-41, 4.981756170521157e-41, 4.97685162589602e-41, 5.18970886262696e-41, -5.683946830994323e-41, 4.950367084920281e-41, -5.066114338073511e-41, 5.021833306600847e-41, -4.993947467160783e-41, 5.012444606889871e-41, -5.539192699629569e-41, 5.681424493758538e-41, -5.036406810629825e-41, -4.970826042499424e-41, 1.7815968545579292e-40, 5.196014705716422e-41, -5.029680578001066e-41, 5.856867061492005e-41, -5.974155742955993e-41, 2.7738843231156186e-40, 5.637563851825172e-41, -4.935793580891303e-41, 5.914460428375755e-41, 5.284716898508183e-41, -5.220397298995674e-41, 5.386170907325299e-41, -4.916735921776486e-41, 4.99941253117165e-41, -5.317927672112681e-41, -4.987641624071321e-41, -5.09764355352082e-41, -5.138421338832672e-41, 5.30769819332311e-41, 4.926965400566057e-41, -4.952609162463201e-41, -5.579269835709259e-41, 6.052768586804615e-41, 4.998431622246622e-41, -5.187606914930473e-41, -5.055184210051778e-41, -4.972927990195911e-41, -3.0758361162083302e-40, 1.4829100868870944e-40, 5.621028529946139e-41, 5.102267838453091e-41, 4.940277735977143e-41, -6.112183641691987e-41, -5.024215513990199e-41, -4.936914619662763e-41, -5.065974208227079e-41, 5.334883383531011e-41, 5.987187818674213e-41, -5.274767679411476e-41, -4.919678648551568e-41, 5.460019336395217e-41, 5.88026874584623e-41, -5.748406560353265e-41, 4.993246817928621e-41, 5.088535113502708e-41, -4.918557609780108e-41, -5.062611091912699e-41, -5.899606664653912e-41, -5.16770847673706e-41, -5.704966307959195e-41, -5.78203772349706e-41, -6.202287132948073e-41, 5.369635585446267e-41, -5.109414460621148e-41, -4.992546168696458e-41, -4.958354486166933e-41, 4.907907741451239e-41, -4.910289948840591e-41, -5.914320298529323e-41, -5.676099559594104e-41, 4.932150204884059e-41, 6.065520402829971e-41, -2.7078691524612765e-40, -5.005297984721814e-41, 4.996469804396568e-41, -4.921360206708758e-41, 4.951067734152444e-41, 5.160001335183274e-41, -5.482159852131549e-41, -4.907487351911942e-41, 4.951768383384606e-41, 4.926124621487462e-41, -5.007119672725436e-41, -5.136179261289752e-41, -5.899746794500345e-41, 4.931449555651896e-41, 5.284296508968885e-41, 5.258372487378876e-41, 5.489446604146038e-41, 4.99885201178592e-41, 4.983437728678347e-41, -6.198223367401531e-41, 5.118663030485692e-41, -5.034024603240473e-41, -5.040190316483502e-41, -5.029260188461768e-41], [-7.919208542261913e-07, -7.919208542261913e-07, -0.00021519247093237936, -0.00021609224495477974, -0.00021609266696032137, -0.0002160924341296777, -0.00021609252144116908, -0.0002160924341296777, -0.00021617079619318247, -0.00021609138639178127, -0.00022826757049188018, -0.00021342911350075155, -0.003936719615012407, -0.004054894670844078, 1.6244887447486485e-14, -5.156278324824826e-17, -4.918417479933675e-41, -0.0002160924341296777, -1.614884238159732e-14, 1.2243281034992042e-15, -0.00022060210176277906, -1.3193789116794363e-10, 4.914774103926431e-41, -0.0002160922740586102, -6.945085573306642e-08, -4.96157747263488e-41, -0.0002160924341296777, -1.9753025881641406e-08, -1.1870994172806016e-15, -0.00021251363796181977, -7.21916355362652e-14, -1.7414728462587662e-15, -0.0002160924341296777, 3.490907378705249e-14, -5.770020200431816e-15, -0.0002160922740586102, 1.1467858455384283e-13, -1.6909779300202667e-15, -0.0002160924341296777, -7.641766046617704e-07, 2.000403830212591e-14, -0.00021647736139129847, -2.312029209861066e-06, 3.6219460861509206e-14, -0.00021390451001934707, -1.3936138909542706e-09, 6.130031649387996e-15, -0.0002033966884482652, -1.6457811113923526e-08, -9.611798162945107e-11, -0.00021036778343841434, -1.0351734999858309e-05, -9.374344633883425e-10, -5.7235727581428364e-05, -6.498232687590644e-05, -6.691563414484847e-10, -0.00010130352893611416, -3.912322881660657e-06, -3.763782896459844e-10, -0.00020737777231261134, -1.7822124220856495e-07, -6.229901039489505e-09, -0.0002823319809976965, -1.6866883925104048e-06, -1.0693746332890441e-08, 9.402546857018024e-05, -5.435770617623348e-06, -7.998207096626686e-10, 0.00020247261272743344, -3.626339093898423e-05, -1.8356811903874615e-10, 0.00022622669348493218, -9.803959983401e-06, -1.0409672429601002e-10, 0.00021446058235596865, -3.2020903262264255e-08, -4.860618504909375e-11, 0.00020357855828478932, -7.26688131891251e-09, -5.0916103371521654e-15, 0.00021603931963909417, -7.522438494333983e-08, 2.875568096897922e-14, 0.00021609252144116908, -2.209030185440497e-07, 1.503945961365584e-14, 0.00021611154079437256, -3.0245253412886086e-08, -7.96460929841777e-15, 0.0002160922740586102, -1.3229113036148168e-15, -5.026574618066388e-16, 0.00021609252144116908, -1.5774714705058673e-14, -2.9834353286868577e-16, 0.00021609249233733863, -3.129207115648569e-09, -2.2051634572994774e-15, 0.00021609252144116908, -9.913968312957877e-08, -4.951488123691741e-41, 0.00021609252144116908, -6.28482821340981e-10, 4.913232675615674e-41, 0.00021609266696032137, 8.78922721278888e-15, -5.348616108481394e-41, 0.00021647736139129847, -2.197321372163913e-13, 2.8420250839668836e-14, 2.5341130822198465e-05, -0.00044172548223286867, -0.0002660216996446252, -0.00010416581790195778, -0.0001248463086085394, 2.661840635536923e-15, -5.006839413032571e-41, -7.343513297453086e-11, -1.7210710634429915e-10, 5.654939952782799e-41, -4.90566566390832e-41, 5.396260256268438e-41, -6.158987010400436e-41, 5.213250676827617e-41, 5.437458431119588e-41, -4.985819936067699e-41, 4.90622618329405e-41, -4.966201757567152e-41, -4.975170067738831e-41, 5.05476382051248e-41, 5.733132407092124e-41, -5.802496681076203e-41, 5.859529528574223e-41, 5.030801616772526e-41, -4.959475524938393e-41, 4.968023445570774e-41, 5.590340093577425e-41, -5.242397684885573e-41, 5.021973436447279e-41, -5.445445832366239e-41, 4.973208249888776e-41, 5.581932302791476e-41, -5.338246499845391e-41, 4.992406038850026e-41, -5.639105280135929e-41, -4.91869773962654e-41, -5.075362907938055e-41, 5.088254853809843e-41, 5.876204980299688e-41, 5.194193017712799e-41, 5.038228498633447e-41, 5.544938023333301e-41, -5.124408354189424e-41, 4.957513707088338e-41, 5.113057836628393e-41, 5.770406946243164e-41, 5.145848220693593e-41, 6.189255057229852e-41, -5.941085099197927e-41, -4.907627481758374e-41, 6.03497209630769e-41, -5.009081490575491e-41, 5.86275251504217e-41, 4.911410987612051e-41, -6.266606732460582e-41, 2.7108539181902884e-40, -6.007646776253356e-41, -5.081808880873949e-41, -4.908888650376267e-41, 4.908047871297672e-41, 5.413636357226066e-41, 5.508924652800153e-41, -4.961297212942015e-41, -5.068356415616431e-41, -4.968443835110071e-41, 5.036406810629825e-41, -5.011183438271978e-41, -5.080127322716759e-41, -5.199798211570099e-41, 5.130714197278885e-41, 5.276168977875801e-41, -9.366278935547077e-42, -4.959475524938393e-41, 5.083630568877571e-41, -5.047477068497991e-41, 4.974609548353101e-41, -5.903810560046887e-41, 5.981162235277617e-41, 5.188727953701933e-41, -5.017769541054305e-41, -4.948265137223794e-41, 5.341889875852635e-41, 5.379164415003675e-41, 4.99773097301446e-41, -4.922481245480217e-41, 4.984138377910509e-41, -5.30321403823727e-41, 4.932430464576924e-41, -5.046356029726531e-41, 4.983998248064077e-41, 5.141504195454186e-41, 5.030661486926093e-41, 5.060369014369779e-41, -4.936774489816331e-41, 4.907767611604807e-41, 4.917296441162216e-41, -5.255429760603794e-41, -4.993947467160783e-41, -4.913092545769241e-41, -5.046776419265829e-41, -5.910957182214943e-41, 6.215459338512726e-41, 5.052381613123128e-41, -5.378463765771513e-41, -4.997450713321595e-41, -5.603372169295646e-41, -5.105630954767471e-41, -4.93957708674498e-41, -5.018470190286467e-41, 5.089095632888438e-41, -4.915054363619296e-41, -4.950647344613146e-41, 5.11067562923904e-41, -5.942486397662252e-41, -5.339787928156148e-41, 5.99713703777092e-41, 4.980915391442562e-41, 5.272805861561422e-41, -5.771247725321759e-41, -4.975170067738831e-41, 5.075783297477352e-41, 4.968163575417206e-41, -5.39808194427206e-41, -5.457637129005865e-41, 5.417139603386878e-41, 4.907066962372644e-41, -5.447267520369861e-41, -4.954150590773958e-41, 4.908188001144104e-41, -5.031081876465391e-41, 5.01580772320425e-41, -5.640786838293119e-41, 5.07396160947373e-41, -5.369355325753402e-41, 5.82099382080529e-41, 4.965501108334989e-41, -5.165886788733438e-41, -5.308819232094569e-41, -5.159580945643976e-41, -1.44962924835938e-40, 4.964940588949259e-41, 5.09371991782071e-41, 5.222218986999296e-41, -6.133903767889022e-41, 4.967462926185044e-41, 5.156778348715327e-41, -5.083910828570436e-41, -5.909696013597051e-41, -5.224881454081513e-41, -5.825337846044697e-41, 4.97965422282467e-41, -5.306717284398082e-41, 5.119363679717854e-41, -4.975310197585263e-41, -5.14795016839008e-41, -5.056865768208967e-41, 4.904824884829725e-41, 5.032903564469013e-41, -5.244079243042763e-41, 5.897364587110993e-41, -5.07564316763092e-41, 5.21002769035967e-41, -5.269162485554177e-41, -6.175802591972334e-41, 5.02029187829009e-41, 4.937054749509196e-41, 5.848739530398921e-41, -4.989042922535646e-41, 5.010062399500518e-41, -5.156498089022462e-41, 5.130013548046723e-41, -4.929487737801841e-41, -5.32297234658425e-41, 6.215459338512726e-41, -4.978673313899643e-41, 4.913512935308539e-41, -4.967322796338612e-41, 6.266746862307014e-41, -5.036827200169122e-41, 5.106331603999633e-41, 5.060369014369779e-41, -5.09484095659217e-41, 4.994087597007216e-41, 4.956953187702608e-41, 4.989603441921376e-41, -4.974329288660236e-41, -5.500236602321339e-41, 5.125249133268018e-41, -5.316105984109059e-41, -5.040750835869232e-41, 6.042398978168611e-41, 5.11291770678196e-41, -5.182422110612471e-41, -5.065693948534214e-41, -5.178778734605226e-41, -5.662156639874072e-40, -4.95933539509196e-41, -5.724864746152608e-41, 4.912391896537079e-41, 5.079426673484597e-41, 4.908468260836969e-41, 5.992512752838648e-41, -5.59566502774186e-41, -5.528682961147133e-41, -5.731731108627799e-41, -5.131134586818183e-41, -5.021272787215117e-41, 6.134884676814049e-41, -5.148931077315108e-41, 5.201900159266586e-41, -5.279251834497316e-41, 5.107732902463958e-41, 5.358144938038803e-41, -5.065553818687781e-41, -5.66853254788675e-41, 5.051120444505236e-41, -5.335724162609606e-41, -5.337125461073931e-41, -5.233849764253192e-41, 5.321711177966358e-41, -5.512848288500263e-41, 5.006138763800409e-41, -5.856166412259843e-41, -5.624251516414086e-41, -5.802496681076203e-41, -5.978639898041832e-41, 6.015494047653575e-41, 5.053222392201723e-41, 5.614582557010245e-41, 5.009361750268356e-41, -5.039910056790637e-41, -5.699921633487626e-41, -4.986660715146294e-41, -5.78203772349706e-41, -4.933691633194816e-41, 4.981756170521157e-41, -5.855325633181248e-41, 6.062717805901321e-41, 5.616404245013867e-41, 6.100833124130956e-41, -5.438018950505318e-41, 5.194613407252097e-41, 6.179025578440281e-41, 5.042012004487124e-41, -5.159861205336841e-41, 5.824637196812535e-41, -6.091864813959277e-41, 5.247162099664278e-41, -5.195314056484259e-41, -5.334322864145281e-41, -4.965080718795692e-41, 4.947704617838064e-41, 5.320309879502033e-41, -5.399062853197088e-41, 5.033043694315445e-41, -5.315965854262626e-41, 5.012304477043438e-41, 4.915474753158593e-41, 5.235531322410382e-41, 4.925704231948164e-41, -5.384068959628812e-41, -5.541855166711787e-41, -5.834306156216376e-41, -5.519294261436157e-41, -5.056024989130372e-41, -5.052381613123128e-41, -5.024495773683064e-41, -5.822254989423182e-41, -5.554747112583575e-41, -5.265098720007635e-41, 4.962558381559907e-41, 5.390374802718274e-41, 5.028139149690309e-41, 4.910149818994159e-41, -4.918417479933675e-41, -5.463242322863164e-41, 4.11799579711134e-41, -5.020992527522252e-41, 6.237880113941923e-41, -4.952188772923904e-41, -4.969845133574396e-41, -5.066674857459241e-41, -4.985960065914132e-41, 4.948685526763091e-41, -4.978393054206778e-41, 5.026317461686686e-41, -1.3554760045413956e-40, -5.290041832672617e-41, -5.30489559639446e-41, 5.091197580584925e-41, 5.010763048732681e-41, -5.088394983656276e-41, 5.109414460621148e-41, 5.078585894406002e-41, -4.912672156229944e-41, -4.915194493465728e-41, 5.012864996429168e-41, -5.805299278004852e-41, 1.6029453133411582e-41, -4.917296441162216e-41, -5.209046781434642e-41, -5.47655465827425e-41, -5.063872260530591e-41, -5.220257169149241e-41, 5.24449963258206e-41, -5.026457591533119e-41, -5.63013696996425e-41, 5.830382520516266e-41, -5.996296258692325e-41, 5.578709316323529e-41, 4.97797266466748e-41, 4.9418191642879e-41, -5.294946377297754e-41, -5.119503809564287e-41, 4.911831377151349e-41, -5.777833828104086e-41, 5.834025896523511e-41, 5.673437092511887e-41, -5.059808494984049e-41, 5.559511527362279e-41, 5.664048392800911e-41, -4.905805793754752e-41, -5.097363293827955e-41, 5.050559925119506e-41, -4.919118129165838e-41, -5.430592068644396e-41, 5.271264433250664e-41, -4.950647344613146e-41, -5.546619581490491e-41, -2.8372370266877436e-40, -5.63237904750717e-41, 4.933551503348383e-41, -5.062330832219834e-41, 5.284716898508183e-41, 5.013845905354195e-41, 6.259039720753228e-41, -4.995909285010838e-41, -5.19082990139842e-41, 5.525179714986321e-41, -5.894421860335911e-41, 4.936914619662763e-41, -4.905385404215455e-41, 4.927105530412489e-41, -5.105350695074606e-41, -5.018750449979332e-41, -5.250525215978657e-41, -5.021272787215117e-41, -4.938596177819953e-41, -5.707208385502115e-41, -6.181968305215363e-41, -6.063838844672781e-41, -4.969424744035099e-41, -5.111516408317635e-41, 5.013565645661331e-41, -5.05812693682686e-41, 5.077604985480975e-41, 4.968023445570774e-41, -4.970545782806559e-41, 5.55446685289071e-41, 5.434795964037371e-41, -5.547880750108383e-41, -5.034585122626203e-41, 5.926371465322516e-41, 5.021132657368685e-41, 5.100446150449469e-41, 4.910570208533456e-41, 6.290849195893401e-41, -5.315125075184031e-41, -5.299710792076458e-41, 6.08696026933414e-41, 4.920659557476595e-41, 5.2817741717331e-41, -4.937755398741358e-41, 5.18802730446977e-41, 5.205683665120263e-41, -5.670634495583237e-41, -5.123427445264396e-41, -4.904965014676157e-41, -4.958915005552663e-41, 5.425827653865692e-41, -4.906926832526212e-41, -5.216894052834861e-41, -4.920519427630163e-41, -5.370756624217726e-41, -4.998011232707325e-41, 5.965888082016476e-41, -5.483421020749442e-41, 4.965781368027854e-41, 5.028419409383174e-41, -5.117822251407097e-41, -5.00053356994311e-41, -5.008520971189761e-41, -5.629436320732088e-41, 5.657182030325719e-41, -1.1948171356065553e-40, 5.330679488138037e-41, 5.140943676068456e-41, -5.113618356014122e-41, -5.185925356773283e-41, 4.971666821578018e-41, 4.990163961307106e-41, -5.565537110758876e-41], [4.980495001903265e-41, 4.980495001903265e-41, -4.96325903079207e-41, -4.912391896537079e-41, -4.913512935308539e-41, -4.913512935308539e-41, -4.913512935308539e-41, -4.913512935308539e-41, -4.913512935308539e-41, -4.96325903079207e-41, -4.913512935308539e-41, -4.913512935308539e-41, -1.0789146076637837e-24, -1.091910598039234e-24, -5.181020812148146e-41, -6.292110364511294e-41, -3.998086687519065e-40, -4.913512935308539e-41, -4.976150976663858e-41, -4.930048257187571e-41, -4.913512935308539e-41, 4.990724480692836e-41, 5.371317143603456e-41, -4.913512935308539e-41, 4.974889808045966e-41, 5.146408740079323e-41, -4.913512935308539e-41, -4.911831377151349e-41, -1.844893506191481e-40, -4.913512935308539e-41, -5.09428043720644e-41, 4.918557609780108e-41, -4.913512935308539e-41, 5.143325883457809e-41, 6.042398978168611e-41, -4.913512935308539e-41, -5.008520971189761e-41, -5.066955117152106e-41, -4.913512935308539e-41, -4.947564487991632e-41, 5.244219372889195e-41, -4.938175788280655e-41, -4.985399546528402e-41, 4.998992141632352e-41, -4.913512935308539e-41, 5.051821093737398e-41, 5.013145256122033e-41, -4.931449555651896e-41, 4.916315532237188e-41, -4.978673313899643e-41, -4.960596563709852e-41, 4.936634359969898e-41, -5.01524720381852e-41, -4.957373577241905e-41, -4.94013760613071e-41, -4.957373577241905e-41, -4.913512935308539e-41, 4.916035272544323e-41, -4.929207478108977e-41, -4.951067734152444e-41, 4.972227340963748e-41, 4.923041764865947e-41, -4.905385404215455e-41, 4.994227726853648e-41, -5.023514864758037e-41, 4.925564102101732e-41, -4.958494616013365e-41, 4.939436956898548e-41, 4.935233061505573e-41, 4.969004354495801e-41, -4.937615268894925e-41, 4.972647730503046e-41, -4.938876437512818e-41, -5.045795510340801e-41, 4.925564102101732e-41, 5.01804980074717e-41, -4.953730201234661e-41, 4.913512935308539e-41, -5.605333987145701e-41, 5.050279665426641e-41, 4.931449555651896e-41, -4.978813443746075e-41, 5.054343430973183e-41, 4.913512935308539e-41, 4.961857732327745e-41, 5.192091070016312e-41, 4.938175788280655e-41, 5.117121602174934e-41, -5.653398524472042e-41, 4.913512935308539e-41, 6.147636492839405e-41, 9.26986960120153e-41, 4.913512935308539e-41, -5.071999791623675e-41, 1.732004901905474e-41, 4.913512935308539e-41, -4.955832148931148e-41, 5.34273065493123e-41, 4.946863838759469e-41, -4.912812286076376e-41, -4.926404881180327e-41, 4.913512935308539e-41, -5.079286543638164e-41, -5.18914834324123e-41, 4.913512935308539e-41, 5.025336552761659e-41, -1.2382153490466949e-40, 4.951768383384606e-41, -5.506262185717936e-41, 5.677781117751294e-41, 4.90566566390832e-41, -4.904684754983292e-41, -4.935373191352006e-41, 4.908047871297672e-41, 4.911410987612051e-41, 6.183649863372553e-41, -5.321150658580628e-41, -4.972647730503046e-41, 4.908468260836969e-41, -4.912672156229944e-41, 5.153835621940245e-41, -4.911270857765619e-41, 4.938596177819953e-41, -5.064572909762754e-41, -5.674978520822644e-41, -5.473331671806303e-41, 4.963399160638502e-41, 5.515370625736048e-41, -5.222078857152863e-41, 5.164765749961978e-41, 4.907207092219077e-41, 4.909869559301294e-41, -5.928893802558301e-41, 4.925984491641029e-41, 5.519574521129022e-41, -5.102548098145956e-41, -4.996609934243e-41, 5.326755852437927e-41, -5.306997544090947e-41, -5.426948692637152e-41, -5.037387719554852e-41, -4.987361364378456e-41, -6.179726227672443e-41, 5.074942518398758e-41, 4.935513321198438e-41, 5.048738237115883e-41, -5.328437410595117e-41, -4.991845519464296e-41, 4.99604941485727e-41, -4.918277350087243e-41, -5.055604599591075e-41, 5.021272787215117e-41, -5.41615869446185e-41, 5.197416004180747e-41, 4.934672542119843e-41, -4.916455662083621e-41, 4.909028780222699e-41, -5.088815373195573e-41, 5.802496681076203e-41, 6.149458180843027e-41, -5.081248361488219e-41, 4.92206085594092e-41, 5.336705071534633e-41, -5.095541605824332e-41, -6.240262321331275e-41, 5.078025375020272e-41, 5.207925742663183e-41, 5.086012776266924e-41, -5.071299142391513e-41, -5.215072364831239e-41, 5.662787224183018e-41, 6.199764795712288e-41, -5.231327427017407e-41, -1.7450650035929812e-40, 4.989743571767809e-41, -6.274173744167936e-41, 5.375661168842863e-41, -6.207331807419642e-41, -4.99492837608581e-41, -5.155517180097434e-41, 4.996750064089433e-41, -5.688150726387297e-41, 5.254448851678767e-41, -5.436197262501695e-41, 5.627754762574898e-41, -5.052241483276695e-41, -6.120731562324368e-41, -4.943080332905792e-41, 5.222078857152863e-41, -5.151173154858028e-41, -6.005404698710436e-41, -5.025756942300956e-41, -4.91925825901227e-41, 1.4855024890460953e-40, 6.294632701747078e-41, -5.205403405427398e-41, 5.221938727306431e-41, 5.653538654318474e-41, 5.879007577228338e-41, -5.744903314192453e-41, -4.956672928009743e-41, 4.918557609780108e-41, 4.989463312074944e-41, -5.0954014759779e-41, -6.074208453308785e-41, -5.774190452096841e-41, 5.58949931449883e-41, 4.907767611604807e-41, 5.386451167018164e-41, -5.196575225102152e-41, -5.003756556411057e-41, 6.298976726986485e-41, 4.916595791930053e-41, 5.674698261129779e-41, -6.137547143896266e-41, 5.077464855634542e-41, 5.019591229057927e-41, 5.119083420024989e-41, 4.944201371677252e-41, -4.910570208533456e-41, -6.202287132948073e-41, -5.084191088263301e-41, 5.216333533449132e-41, -5.07396160947373e-41, 5.277850536032991e-41, 5.180600422608849e-41, 6.019417683353684e-41, -5.103529007070984e-41, -5.205263275580965e-41, 4.911551117458484e-41, 4.942800073212927e-41, -6.272211926317881e-41, -4.914353714387133e-41, -5.198396913105774e-41, 5.015667593357818e-41, 5.008520971189761e-41, -4.914493844233566e-41, 4.916315532237188e-41, 4.95653279816331e-41, 5.085732516574059e-41, -1.100509748957495e-40, -5.274907809257909e-41, 4.996750064089433e-41, 4.991285000078566e-41, 5.549001788879843e-41, -5.409012072293794e-41, 5.26874209601488e-41, -4.939296827052115e-41, -5.204702756195236e-41, 5.654799822936367e-41, -5.877185889224715e-41, -5.395979996575573e-41, 5.328997929980847e-41, 5.317647412419816e-41, -5.916001856686513e-41, -6.000500154085299e-41, -5.643869694914633e-41, -4.941679034441467e-41, 6.056552092658292e-41, -5.206804703891723e-41, -5.068776805155728e-41, -5.698940724562599e-41, 5.187046395544743e-41, 5.002074998253867e-41, -5.470529074877653e-41, 5.769566167164569e-41, -6.243765567492087e-41, -3.6751854823846977e-41, 5.694316439630327e-41, 5.523918546368429e-41, -5.03332395400831e-41, -5.025476682608091e-41, 5.020151748443657e-41, 5.056725638362535e-41, 5.07171953193081e-41, -5.030100967540363e-41, 5.686329038383675e-41, 4.9802147422104e-41, -5.079706933177462e-41, 5.103669136917416e-41, 5.447828039755591e-41, 4.94406124183082e-41, 5.359826496195993e-41, -5.100726410142334e-41, 5.204702756195236e-41, -4.911831377151349e-41, 5.542695945790381e-41, 5.223620285463621e-41, -4.905245274369022e-41, 5.430592068644396e-41, -4.977692404974615e-41, -4.97797266466748e-41, 5.028139149690309e-41, 6.06832299975862e-41, 5.175976137676577e-41, 4.978953573592508e-41, -5.107592772617526e-41, -5.005017725028949e-41, 4.913933324847836e-41, 5.088815373195573e-41, -4.959195265245528e-41, 4.975029937892398e-41, -4.954711110159688e-41, -5.618225933017489e-41, -5.15523692040457e-41, -5.037387719554852e-41, -5.013285385968466e-41, 5.123707704957261e-41, -5.436197262501695e-41, 5.063872260530591e-41, -5.007119672725436e-41, 5.769706297011002e-41, 5.448949078527051e-41, -5.281073522500938e-41, -5.787642917354359e-41, 4.984698897296239e-41, -4.991845519464296e-41, -5.716176695673794e-41, 5.24449963258206e-41, -4.921079947015893e-41, 4.930188387034004e-41, 6.003302751013949e-41, -5.848179011013192e-41, -5.07115901254508e-41, -5.946410033362361e-41, -4.914633974079998e-41, 4.910430078687024e-41, 5.040470576176367e-41, -4.972367470810181e-41, 4.911551117458484e-41, -4.98301733913905e-41, -5.303354168083703e-41, 5.193212108787772e-41, -5.377622986692918e-41, 4.913372805462106e-41, -4.977692404974615e-41, -5.556849060280062e-41, 5.192231199862745e-41, -1.412648981885848e-41, -5.568619967380391e-41, 5.435636743115965e-41, 5.200638990648694e-41, 5.03836862847988e-41, 5.215632884216969e-41, -4.935653451044871e-41, 5.506682575257234e-41, 5.175976137676577e-41, -5.204562626348803e-41, 4.960176174170555e-41, -6.122973639867288e-41, -4.916595791930053e-41, 5.22642288239227e-41, 5.001234219175272e-41, 5.14963172654727e-41, 5.026177331840254e-41, 4.94237968367363e-41, 5.812586030019341e-41, -4.905805793754752e-41, -5.005858504107544e-41, 5.110535499392608e-41, 4.97629110651029e-41, 4.989603441921376e-41, -4.911130727919186e-41, 4.906506442986914e-41, -4.970265523113694e-41, 5.053923041433885e-41, -5.471650113649113e-41, -5.530504649150756e-41, -2.9360425814072865e-40, -4.959755784631258e-41, 4.994648116392945e-41, 4.92318189471238e-41, -5.018890579825765e-41, -5.049719146040911e-41, 5.020011618597225e-41, -5.519154131589725e-41, -5.924549777318894e-41, -4.96157747263488e-41, -5.062050572526969e-41, 5.140663416375591e-41, -5.454414142537918e-41, -2.9521995527009516e-40, -4.918417479933675e-41, 5.541995296558219e-41, -5.035285771858365e-41, 5.192651589402042e-41, -5.444464923441212e-41, 5.758776168989268e-41, 5.120624848335747e-41, 5.480057904435062e-41, -5.530925038690053e-41, -4.987501494224889e-41, -5.698520335023301e-41, 4.916315532237188e-41, -5.652838005086312e-41, -5.719960201527471e-41, -6.212236352044779e-41, 4.983717988371212e-41, -5.540874257786759e-41, 6.03273001876477e-41, 4.926404881180327e-41, -4.907347222065509e-41, 5.205263275580965e-41, 4.935233061505573e-41, -4.907907741451239e-41, -5.226703142085135e-41, -5.174855098905117e-41, 4.909168910069132e-41, -4.904824884829725e-41, 5.15523692040457e-41, 6.248389852424359e-41, -5.700622282719788e-41, 5.516211404814642e-41, -6.225408557609432e-41, -4.907627481758374e-41, 5.301252220387215e-41, 5.636582942900144e-41, -4.952048643077471e-41, -5.405648955979414e-41, -5.754011754210564e-41, -5.118242640946394e-41, 5.894842249875208e-41, -5.625092295492681e-41, -4.998151362553758e-41, 5.056725638362535e-41, 6.303320752225892e-41, -5.70636760642352e-41, 6.257077902903173e-41, -4.972227340963748e-41, 4.979794352671102e-41, -6.043800276632936e-41, -5.313303387180409e-41, -5.177937955526632e-41, -5.333061695527389e-41, -5.22474132423508e-41, -5.037527849401285e-41, 4.927946309491084e-41, 5.22922547932092e-41, 5.434515704344506e-41, -4.96325903079207e-41, 5.187046395544743e-41, 5.090216671659898e-41, -5.220677558688538e-41, -5.741820457570938e-41, -4.945042150755847e-41, -5.353660782952964e-41, 4.933831763041248e-41, 4.909028780222699e-41, -5.812445900172909e-41, 4.92037929778373e-41, -4.912111636844214e-41, -5.105630954767471e-41, 5.312742867794679e-41, -4.921079947015893e-41, 4.936914619662763e-41, -5.039910056790637e-41, 6.089482606569925e-41, 5.091898229817088e-41, 5.084611477802599e-41, -5.338386629691823e-41, -4.986100195760564e-41, 5.060929533755509e-41, -4.97965422282467e-41, 4.908468260836969e-41, -5.584875029566558e-41, -5.11459926493915e-41, 4.974189158813803e-41, -5.803337460154797e-41, -6.047443652640181e-41, 4.960876823402717e-41, 4.948405267070227e-41, 5.173593930287225e-41, 9.956225589027825e-42, -5.127911600350236e-41, -6.254975955206686e-41, -4.977692404974615e-41, -5.236512231335409e-41, 5.09764355352082e-41, 4.909449169761997e-41, 5.270844043711367e-41, -5.05252174296956e-41, -5.997557427310217e-41, -6.076170271158839e-41, -5.929594451790463e-41, 5.234410283638922e-41, 5.281914301579533e-41, 5.805579537697717e-41, 4.107401980721044e-40, 4.975170067738831e-41, 5.148090298236513e-41, -5.375801298689296e-41, -6.152681167310974e-41, -5.13155497635748e-41, -5.090496931352763e-41, 4.913372805462106e-41, 6.215459338512726e-41, -5.055604599591075e-41, -5.091758099970655e-41, 5.135618741904022e-41, 5.649054499232635e-41, 5.119924199103584e-41, 2.635506099763543e-40, 4.91813722024081e-41, -4.947844747684497e-41, 5.145147571461431e-41, -5.029400318308201e-41, 5.21002769035967e-41, 5.305736375473055e-41, -5.378183506078648e-41, -4.978393054206778e-41, -6.149458180843027e-41, -5.674418001436914e-41], [-4.92262137532665e-41, -4.92262137532665e-41, 7.921540218828191e-42, 9.996863244493245e-42, 9.996863244493245e-42, 9.996863244493245e-42, 6.295333350979241e-41, 1.0392029411432843e-41, 9.49800099119361e-42, 1.2408497901596255e-41, 8.483460903022443e-42, 9.594690585232022e-42, -4.936504628466273e-15, -4.055422227281771e-15, 6.181267655983201e-41, 5.018890579825765e-41, -5.022954345372307e-41, 9.996863244493245e-42, 4.953590071388228e-41, -5.385610387939569e-41, 9.996863244493245e-42, -4.970125393267261e-41, 4.966341887413584e-41, 9.996863244493245e-42, -4.918837869472973e-41, -4.938876437512818e-41, 6.059214559740509e-41, 4.913793195001404e-41, -6.219382974212836e-41, 6.023901838439524e-41, 5.874243162449633e-41, -6.213917910201969e-41, 9.385897114047625e-42, 4.933831763041248e-41, -5.2817741717331e-41, 1.3086726358329467e-41, -4.92093981716946e-41, 4.922341115633785e-41, 1.1550903241429467e-41, -4.907907741451239e-41, 4.93733500920206e-41, 6.260160759524688e-41, -4.929767997494706e-41, -4.967743185877909e-41, 9.996863244493245e-42, 4.954150590773958e-41, 4.97573058712456e-41, 1.0962357886413044e-41, 4.931309425805464e-41, 4.931589685498329e-41, -1.3782027680234246e-32, 4.968583964956504e-41, -4.928086439337517e-41, -4.918417479933675e-41, -5.617945673324624e-41, 4.91869773962654e-41, 9.066401064181566e-42, 4.916035272544323e-41, 4.991705389617863e-41, -5.855886152566978e-41, -4.968443835110071e-41, -4.913232675615674e-41, -4.935653451044871e-41, 4.952328902770336e-41, -4.968864224649369e-41, 4.92206085594092e-41, 4.936494230123466e-41, -4.939156697205683e-41, -6.115266498313502e-41, 4.911130727919186e-41, 4.936494230123466e-41, -1.1105290329774175e-41, 4.952749292309633e-41, -4.904684754983292e-41, -5.654239303550637e-41, -4.944481631370117e-41, 4.99885201178592e-41, -5.179759643530254e-41, -4.910990598072754e-41, 5.029400318308201e-41, -6.201726613562343e-41, -6.066921701294296e-41, -4.927666049798219e-41, -1.3111949730687313e-41, -4.954851240006121e-41, -4.935653451044871e-41, -1.0981976064913591e-41, 4.946443449220172e-41, 5.123987964650126e-41, -1.665443224850045e-41, -5.044954731262206e-41, 5.535969713161622e-41, -9.996863244493245e-42, -5.01748928136144e-41, 4.956953187702608e-41, -9.996863244493245e-42, 4.907066962372644e-41, 5.13323653451467e-40, -9.996863244493245e-42, -4.942239553827197e-41, -5.223620285463621e-41, -9.996863244493245e-42, -4.913933324847836e-41, 4.905945923601185e-41, -9.163090658219979e-42, 4.996750064089433e-41, 4.94462176121655e-41, -6.294352442054213e-41, -4.951908513231039e-41, 4.910009689147727e-41, -6.296758740066691e-29, -2.3079026078191853e-36, -4.6796909120183226e-32, 3.125736354522937e-41, 4.939296827052115e-41, -4.933131113809086e-41, -4.953029552002498e-41, 5.872981993831741e-41, 4.910850468226321e-41, -5.142485104379214e-41, -5.217314442374159e-41, 4.916315532237188e-41, -5.016648502282845e-41, -5.787642917354359e-41, 4.987501494224889e-41, 5.062611091912699e-41, 5.36585207959259e-41, 5.233709634406759e-41, -4.936914619662763e-41, 6.094387151195062e-41, -5.904791468971914e-41, -5.294525987758456e-41, 5.019871488750792e-41, -5.965747952170044e-41, -5.874383292296066e-41, -5.962244706009232e-41, -5.051120444505236e-41, 1.0196548275659531e-40, 4.964940588949259e-41, -5.571282434462608e-41, 4.959475524938393e-41, -9.375387375565189e-41, 4.979514092978237e-41, -5.660264886947234e-41, 5.049999405733776e-41, -4.95877487570623e-41, -5.273646640640017e-41, -4.907907741451239e-41, 5.008520971189761e-41, -4.912391896537079e-41, 5.699641373794761e-41, -4.925704231948164e-41, -5.033183824161878e-41, 4.925844361794597e-41, -5.930575360715491e-41, -5.218575610992051e-41, -4.910289948840591e-41, 4.99604941485727e-41, -6.181127526136768e-41, -5.030521357079661e-41, 5.368094157135509e-41, 5.114319005246285e-41, 6.059494819433374e-41, -5.295366766837051e-41, 4.920239167937298e-41, -5.883211472621312e-41, -5.262436252925418e-41, -5.045655380494369e-41, -5.385330128246704e-41, 5.17387418998009e-41, 5.488045305681714e-41, 1.1051760728436967e-40, 5.095121216285035e-41, -5.833325247291349e-41, 5.575206070162717e-41, -5.926651725015381e-41, 5.446146481598402e-41, 5.30321403823727e-41, 4.022903683322258e-40, -5.090637061199195e-41, 5.316806633341221e-41, -5.049298756501613e-41, 5.489166344453173e-41, -5.261175084307526e-41, -5.757094610832078e-41, -5.738597471102991e-41, 5.047336938651559e-41, 5.013845905354195e-41, -5.571282434462608e-41, -5.069477454387891e-41, -5.485663098292361e-41, -5.116000563403475e-41, -5.546059062104761e-41, -5.707628775041412e-41, -5.466745569023976e-41, -4.969705003727964e-41, 4.932150204884059e-41, -5.447828039755591e-41, -5.09428043720644e-41, -4.945602670141577e-41, 4.985679806221267e-41, 1.2593048909347834e-40, 4.912251766690646e-41, 5.787362657661495e-41, -5.270844043711367e-41, -5.063451870991294e-41, 5.600289312674131e-41, 5.478936865663602e-41, 4.923041764865947e-41, 5.148931077315108e-41, 4.909028780222699e-41, -5.139262117911267e-41, -5.241556905806978e-41, 5.107032253231796e-41, -5.385330128246704e-41, -5.903250040661157e-41, -5.394718827957681e-41, -5.684227090687188e-41, -5.418540901851203e-41, 4.927666049798219e-41, -5.381406492546595e-41, -5.022674085679442e-41, 5.638684890596631e-41, 6.275294782939396e-41, -5.038088368787015e-41, -4.966061627720719e-41, 5.221518337767133e-41, 5.391776101182599e-41, -5.053222392201723e-41, 4.935092931659141e-41, -5.262436252925418e-41, -5.145708090847161e-41, -5.10955459046758e-41, -5.129032639121695e-41, -5.311341569330354e-41, -5.263417161850445e-41, 4.941398774748602e-41, 5.175976137676577e-41, 4.91869773962654e-41, 4.940557995670008e-41, -4.931729815344761e-41, 5.158319777026084e-41, 5.380425583621568e-41, 5.015387333664953e-41, 4.926685140873192e-41, 5.431012458183694e-41, 5.599868923134834e-41, -5.029540448154633e-41, 6.24278465856706e-41, -5.186065486619715e-41, 1.5215578985331729e-40, 5.112217057549798e-41, 4.933971892887681e-41, 4.945742799988009e-41, -6.251893098585171e-41, 5.198396913105774e-41, 5.277149886800829e-41, 5.634200735510792e-41, 5.128191860043101e-41, 4.918417479933675e-41, 5.526160623911349e-41, -5.633219826585765e-41, 5.657462290018584e-41, 6.191497134772772e-41, -5.055044080205345e-41, 6.224988168070135e-41, -5.07228005131654e-41, -5.028139149690309e-41, -5.105911214460336e-41, 4.913793195001404e-41, -5.266079628932663e-41, -5.193212108787772e-41, -4.99829149240019e-41, -5.158179647179652e-41, -5.329838709059442e-41, -5.05532433989821e-41, 5.727527213234825e-41, 5.628315281960628e-41, 5.005017725028949e-41, -5.059808494984049e-41, 4.941679034441467e-41, -4.917856960547946e-41, -5.189428602934095e-41, -5.732011368320664e-41, 1.496040253497818e-40, 5.529803999918593e-41, -5.338246499845391e-41, 5.005017725028949e-41, 5.146408740079323e-41, 5.280513003115208e-41, 5.810764342015719e-41, 5.818471483569505e-41, 1.3459331619993435e-40, 5.005998633953977e-41, -5.193492368480637e-41, 5.026737851225984e-41, -4.992546168696458e-41, 5.253467942753739e-41, -5.958461200155555e-41, 5.145988350540026e-41, 1.3844268308143463e-40, -4.973628639428073e-41, 5.517472573432535e-41, -4.90566566390832e-41, -5.810904471862151e-41, 5.119083420024989e-41, 5.583753990795099e-41, -4.981756170521157e-41, 5.296207545915646e-41, 5.142344974532781e-41, -6.076030141312407e-41, 4.906506442986914e-41, -5.924549777318894e-41, -6.24614777488144e-41, -5.05420330112675e-41, 4.92318189471238e-41, 5.013145256122033e-41, -5.438859729583912e-41, 5.7809166847256e-41, -6.040997679704286e-41, 6.159547529786166e-41, 5.812866289712206e-41, -4.950086825227416e-41, -5.092178489509953e-41, -4.921079947015893e-41, 5.068216285769998e-41, -5.009221620421924e-41, -6.256517383517443e-41, 5.508224003567991e-41, -6.272912575550044e-41, 5.499816212782042e-41, 4.976150976663858e-41, -5.003896686257489e-41, -5.26650001847196e-41, 5.824777326658967e-41, -5.122586666185801e-41, -4.935092931659141e-41, -5.488325565374579e-41, 4.917156311315783e-41, 5.056725638362535e-41, -5.148650817622243e-41, -5.890498224635801e-41, 5.255429760603794e-41, -4.989183052382079e-41, 2.6950612844973477e-40, -5.099465241524442e-41, 5.981862884509779e-41, -5.200078471262964e-41, -5.179339253990956e-41, 5.062611091912699e-41, 4.921780596248055e-41, 4.950647344613146e-41, -6.056692222504724e-41, -5.313723776719706e-41, 5.070178103620053e-41, -5.972053795259505e-41, 5.010062399500518e-41, -5.160982244108301e-41, 4.907627481758374e-41, 5.564135812294551e-41, 4.908748520529834e-41, -5.18634574631258e-41, -5.113197966474825e-41, 5.551804385808493e-41, 6.035812875386285e-41, -4.957793966781203e-41, -5.461140375166677e-41, -5.104229656303146e-41, -4.933551503348383e-41, -5.007820321957599e-41, 5.105210565228174e-41, -5.883491732314177e-41, -5.23034651809238e-41, -5.345112862320582e-41, -4.929067348262544e-41, 4.913653065154971e-41, -5.133376664361102e-41, -6.055711313579697e-41, -5.539332829476002e-41, 4.935793580891303e-41, -5.015667593357818e-41, -5.638684890596631e-41, 4.90566566390832e-41, -5.492109071228256e-41, -4.980354872056832e-41, -5.312322478255382e-41, -5.807401225701339e-41, -5.05420330112675e-41, 5.739718509874451e-41, -5.018890579825765e-41, -5.100586280295902e-41, -4.910430078687024e-41, 5.733272536938557e-41, -4.934952801812708e-41, 5.283595859736723e-41, 5.368094157135509e-41, 5.009081490575491e-41, -5.472070503188411e-41, -5.983404312820536e-41, -5.033744343547608e-41, 5.266079628932663e-41, 4.971246432038721e-41, -4.955692019084716e-41, 5.005438114568247e-41, -4.926545011026759e-41, 5.050840184812371e-41, -5.026597721379551e-41, 5.645130863532526e-41, -5.093439658127845e-41, -5.174294579519387e-41, 4.90566566390832e-41, 5.11515978432488e-41, 6.303040492533027e-41, -5.081949010720382e-41, -1.5025843173262148e-40, 5.274067030179314e-41, 4.974329288660236e-41, 4.914213584540701e-41, -4.988482403149916e-41, -4.990864610539268e-41, -4.955131499698986e-41, 5.07284057070227e-41, 5.039209407558475e-41, -5.142204844686349e-41, -6.0332905381505e-41, -4.917997090394378e-41, -5.222359116845728e-41, 5.177237306294469e-41, 5.105350695074606e-41, -5.012444606889871e-41, -4.947984877530929e-41, 5.798573045376093e-41, 4.908748520529834e-41, 5.036967330015555e-41, 5.09091732089206e-41, -5.003336166871759e-41, -4.947003968605902e-41, -1.4373538738118946e-40, 5.09035680150633e-41, 6.232975569316786e-41, 5.026737851225984e-41, 5.079706933177462e-41, -5.434795964037371e-41, 4.990724480692836e-41, 4.950787474459579e-41, 5.520415300207617e-41, 5.043133043258584e-41, 4.985679806221267e-41, 5.017068891822143e-41, -6.100973253977389e-41, -6.10783961645258e-41, 4.95709331754904e-41, 5.117541991714232e-41, -4.978252924360345e-41, -5.339787928156148e-41, -4.907907741451239e-41, 4.945742799988009e-41, 6.230733491773867e-41, -5.330118968752307e-41, 4.936354100277033e-41, 4.96269851140634e-41, 4.96325903079207e-41, 6.172439475657954e-41, -5.868637968592334e-41, 4.997871102860893e-41, 5.540313738401029e-41, -5.010482789039816e-41, 5.005858504107544e-41, 4.976150976663858e-41, -4.92206085594092e-41, 4.973488509581641e-41, 5.034304862933338e-41, -5.297889104072836e-41, 4.918977999319405e-41, -6.258058811828201e-41, -5.242117425192708e-41, -5.068496545462863e-41, -4.949806565534551e-41, 5.365431690053292e-41, -5.039910056790637e-41, 5.564135812294551e-41, -4.920239167937298e-41, -5.392336620568329e-41, -5.148650817622243e-41, -6.040297030472124e-41, -5.09652251474936e-41, -5.132395755436075e-41, 4.911130727919186e-41, -5.270423654172069e-41, -4.948545396916659e-41, 4.946163189527307e-41, 5.340628707234743e-41, 4.957934096627635e-41, -4.983858118217644e-41, -4.986940974839159e-41, 5.265098720007635e-41, 5.524619195600591e-41, 5.426528303097854e-41, 6.096348969045117e-41, -4.914213584540701e-41, -5.250385086132225e-41, -5.769145777625272e-41, -5.588098016034506e-41, -5.255990279989524e-41, 5.050139535580208e-41, -5.018890579825765e-41, -6.186592590147635e-41, -5.043553432797882e-41, -5.118663030485692e-41, 5.411954799068876e-41, 5.111096018778338e-41, -4.914353714387133e-41], [-2.943582877446005e-13, -2.943596972074247e-13, 1.8623878752111606e-13, 1.8623119810590866e-13, 1.8622293106434346e-13, 3.0645532769421613e-13, 1.8650680229815447e-13, -4.045730222189403e-13, 1.853512054126108e-13, 1.8625612120334867e-13, 2.414552661544195e-13, 1.5693938932703072e-13, -5.330392127689265e-07, -2.775219627437764e-07, -5.803486218067949e-14, 1.5954764094085194e-13, 4.915334623312161e-41, 1.8621367468829586e-13, -1.2784742611359617e-13, -4.944201371677252e-41, 1.8622293106434346e-13, 1.7758968666285735e-13, 5.298870012997863e-41, 1.8622293106434346e-13, -1.8675694129187403e-13, 4.92150033655519e-41, 1.8622293106434346e-13, -8.504824042286988e-14, -4.938596177819953e-41, 1.869993688976418e-13, 8.398455677649866e-14, -1.1011915358250576e-14, 1.8622093884285151e-13, 2.690491872261308e-13, -6.464859030053116e-14, 1.8622293106434346e-13, 3.6957931289979817e-13, 1.4972299387707583e-13, 1.8622093884285151e-13, -3.603964457594977e-13, 6.57019943550545e-14, -5.216187182709164e-13, -2.284803273769516e-14, 3.7551969048416414e-14, 1.8622869088838478e-13, 3.271795811707334e-13, 3.1316019655919236e-13, 1.8617190579960086e-13, -4.68216611315686e-13, 8.881358647648552e-14, 4.58999917067604e-13, -5.97697076294007e-13, -1.5958083107985715e-13, 2.4226927836925802e-14, -3.2160789331138473e-13, -2.7916010432102456e-13, 1.8617190579960086e-13, -1.4614478789469476e-13, -9.315773385988255e-14, 3.215548487200959e-13, -3.565434419602366e-14, -8.372614396495032e-14, -1.2647074685255555e-13, 4.62291988544139e-13, 3.0985850278837657e-13, 1.2564734951266143e-13, -3.09001244459383e-14, 1.450019574897321e-13, -3.357613124164993e-13, -2.296517739430043e-13, 3.1393954818582925e-14, -1.8449545819039515e-13, 2.0895664484734539e-13, -7.918154623458556e-15, -6.154439479745533e-13, 3.4427303130697695e-13, 3.760934434975799e-13, -4.318547676038752e-14, -2.9215025581022513e-13, 1.9998862592005007e-13, -1.8618979513544687e-13, 3.47227834592706e-13, -2.083150953168314e-13, -1.8624254157113829e-13, 9.509843541984087e-14, 1.9340667847637938e-13, -1.8623024942900773e-13, -1.5554659611120153e-13, 9.587748042055085e-15, -1.8623508768120245e-13, -4.1755563172677854e-14, -1.8326589499976544e-14, -1.8622293106434346e-13, 3.9431321706071e-13, -6.325806798003356e-15, -1.8623400347902996e-13, -2.893163139616739e-13, 9.25528845729072e-15, -1.8622293106434346e-13, -2.223609344613811e-13, 1.8036392794017585e-40, -1.8622093884285151e-13, 1.9005227892745363e-13, -4.947144098452334e-41, -1.8622093884285151e-13, 1.545422996388282e-13, -5.522797507596969e-41, -1.8632793604474868e-13, -3.431851699521593e-13, -2.096616744150584e-13, 1.731590402748867e-13, 2.3576556288859574e-13, 5.739843821593593e-13, -3.639262014572958e-13, -4.2875856402606327e-13, -1.3404175772807614e-13, 5.119503809564287e-41, -2.0368534875241096e-13, -1.5760730191099505e-14, 5.427649341869314e-41, 5.790725773975874e-41, -6.059775079126239e-41, 5.257811967993146e-41, 5.883631862160609e-41, -6.280339457410965e-41, -5.951454707833931e-41, -1.4482980148182714e-40, 4.953169681848931e-41, -5.427789471715746e-41, -4.974609548353101e-41, -5.858969009188493e-41, 5.949212630291011e-41, -4.923602284251677e-41, 5.004597335489652e-41, -5.883631862160609e-41, -4.973348379735208e-41, 4.943220462752225e-41, 4.907207092219077e-41, -5.05196122358383e-41, -5.045375120801504e-41, -4.993527077621486e-41, 4.952469032616768e-41, 5.621168659792571e-41, 5.584174380334396e-41, 5.193912758019934e-41, 5.463802842248894e-41, -4.972787860349478e-41, -5.70524656765206e-41, 5.333201825373821e-41, -1.662332342259244e-40, 5.041451485101394e-41, -5.004036816103922e-41, -5.237633270106869e-41, -5.056305248823237e-41, -4.910149818994159e-41, -5.166727567812033e-41, 5.03388447339404e-41, -5.104650045842444e-41, -5.008801230882626e-41, 4.929347607955409e-41, 5.061910442680537e-41, -5.038228498633447e-41, 5.069197194695026e-41, 4.907207092219077e-41, -6.128578833724587e-41, 5.047617198344424e-41, 6.292811013743456e-41, -5.20722509343102e-41, 5.12987341820029e-41, 5.174714969058684e-41, -4.910289948840591e-41, -5.141364065607754e-41, 5.738036951717261e-41, 5.427228952330017e-41, 5.241837165499843e-41, -6.133203118656859e-41, -4.955832148931148e-41, 5.285837937279642e-41, 5.174294579519387e-41, -4.93789552858779e-41, 5.952295486912525e-41, 6.01465326857498e-41, -4.916876051622918e-41, 6.140209610978483e-41, 6.292811013743456e-41, -6.133623508196157e-41, -1.5578515287591856e-40, 6.222746090527215e-41, 5.568339707687526e-41, -5.32129078842706e-41, -6.075049232387379e-41, -5.513128548193128e-41, 5.663487873415181e-41, -5.269442745247042e-41, 5.829401611591239e-41, -4.951488123691741e-41, -5.070598493159351e-41, 4.948685526763091e-41, -5.997417297463785e-41, -5.331380137370199e-41, -4.971246432038721e-41, -4.942099423980765e-41, -5.841172518691567e-41, 5.108153292003256e-41, -5.328297280748684e-41, 6.085699100716248e-41, -4.910289948840591e-41, 4.950086825227416e-41, -5.466885698870409e-41, -5.391495841489734e-41, 5.645270993378958e-41, -5.371597403296321e-41, 5.806980836162042e-41, -4.931309425805464e-41, 4.928086439337517e-41, -5.07620368701665e-41, -5.05364278174102e-41, -5.085031867341896e-41, -5.176116267523009e-41, 4.996189544703703e-41, 5.168549255815655e-41, 4.965641238181422e-41, 5.358285067885236e-41, 4.994788246239378e-41, 4.911130727919186e-41, 5.963786134319989e-41, -4.913793195001404e-41, 5.111516408317635e-41, -5.064572909762754e-41, -6.151419998693082e-41, -5.347214810017069e-41, -4.996469804396568e-41, 5.118663030485692e-41, 4.918557609780108e-41, -5.076483946709515e-41, 4.954851240006121e-41, 5.256971188914551e-41, 5.36473104082113e-41, 4.973068120042343e-41, 5.486503877370956e-41, 5.16939003489425e-41, -5.091617970124223e-41, -5.054623690666048e-41, 5.70468604826633e-41, -5.088675243349141e-41, 4.94013760613071e-41, 4.940838255362873e-41, -5.95481782414831e-41, 5.000813829635975e-41, 4.984839027142672e-41, -4.947984877530929e-41, -4.926965400566057e-41, 6.096489098891549e-41, 5.016228112743548e-41, 5.284857028354615e-41, 5.789044215818684e-41, 4.997871102860893e-41, -4.907347222065509e-41, -4.985399546528402e-41, -4.952609162463201e-41, -4.914353714387133e-41, -5.378043376232215e-41, -5.040890965715664e-41, -4.946863838759469e-41, 5.724584486459743e-41, 6.05473040465467e-41, -4.906926832526212e-41, -5.387011686403894e-41, 5.550683347037033e-41, 4.933831763041248e-41, 4.984558767449807e-41, -4.971947081270883e-41, 4.964239939717097e-41, 4.190498979655506e-40, -4.924443063330272e-41, -5.218575610992051e-41, -5.819592522340965e-41, 5.665029301725938e-41, 6.210134404348292e-41, -5.929874711483328e-41, 5.197976523566476e-41, -1.521109483024589e-41, -5.494211018924743e-41, 5.380425583621568e-41, 5.525039585139889e-41, 5.022253696140144e-41, 5.390935322104004e-41, -5.120624848335747e-41, -4.947424358145199e-41, 5.695017088862489e-41, -4.997450713321595e-41, 5.868918228285199e-41, -6.054310015115372e-41, -5.421623758472717e-41, -5.081808880873949e-41, -5.272805861561422e-41, 5.126230042193046e-41, -5.783018632422088e-41, 5.033464083854743e-41, 3.573170954181851e-41, -5.038508758326312e-41, -5.032483174929716e-41, 5.148090298236513e-41, -5.957760550923392e-41, 5.799273694608255e-41, 5.083210179338274e-41, -4.923322024558812e-41, 5.412094928915308e-41, 5.946830422901659e-41, -6.058934300047644e-41, -5.411814669222444e-41, -5.072560311009405e-41, -4.952188772923904e-41, -5.428490120947909e-41, -4.990023831460674e-41, -5.257111318760984e-41, 4.955692019084716e-41, -4.917576700855081e-41, -5.106471733846066e-41, -2.8714567351865557e-40, 4.908328130990537e-41, -6.020258462432279e-41, 5.802496681076203e-41, -5.060929533755509e-41, 5.089936411967033e-41, -4.918417479933675e-41, -4.970826042499424e-41, -5.737196172638666e-41, -5.103248747378119e-41, 5.305315985933757e-41, 5.09484095659217e-41, 5.937721982883547e-41, -5.056165118976805e-41, -5.013705775507763e-41, -4.968724094802936e-41, 5.250945605517955e-41, 1.3377075400137569e-40, -5.140803546222024e-41, -5.087133815038383e-41, 4.944481631370117e-41, 5.088535113502708e-41, -1.670571977229474e-40, -5.475013229963493e-41, -5.003476296718192e-41, 4.946163189527307e-41, 5.051400704198101e-41, -5.152294193629487e-41, 4.952609162463201e-41, -4.987921883764186e-41, -5.238894438724761e-41, -4.991705389617863e-41, 5.074802388552325e-41, -5.080407582409624e-41, -4.968023445570774e-41, -4.999692790864515e-41, -5.054063171280318e-41, -5.073541219934433e-41, 5.544237374101139e-41, 5.032763434622581e-41, -5.049719146040911e-41, 4.951628253538174e-41, -6.098731176434469e-41, -5.690953323315947e-41, -5.010202529346951e-41, -5.249264047360765e-41, 4.907066962372644e-41, 4.936914619662763e-41, 5.064152520223456e-41, 4.927105530412489e-41, -5.22586236300654e-41, 5.056024989130372e-41, 4.94013760613071e-41, -4.953449941541796e-41, -4.904965014676157e-41, 5.819032002955235e-41, -5.961544056777069e-41, 6.285804521421832e-41, 5.649755148464797e-41, -5.01804980074717e-41, 5.106611863692498e-41, -5.096662644595792e-41, -5.021973436447279e-41, -5.065693948534214e-41, -1.4586536104696318e-40, 5.907734195746996e-41, 5.020572137982955e-41, -5.088254853809843e-41, -5.09035680150633e-41, 4.967883315724341e-41, -4.917856960547946e-41, -5.317086893034086e-41, 5.156217829329597e-41, -5.123007055725099e-41, 6.188414278151257e-41, -5.053782911587453e-41, 5.933658217337005e-41, 5.503039199249989e-41, 4.907487351911942e-41, -9.00334263328695e-42, -5.336284681995336e-41, 4.94350072244509e-41, 4.929908127341139e-41, -5.47991777458863e-41, 5.068496545462863e-41, 5.038228498633447e-41, -5.026457591533119e-41, 5.404387787361522e-41, 5.249684436900062e-41, -4.954150590773958e-41, 5.297889104072836e-41, -4.912251766690646e-41, -4.993947467160783e-41, -6.077851829316029e-41, 5.221938727306431e-41, -5.78708239796863e-41, -5.028139149690309e-41, 5.162663802265491e-41, -6.033430667996932e-41, 4.962278121867042e-41, 5.128051730196668e-41, 5.059668365137617e-41, -5.150892895165163e-41, 5.386170907325299e-41, 5.218855870684916e-41, 4.99492837608581e-41, -4.944341501523685e-41, 4.926825270719624e-41, -5.018890579825765e-41, 4.910149818994159e-41, -4.931869945191194e-41, 4.961297212942015e-41, 5.517052183893237e-41, 6.001901452549624e-41, 5.385890647632434e-41, -5.51551075558248e-41, -4.914353714387133e-41, -4.909168910069132e-41, 5.049298756501613e-41, 5.038088368787015e-41, -4.949946695380984e-41, -5.599868923134834e-41, -6.084578061944788e-41, 5.11459926493915e-41, 4.951067734152444e-41, -5.393317529493356e-41, -5.88082926523196e-41, 5.368094157135509e-41, -5.443624144362617e-41, 4.979373963131805e-41, 4.909028780222699e-41, -5.287519495436832e-41, 4.923041764865947e-41, -5.061770312834104e-41, -5.564696331680281e-41, 4.99885201178592e-41, -5.113057836628393e-41, 4.910990598072754e-41, 5.982843793434806e-41, -5.155096790558137e-41, 4.914493844233566e-41, -5.132255625589643e-41, 5.089375892581303e-41, 5.131835236050345e-41, 5.207365223277453e-41, 5.029540448154633e-41, -5.068636675309296e-41, -4.995769155164405e-41, -4.940417865823575e-41, -5.139682507450564e-41, -4.9582143563205e-41, 2.8012656951085256e-40, 4.994648116392945e-41, 4.920799687323028e-41, 4.985679806221267e-41, -5.085872646420491e-41, 4.985259416681969e-41, 4.978813443746075e-41, -5.11515978432488e-41, 5.064713039609186e-41, 5.034585122626203e-41, -4.940557995670008e-41, -5.008661101036194e-41, -5.017629411207872e-41, -5.235251062717517e-41, 6.007786906099788e-41, -5.071859661777243e-41, -5.168549255815655e-41, -5.15467640101884e-41, 5.070738623005783e-41, 5.545778802411896e-41, -1.3695170151539302e-40, -4.975870716970993e-41, -5.089936411967033e-41, 4.982316689906887e-41, -5.322131567505655e-41, -5.798152655836796e-41, 4.904684754983292e-41, -5.039769926944205e-41, -5.792827721672361e-41, 4.983437728678347e-41, -4.995629025317973e-41, -4.964380069563529e-41, -4.975590457278128e-41, -5.013285385968466e-41, -4.335603435636341e-40, 6.093826631809332e-41, 5.124968873575153e-41, -6.147776622685837e-41, 4.908328130990537e-41, -5.061910442680537e-41, -5.380845973160865e-41, -5.081388491334652e-41], [-4.931729815344761e-41, -4.931729815344761e-41, 4.918417479933675e-41, 4.9254239722553e-41, 4.912251766690646e-41, 4.905805793754752e-41, 4.94462176121655e-41, 4.933831763041248e-41, 4.9254239722553e-41, 4.956252538470445e-41, 4.929487737801841e-41, 4.950226955073849e-41, -8.94740899276026e-19, -4.945848333279858e-19, -5.274487419718611e-41, 5.005157854875382e-41, -3.00180551833805e-40, 4.9254239722553e-41, 4.914073454694269e-41, -4.907907741451239e-41, 4.933831763041248e-41, 4.947984877530929e-41, 4.932570594423356e-41, 4.9254239722553e-41, -4.934812671966276e-41, 5.475293489656358e-41, 4.9254239722553e-41, -4.916315532237188e-41, 9.905498584619267e-41, 4.9254239722553e-41, 4.951908513231039e-41, -6.037634563389907e-41, 4.9254239722553e-41, -4.921360206708758e-41, -5.177517565987334e-41, 4.933831763041248e-41, -4.930048257187571e-41, -4.966061627720719e-41, 4.905805793754752e-41, 4.944902020909414e-41, -4.989883701614241e-41, 4.942800073212927e-41, -4.913933324847836e-41, 5.110955888931905e-41, 4.931869945191194e-41, -4.91813722024081e-41, -4.917156311315783e-41, 4.917436571008648e-41, 4.956953187702608e-41, 4.919538518705135e-41, 4.952469032616768e-41, -4.917016181469351e-41, 4.925984491641029e-41, 4.934812671966276e-41, -4.947844747684497e-41, 4.93901656735925e-41, 4.94462176121655e-41, 4.917997090394378e-41, 4.970685912652991e-41, 4.925143712562435e-41, -4.927525919951787e-41, 4.920519427630163e-41, -4.917156311315783e-41, -4.909869559301294e-41, -4.926264751333894e-41, -4.934252152580546e-41, 4.959615654784825e-41, -4.959475524938393e-41, -4.913653065154971e-41, -4.945042150755847e-41, -4.925844361794597e-41, -4.916455662083621e-41, 4.94462176121655e-41, -4.940557995670008e-41, -4.954290720620391e-41, 4.909589299608429e-41, 4.937615268894925e-41, -4.905805793754752e-41, -4.968864224649369e-41, -4.924723323023137e-41, -4.9254239722553e-41, -4.948545396916659e-41, 4.939156697205683e-41, -4.933831763041248e-41, -4.95765383693477e-41, 4.99829149240019e-41, -4.9254239722553e-41, 4.909168910069132e-41, -5.041731744794259e-41, -4.933831763041248e-41, 4.908328130990537e-41, 4.955692019084716e-41, -4.95709331754904e-41, 5.055044080205345e-41, -5.819452392494533e-41, -4.928366699030382e-41, -4.957373577241905e-41, 2.3026276495631827e-40, -4.9254239722553e-41, 4.964099809870664e-41, -4.929067348262544e-41, -4.905805793754752e-41, -4.946723708913037e-41, 5.541715036865354e-41, -4.916455662083621e-41, -4.971386561885154e-41, 5.810624212169286e-41, -4.90622618329405e-41, -4.907907741451239e-41, -6.209433755116129e-41, -4.936774489816331e-41, 4.943360592598657e-41, 4.940417865823575e-41, 4.927666049798219e-41, 4.941118515055737e-41, 5.025756942300956e-41, 4.948405267070227e-41, 4.916735921776486e-41, 4.951768383384606e-41, 5.650315667850527e-41, 6.11176325215269e-41, -5.982423403895509e-41, 5.821694470037453e-41, 5.82323589834821e-41, 5.278270925572288e-41, -5.085592386727626e-41, 4.974049028967371e-41, 5.528542831300701e-41, 5.116000563403475e-41, 5.095261346131467e-41, 5.884332511392772e-41, 5.100726410142334e-41, 4.923041764865947e-41, -5.027578630304579e-41, -5.055744729437508e-41, 5.034865382319068e-41, -5.646672291843283e-41, 6.197802977862233e-41, 4.908608390683402e-41, 5.475293489656358e-41, 5.029120058615336e-41, -5.13043393758602e-41, 5.702584100569843e-41, -4.921079947015893e-41, 5.003476296718192e-41, -4.969985263420829e-41, -5.125109003421586e-41, 6.035812875386285e-41, 5.014406424739925e-41, 5.032343045083283e-41, 6.264925174303392e-41, -5.052942132508858e-41, -4.926264751333894e-41, 6.098871306280901e-41, 5.638124371210901e-41, 4.953590071388228e-41, -5.509905561725181e-41, -5.968830808791558e-41, -5.250525215978657e-41, -5.049859275887343e-41, -4.95877487570623e-41, 4.925283842408867e-41, -5.010482789039816e-41, -4.940557995670008e-41, 5.123007055725099e-41, -6.265485693689122e-41, -5.019451099211495e-41, 5.756534091446349e-41, -4.991845519464296e-41, 5.774891101329004e-41, 5.969671587870153e-41, 4.931869945191194e-41, 5.072139921470108e-41, 5.168689385662088e-41, -5.102267838453091e-41, 5.360387015581723e-41, -5.037948238940582e-41, 6.150579219614487e-41, 5.074241869166595e-41, -4.914633974079998e-41, 4.993947467160783e-41, -4.987221234532024e-41, 5.487484786295984e-41, 5.544797893486869e-41, -6.252593747817334e-41, 4.95709331754904e-41, -5.712533319666549e-41, -5.125949782500181e-41, -5.175135358597982e-41, -5.373839480839241e-41, 5.011463697964843e-41, -5.038789018019177e-41, 5.213530936520482e-41, -5.202040289113018e-41, 5.306997544090947e-41, 5.851542127327571e-41, 4.982877209292617e-41, -4.4579508045565405e-41, 5.166727567812033e-41, 5.035425901704798e-41, -5.077464855634542e-41, 6.302479973147297e-41, 5.99321340207081e-41, -4.996609934243e-41, -5.923849128086732e-41, -4.917716830701513e-41, 4.957793966781203e-41, 5.445305702519807e-41, -4.998431622246622e-41, 4.904684754983292e-41, 5.259633655996768e-41, 5.809222913704962e-41, -5.483841410288739e-41, 5.589919704038128e-41, -5.031502266004688e-41, -4.954851240006121e-41, -5.065974208227079e-41, 6.185051161836878e-41, 5.585435548952288e-41, -4.976991755742453e-41, 4.907767611604807e-41, 5.078025375020272e-41, 4.918977999319405e-41, 6.250211540427982e-41, 4.913793195001404e-41, 1.446069950259995e-40, 5.328577540441549e-41, -5.013145256122033e-41, 5.07284057070227e-41, -5.141644325300619e-41, -4.906926832526212e-41, -5.178078085373064e-41, -5.107032253231796e-41, 4.999832920710947e-41, 4.993106688082188e-41, 5.019451099211495e-41, -5.028979928768904e-41, 4.942659943366495e-41, -5.09203835966352e-41, 5.566658149530336e-41, -5.837108753145026e-41, 4.984558767449807e-41, 4.933271243655518e-41, -4.971106302192289e-41, 5.02085239767582e-41, -4.970125393267261e-41, -4.907066962372644e-41, -5.087694334424113e-41, -4.938876437512818e-41, -5.002355257946732e-41, 4.945182280602279e-41, 4.911270857765619e-41, 4.935793580891303e-41, -5.121185367721476e-41, 5.141784455147051e-41, -5.127631340657371e-41, -5.499395823242745e-41, 5.117682121560664e-41, -5.202320548805883e-41, 5.086993685191951e-41, -4.991845519464296e-41, 4.981055521288995e-41, -5.715195786748766e-41, -5.810484082322854e-41, 5.023935254297334e-41, -5.60813658407435e-41, 4.926545011026759e-41, 6.234657127473976e-41, 5.076063557170217e-41, -5.042992913412152e-41, -5.004877595182517e-41, 5.033183824161878e-41, -5.221658467613566e-41, -4.924583193176705e-41, -4.917436571008648e-41, 5.112076927703365e-41, -5.122726796032234e-41, -4.948825656609524e-41, -6.274033614321503e-41, 4.949806565534551e-41, 4.972507600656613e-41, -5.816789925412316e-41, -5.080827971948922e-41, -4.911130727919186e-41, -5.716597085213091e-41, -4.918417479933675e-41, -5.331520267216632e-41, -5.044534341722909e-41, -4.914493844233566e-41, -5.145147571461431e-41, -5.890918614175098e-41, -4.911410987612051e-41, 5.144867311768566e-41, -5.402706229204332e-41, 5.941505488737224e-41, 2.9129491827152135e-40, -3.1197387970956267e-40, -5.020011618597225e-41, -2.6254728027589773e-41, -6.04912521079737e-41, -5.001794738561002e-41, 5.247722619050007e-41, -5.05420330112675e-41, 6.20270752248737e-41, -4.928927218416112e-41, -5.453433233612891e-41, -5.048878366962316e-41, 5.176957046601604e-41, 4.945742799988009e-41, -4.996890193935865e-41, -5.985366130670591e-41, 5.347915459249232e-41, -1.4726245561589503e-41, -5.280232743422343e-41, -4.919538518705135e-41, 5.411394279683146e-41, 4.948125007377362e-41, 5.028279279536741e-41, 5.919645232693757e-41, -5.023234605065172e-41, 1.277297563216714e-40, 1.089663698843621e-40, -5.695157218708922e-41, 4.908748520529834e-41, 4.984418637603374e-41, 5.041031095562097e-41, -5.021132657368685e-41, 5.108153292003256e-41, 5.105911214460336e-41, -6.094807540734359e-41, -4.910570208533456e-41, -5.28513728804748e-41, -5.754011754210564e-41, 4.93845604797352e-41, -6.039035861854232e-41, -5.222499246692161e-41, 6.209153495423264e-41, -4.953309811695363e-41, -5.049438886348046e-41, 5.011884087504141e-41, 5.031362136158256e-41, -5.011463697964843e-41, -5.235951711949679e-41, -5.357444288806641e-41, -6.156744932857516e-41, -4.933271243655518e-41, 4.904965014676157e-41, -5.074662258705893e-41, 5.002915777332462e-41, -6.171178307040062e-41, 4.985819936067699e-41, 6.083316893326896e-41, -4.968583964956504e-41, 4.952609162463201e-41, 4.936354100277033e-41, -5.538912439936704e-41, -4.922341115633785e-41, 4.913653065154971e-41, -4.928787088569679e-41, -4.98077526159613e-41, 4.996469804396568e-41, -5.724864746152608e-41, 5.163364451497653e-41, -5.084751607649031e-41, 5.375380909149998e-41, 5.016788632129278e-41, 5.126370172039478e-41, 4.97965422282467e-41, 4.975590457278128e-41, 4.950787474459579e-41, 5.447687909909159e-41, -5.030241097386796e-41, -5.0022151281003e-41, -4.91869773962654e-41, -5.012444606889871e-41, -5.91586172684008e-41, 5.096662644595792e-41, 5.290602352058347e-41, 5.850981607941841e-41, -4.981756170521157e-41, -4.907207092219077e-41, -5.061910442680537e-41, -5.262015863386121e-41, -5.051680963890966e-41, -5.953276395837553e-41, -5.248002878742872e-41, 1.335283293670475e-40, -4.907627481758374e-41, -5.685348129458648e-41, -4.941959294134332e-41, -4.972927990195911e-41, 5.086573295652653e-41, -5.114319005246285e-41, 4.992265909003593e-41, -5.655920861707827e-41, 5.871720825213848e-41, -4.918417479933675e-41, 5.101006669835199e-41, -6.224567778530837e-41, 5.14963172654727e-41, 5.007960451804031e-41, 6.059494819433374e-41, 5.485522968445929e-41, 5.124128094496559e-41, 5.055184210051778e-41, 5.054623690666048e-41, 6.194720121240719e-41, 4.967182666492179e-41, 4.920099038090865e-41, -4.909028780222699e-41, -5.764241233000135e-41, -6.250772059813712e-41, -4.98077526159613e-41, -5.428490120947909e-41, -5.390795192257571e-41, 5.027858889997444e-41, -5.037107459861987e-41, -4.961717602481312e-41, 4.951908513231039e-41, -4.911270857765619e-41, -4.926404881180327e-41, -6.221625051755755e-41, -4.977692404974615e-41, 4.933691633194816e-41, 5.158039517333219e-41, -5.034865382319068e-41, -4.954010460927526e-41, 5.757795260064241e-41, 4.908748520529834e-41, -5.446987260676996e-41, 4.92037929778373e-41, -5.899046145268182e-41, 5.083630568877571e-41, -5.697959815637571e-41, -6.193178692929962e-41, -4.946863838759469e-41, -4.904684754983292e-41, -5.041451485101394e-41, -4.988482403149916e-41, 5.10955459046758e-41, -5.034585122626203e-41, 6.161789607329086e-41, -4.911971506997781e-41, -5.22922547932092e-41, -5.548020879954816e-41, 4.924583193176705e-41, 5.320309879502033e-41, -5.796891487218903e-41, 5.111516408317635e-41, 4.932290334730491e-41, 5.650595927543392e-41, -5.301252220387215e-41, -5.006699283186139e-41, 4.925564102101732e-41, -5.596085417281157e-41, 4.910149818994159e-41, -4.946163189527307e-41, 5.87802666830331e-41, -5.126790561578776e-41, 5.438859729583912e-41, 5.033604213701175e-41, -5.189568732780528e-41, -5.084751607649031e-41, 4.937475139048493e-41, -5.598888014209807e-41, -5.125389263114451e-41, -5.039769926944205e-41, 4.952048643077471e-41, 5.175555748137279e-41, -4.904824884829725e-41, -6.103075201673876e-41, 5.084191088263301e-41, -4.906646572833347e-41, -5.082369400259679e-41, 5.123987964650126e-41, 6.284683482650372e-41, 4.963959680024232e-41, 5.082929919645409e-41, 6.084858321637653e-41, 4.905945923601185e-41, -5.004176945950354e-41, 5.19082990139842e-41, 4.921780596248055e-41, -4.985679806221267e-41, 5.549562308265573e-41, 5.070878752852216e-41, -4.953870331081093e-41, 5.834025896523511e-41, -5.202740938345181e-41, -5.121045237875044e-41, -5.204842886041668e-41, 5.258933006764606e-41, 5.28793988497613e-41, 4.921780596248055e-41, 5.141504195454186e-41, -5.372858571914214e-41, 5.185084577694688e-41, -4.932290334730491e-41, 5.092318619356385e-41, -4.0870271010497615e-41, 5.221378207920701e-41, -5.836127844219998e-41, -5.389814283332544e-41, -6.066501311754998e-41, 4.932430464576924e-41, 5.064572909762754e-41, 1.3904944531648727e-40, -5.999659375006704e-41, 6.231994660391759e-41, 5.305876505319487e-41, 5.372578312221349e-41, -6.089622736416358e-41], [4.930328516880436e-41, 4.930328516880436e-41, 3.064861140357921e-34, 3.064840018193805e-34, 3.064840018193805e-34, 3.064840018193805e-34, 3.064809253302592e-34, 3.0648014472854184e-34, -2.125572415182039e-33, 3.0627624696819706e-34, 3.064758743779705e-34, 2.175740631447463e-34, -9.367650752323264e-12, -5.322734440704746e-12, -4.925984491641029e-41, -5.01973135890436e-41, -5.695157218708922e-41, 3.064857007760594e-34, 5.029260188461768e-41, -5.688150726387297e-41, 3.064840018193805e-34, 4.937194879355628e-41, -5.461140375166677e-41, 3.064840018193805e-34, 4.948125007377362e-41, 5.747986170813967e-41, 3.06487216061746e-34, -4.939717216591413e-41, 5.364450781128265e-41, 3.0648606811804403e-34, -5.013705775507763e-41, -4.944761891062982e-41, -4.325375082860232e-22, -4.906926832526212e-41, 5.863032774735035e-41, 3.064840018193805e-34, -4.977131885588885e-41, -5.109694720314013e-41, 3.064840018193805e-34, -4.914073454694269e-41, -4.987221234532024e-41, 2.9009823045851686e-34, 5.364450781128265e-41, 5.008661101036194e-41, 3.064840018193805e-34, 5.227824180856595e-41, -4.954430850466823e-41, 3.0647846873073696e-34, -4.910149818994159e-41, 4.952048643077471e-41, 2.791196402547289e-29, -5.397241165193465e-41, 5.713514228591577e-41, 2.760579835872764e-34, -4.926825270719624e-41, -4.911410987612051e-41, 3.0724591501325525e-34, -4.943360592598657e-41, 4.954430850466823e-41, 1.7045137109169147e-31, -4.94069812551644e-41, 4.960316304016987e-41, -4.3285995490393004e-32, -4.969705003727964e-41, -5.876485239992553e-41, -2.721021466313969e-35, 4.911691247304916e-41, -4.92206085594092e-41, 1.8293463326726857e-32, -4.916175402390756e-41, 4.912251766690646e-41, -3.061162465750158e-34, -4.936914619662763e-41, -4.952749292309633e-41, 8.378335985485854e-33, 4.970405652960126e-41, 4.941679034441467e-41, -1.0119479595456269e-34, 4.964380069563529e-41, -4.933831763041248e-41, -3.064862747479104e-34, -4.951768383384606e-41, -4.982737079446185e-41, -3.064840018193805e-34, 4.944341501523685e-41, 4.964940588949259e-41, -3.0648257836919003e-34, 4.930188387034004e-41, -5.080827971948922e-41, -3.064839559016324e-34, -4.964940588949259e-41, 5.141223935761321e-41, -3.064840018193805e-34, 4.939857346437845e-41, 5.424846744940664e-41, 5.278682572515845e-32, -4.917576700855081e-41, 5.461560764705975e-41, -3.0649612410487333e-34, -4.944341501523685e-41, -5.477395437352845e-41, -3.064840018193805e-34, -4.961297212942015e-41, -5.102548098145956e-41, -3.064840018193805e-34, -4.942239553827197e-41, -5.907173676361266e-41, -3.057732409968657e-34, 5.658583328790044e-41, -4.951207863998876e-41, 8.097811268619162e-20, -1.328300878764892e-25, -2.2501580945778338e-20, -6.589546193561595e-27, 3.445987785410124e-31, 5.009501880114789e-41, -5.267901316936285e-41, 4.909729429454862e-41, 4.920519427630163e-41, -5.387572205789624e-41, 5.017629411207872e-41, 1.3262309055909366e-40, 4.934252152580546e-41, 5.069897843927188e-41, 5.003616426564624e-41, 1.3917696347674083e-41, 4.91813722024081e-41, -2.848335310525196e-40, 5.006559153339706e-41, 5.035285771858365e-41, 5.266359888625528e-41, -5.004737465336084e-41, -5.986627299288483e-41, -5.53078490884362e-41, -4.943220462752225e-41, 5.011743957657708e-41, -4.949806565534551e-41, -6.05360936588321e-41, 5.025616812454524e-41, 5.18690626569831e-41, 5.088394983656276e-41, 5.059668365137617e-41, -5.195874575869989e-41, -4.921079947015893e-41, 4.969424744035099e-41, -4.907907741451239e-41, -4.92150033655519e-41, -4.943360592598657e-41, -5.352960133720801e-41, -6.20719167757321e-41, -4.922901635019515e-41, 5.527001402989943e-41, -5.881670044310555e-41, -5.0022151281003e-41, 5.076063557170217e-41, -5.26425794092904e-41, -5.140243026836294e-41, 4.907767611604807e-41, 5.932397048719113e-41, 4.985399546528402e-41, -5.038088368787015e-41, 5.216193403602699e-41, 5.845236284238109e-41, -5.753591364671266e-41, -6.117228316163556e-41, -5.143325883457809e-41, -5.283876119429588e-41, 4.945882929834442e-41, -5.03724758970842e-41, 5.148230428082945e-41, 4.924162803637407e-41, -5.207925742663183e-41, -4.037771460028744e-40, -5.173734060133657e-41, 5.165046009654843e-41, 4.996750064089433e-41, 5.045515250647936e-41, -4.917997090394378e-41, 5.953556655530418e-41, 4.913092545769241e-41, 5.082789789798976e-41, -4.924723323023137e-41, 5.729909420624177e-41, -4.943360592598657e-41, -4.910289948840591e-41, -4.97685162589602e-41, -4.928226569183949e-41, -4.909028780222699e-41, 4.923462154405245e-41, 5.094560696899305e-41, 5.353240393413666e-41, -5.069617584234323e-41, -4.937615268894925e-41, -5.475013229963493e-41, -5.006138763800409e-41, -4.927385790105354e-41, 4.912251766690646e-41, -5.023234605065172e-41, -5.081388491334652e-41, 4.921640466401623e-41, -5.59230191142748e-41, -5.313863906566139e-41, 5.694176309783894e-41, -5.046916549112261e-41, 1.3022827148356255e-40, -5.012164347197006e-41, -5.066814987305674e-41, 5.276729497261531e-41, -4.915194493465728e-41, 4.95765383693477e-41, 4.905385404215455e-41, -5.477535567199277e-41, -4.918977999319405e-41, -5.028839798922471e-41, 5.046916549112261e-41, -5.01748928136144e-41, -4.906366313140482e-41, 5.018189930593602e-41, -5.193912758019934e-41, 4.955692019084716e-41, -1.2763867192149029e-40, -5.673296962665454e-41, 5.015107073972088e-41, 5.158600036718949e-41, 5.239314828264059e-41, -5.230626777785245e-41, 5.041451485101394e-41, 6.026984695061038e-41, 4.912672156229944e-41, -4.970125393267261e-41, -5.009081490575491e-41, -5.304194947162298e-41, -4.943220462752225e-41, 5.457356869313e-41, 5.217594702067024e-41, -5.49351036969258e-41, -5.49799452477842e-41, -5.448248429294889e-41, 4.932430464576924e-41, 5.491968941381823e-41, -5.100446150449469e-41, -6.14679571376081e-41, -5.575486329855582e-41, -6.261281798296148e-41, -4.92093981716946e-41, -5.005017725028949e-41, 5.563295033215956e-41, 4.962978771099205e-41, 5.497574135239122e-41, 4.910430078687024e-41, -5.021132657368685e-41, -5.130293807739588e-41, -5.026597721379551e-41, -4.915054363619296e-41, -5.476975047813548e-41, 5.639665799521659e-41, 4.977131885588885e-41, -4.955271629545418e-41, -5.293404948986996e-41, -4.908328130990537e-41, -5.005718374261112e-41, -5.228244570395892e-41, 4.999832920710947e-41, 4.996469804396568e-41, -5.156498089022462e-41, -2.8783371106463905e-40, -5.907734195746996e-41, -5.41784025261904e-41, -5.03948966725134e-41, -5.117401861867799e-41, -5.352820003874369e-41, -4.91813722024081e-41, 4.920239167937298e-41, 5.549702438112006e-41, -5.045935640187234e-41, 4.909309039915564e-41, -5.065834078380646e-41, -5.698099945484004e-41, 5.042152134333557e-41, -5.013705775507763e-41, -5.145007441614998e-41, -5.334182734298849e-41, 5.681564623604971e-41, -6.108680395531175e-41, -5.201619899573721e-41, -6.139649091592754e-41, -5.014406424739925e-41, 5.179619513683821e-41, 4.929487737801841e-41, -5.251506124903684e-41, 5.202881068191613e-41, -5.32073026904133e-41, 5.055464469744643e-41, -5.435216353576668e-41, -4.912672156229944e-41, 5.284997158201048e-41, 6.267867901078474e-41, 5.057286157748265e-41, 5.964486783552151e-41, -4.971947081270883e-41, -4.946723708913037e-41, -5.010062399500518e-41, 5.034865382319068e-41, 5.32409338535571e-41, 4.919118129165838e-41, -5.263557291696878e-41, -5.042292264179989e-41, 5.038789018019177e-41, 4.986100195760564e-41, 5.999939634699569e-41, 5.037107459861987e-41, 4.92093981716946e-41, -4.944201371677252e-41, 5.498274784471285e-41, -4.992546168696458e-41, 9.816095742595344e-42, 4.906506442986914e-41, 4.931309425805464e-41, 4.925143712562435e-41, 5.713654358438009e-41, 4.92093981716946e-41, -1.39971499706013e-40, -5.031222006311823e-41, -6.100412734591659e-41, 5.146408740079323e-41, -4.945882929834442e-41, -4.912251766690646e-41, 5.017068891822143e-41, -5.488605825067444e-41, 1.2485849576826985e-40, 4.989183052382079e-41, -5.383508440243082e-41, 5.586836847416613e-41, -5.077464855634542e-41, 4.985960065914132e-41, -5.072560311009405e-41, -5.350157536792152e-41, -5.625092295492681e-41, -5.001374349021705e-41, -5.009922269654086e-41, -5.079706933177462e-41, -4.956953187702608e-41, -6.175802591972334e-41, -5.278831444958018e-41, -5.937021333651385e-41, 5.199798211570099e-41, 4.976711496049588e-41, 4.939857346437845e-41, -5.409852851372389e-41, -5.481319073052954e-41, -4.99604941485727e-41, 4.906086053447617e-41, 5.062470962066267e-41, 4.914774103926431e-41, -5.479217125356467e-41, -4.931869945191194e-41, -5.719119422448876e-41, -5.157759257640354e-41, 5.122026146800071e-41, -5.174154449672955e-41, -5.001794738561002e-41, -5.030661486926093e-41, -5.51607127496821e-41, 5.607856324381485e-41, -5.055744729437508e-41, -4.93733500920206e-41, -6.062577676054889e-41, 5.025756942300956e-41, -4.927105530412489e-41, -6.124935457717343e-41, -5.03892914786561e-41, 5.20722509343102e-41, -5.060649274062644e-41, -5.415317915383256e-41, 4.96157747263488e-41, 5.078025375020272e-41, 5.935199645647763e-41, 1.6693528475655113e-40, 5.537371011625947e-41, 4.924723323023137e-41, 5.243098334117736e-41, -5.127491210810938e-41, 5.11515978432488e-41, -4.920799687323028e-41, -5.111656538164068e-41, 6.078832738241056e-41, 4.932430464576924e-41, 4.951207863998876e-41, -5.106051344306768e-41, 5.603512299142079e-41, 5.76396097330727e-41, -4.910289948840591e-41, 5.118242640946394e-41, 5.001794738561002e-41, -5.076904336248812e-41, 5.361788314046048e-41, 4.954570980313256e-41, 5.723463447688283e-41, 5.559791787055144e-41, -5.24954430705363e-41, 5.169670294587115e-41, 5.871440565520984e-41, 5.448108299448456e-41, 5.36473104082113e-41, -5.255429760603794e-41, 5.256550799375254e-41, -4.93733500920206e-41, -5.695437478401787e-41, 5.035986421090528e-41, 5.90002705419321e-41, 6.296034000211403e-41, -5.17443470936582e-41, -4.950367084920281e-41, 5.098344202752982e-41, -4.983297598831914e-41, 5.625933074571276e-41, 4.935373191352006e-41, 5.214231585752644e-41, 5.138841728371969e-41, -5.222919636231458e-41, -4.935513321198438e-41, -5.875083941528228e-41, -4.911270857765619e-41, -5.002495387793164e-41, 5.044394211876476e-41, 5.726826564002662e-41, 5.042152134333557e-41, -5.194613407252097e-41, -4.948125007377362e-41, -5.327316371823657e-41, 5.305035726240892e-41, -5.058547326366157e-41, 5.229645868860217e-41, 4.966061627720719e-41, -4.93845604797352e-41, -5.192791719248475e-41, -3.2966947671705646e-41, -4.954150590773958e-41, 1.7877905937702449e-40, 5.646111772457553e-41, 4.917016181469351e-41, -5.059388105444752e-41, 5.011043308425546e-41, 4.950086825227416e-41, -5.488886084760308e-41, -5.182702370305336e-41, -4.97797266466748e-41, 5.113338096321257e-41, -5.144026532689971e-41, 1.336138085733713e-41, 5.041731744794259e-41, 5.087834464270546e-41, -4.962278121867042e-41, -4.977692404974615e-41, 5.295787156376349e-41, 4.987501494224889e-41, -5.134217443439697e-41, -4.931589685498329e-41, -5.188447694009068e-41, -5.123427445264396e-41, 5.017909670900737e-41, -5.716456955366659e-41, -5.201199510034424e-41, -5.018750449979332e-41, 5.199377822030801e-41, -5.999379115313839e-41, 5.063732130684159e-41, -5.104650045842444e-41, -4.920099038090865e-41, -5.674418001436914e-41, -4.985679806221267e-41, 4.967462926185044e-41, -4.911130727919186e-41, 5.307277803783812e-41, -4.921220076862325e-41, -5.348616108481394e-41, -5.066394597766376e-41, -5.120344588642882e-41, -5.316806633341221e-41, -5.558250358744387e-41, 5.887975887400016e-41, -6.010589503028438e-41, -6.056131703118994e-41, -5.11123614862477e-41, -5.799273694608255e-41, 5.18634574631258e-41, 4.916595791930053e-41, 5.11347822616769e-41, 5.084191088263301e-41, 5.543676854715409e-41, -5.038088368787015e-41, -4.913793195001404e-41, 7.021906604731658e-42, 4.021166073226495e-41, 5.348335848788529e-41, -5.3585653275781e-41, -5.451891805302133e-41, -5.840611999305838e-41, -4.946163189527307e-41, -5.013565645661331e-41, 5.007960451804031e-41, -5.790445514283009e-41, -4.927946309491084e-41, -5.356603509728046e-41, 4.915755012851458e-41, 5.022674085679442e-41, 5.090637061199195e-41, 5.207645482970318e-41, -4.984979156989104e-41, 4.973908899120938e-41, -4.993106688082188e-41, 1.3472363695711656e-40], [0.0006936184945516288, 0.0006936180288903415, -0.0002614141267258674, -0.0002614205004647374, -0.0002614152617752552, -0.0002603149914648384, -0.0002614165423437953, -0.0002614161348901689, -0.00026142760179936886, 7.27879669284448e-05, -0.00024060060968622565, 0.00013557136117015034, -0.008340408094227314, -0.006520652677863836, 0.00017355392628815025, -0.00017719338939059526, -1.0986740479692296e-40, -0.0002614152617752552, -4.851905396208167e-05, 4.408569046673734e-40, -0.0002614152617752552, -0.00040586129762232304, -4.049892691745154e-41, -0.0002614174736663699, 5.515127850230783e-05, 4.918417479933675e-41, -0.0002614152617752552, -0.0003076569701079279, -6.257638422288903e-41, -0.0002614152617752552, -0.0005874255439266562, 4.093529515358796e-09, -0.0002614152617752552, -0.00026361405616626143, 7.610718739670119e-07, -0.00026142215938307345, 3.043241667910479e-05, -8.685520697326865e-06, -0.00026262650499120355, 0.0003606686368584633, 0.0002289703261340037, -0.00026140452246181667, 0.0012371302582323551, -0.0003103486087638885, -0.0002614180266391486, -0.0001631574850762263, -0.0004671321075875312, -0.00024865547311492264, 0.0001952888269443065, -0.0004059836792293936, -0.00032729317899793386, 0.0009032530942931771, -0.00038517918437719345, -0.0002363506646361202, 0.0006944731576368213, -0.0004193013010080904, -0.00024863617727532983, 0.0009585603838786483, -0.0004230647755321115, -0.00023872722522355616, 0.000525832932908088, -4.629909744835459e-05, 0.00041122431866824627, 0.0005393562605604529, -1.3508680240192916e-05, -0.00037336107925511897, 0.0009172081481665373, -0.00033711714786477387, 0.0003010878572240472, 0.0004747947386931628, -0.000407027720939368, 0.0002669990062713623, 0.0006165619706735015, -0.0005062621785327792, 0.00023781844356562942, -0.00014522223500534892, -0.0004738863499369472, 0.00038599083200097084, 0.0003229219582863152, -0.00020911481988150626, 0.00025814244872890413, 0.0006391997449100018, 0.00029236084083095193, 0.0002614161348901689, -9.510121162747964e-05, -6.191949069034308e-07, 0.00026195248938165605, -0.00022569214343093336, -2.6558844012924965e-08, 0.00026480952510610223, -0.00020003340614493936, -3.999556597023002e-08, 0.0002614097320474684, -1.5189412806648761e-05, 1.6592130336334776e-08, 0.00026141857961192727, 2.906582085415721e-05, 5.540453868247462e-41, 0.0002614165423437953, -0.0005538230179809034, 5.348195718942097e-41, 0.0002614157274365425, 2.948586188722402e-05, 2.018770146605675e-06, 0.00032370982808060944, 6.865576870040968e-05, 1.8740641962722293e-06, 0.0003181627835147083, -0.0006751320324838161, 0.00015902359155006707, 0.0010125396074727178, 8.626218004792463e-06, 2.9779778287775116e-07, 1.8712086102823378e-08, 0.0002078745310427621, -0.0005349076818674803, 5.943467306587279e-41, 7.463026641119086e-09, -1.2914842528743975e-08, 6.086259620101978e-41, -5.796330967833173e-41, -5.009221620421924e-41, -5.213671066366914e-41, 5.068916935002161e-41, -4.970125393267261e-41, -5.068496545462863e-41, 6.292110364511294e-41, 5.74532370373175e-41, 4.968583964956504e-41, 4.980635131749697e-41, -5.05252174296956e-41, 5.228805089781622e-41, -5.402846359050765e-41, 5.710991891355792e-41, -5.357164029113776e-41, 5.143466013304241e-41, -5.261315214153958e-41, 1.3331673329893445e-40, -5.239034568571194e-41, 5.122306406492936e-41, 5.043413302951449e-41, -5.101427059374497e-41, -5.473611931499168e-41, -6.162069867021951e-41, 5.311902088716084e-41, 5.706227476577088e-41, 5.084050958416869e-41, -5.442362975744725e-41, 5.039910056790637e-41, 5.001794738561002e-41, -6.166834281800655e-41, 5.056024989130372e-41, -4.987641624071321e-41, -6.114285589388474e-41, -5.968970938637991e-41, -5.160141465029706e-41, -5.704826178112763e-41, 