{"version": 3, "feature_size": 512, "hidden1_size": 256, "hidden2_size": 64, "state_dict": {"fc1.weight": [[4.954150590773958e-41, 4.954150590773958e-41, -4.908188001144104e-41, -4.949386175995254e-41, -4.944902020909414e-41, -4.924723323023137e-41, -4.9418191642879e-41, -4.926685140873192e-41, -4.916175402390756e-41, -4.949946695380984e-41, -4.919958908244433e-41, -4.934252152580546e-41, 4.933691633194816e-41, 4.935092931659141e-41, -5.16826899612279e-41, 4.949946695380984e-41, 5.173173540747927e-41, -4.932570594423356e-41, -4.945882929834442e-41, 5.734954095095746e-41, -4.924443063330272e-41, 4.925143712562435e-41, -4.995629025317973e-41, -4.913653065154971e-41, 4.936634359969898e-41, -5.042152134333557e-41, -4.921920726094487e-41, 5.960843407544907e-41, -4.910850468226321e-41, -4.91869773962654e-41, -4.92486345286957e-41, -5.592021651734615e-41, -4.941959294134332e-41, -4.91925825901227e-41, -4.924443063330272e-41, -4.906926832526212e-41, 4.942519813520062e-41, 4.906646572833347e-41, -4.907627481758374e-41, 4.917576700855081e-41, -4.938736307666385e-41, -4.919678648551568e-41, 4.920799687323028e-41, -4.914774103926431e-41, -4.950226955073849e-41, -4.950226955073849e-41, -4.916035272544323e-41, -4.904965014676157e-41, 4.907907741451239e-41, -4.924583193176705e-41, 4.917016181469351e-41, 4.951488123691741e-41, 4.93957708674498e-41, -4.942659943366495e-41, 4.913793195001404e-41, -4.951347993845309e-41, -4.911831377151349e-41, 4.940838255362873e-41, -4.936914619662763e-41, 4.908748520529834e-41, 4.952749292309633e-41, -4.92374241409811e-41, 4.912952415922809e-41, 4.940838255362873e-41, 4.908328130990537e-41, 4.926404881180327e-41, 4.930468646726869e-41, -4.94013760613071e-41, 4.90510514452259e-41, 4.923041764865947e-41, -4.954991369852553e-41, 4.941118515055737e-41, 4.924022673790975e-41, -4.92206085594092e-41, 4.927525919951787e-41, 4.926264751333894e-41, 4.959475524938393e-41, 4.915054363619296e-41, 4.952609162463201e-41, -4.923882543944542e-41, 4.924162803637407e-41, -4.929487737801841e-41, 4.928927218416112e-41, 4.949105916302389e-41, -4.94069812551644e-41, -4.944341501523685e-41, 4.940978385209305e-41, -4.908328130990537e-41, 4.929067348262544e-41, 4.922761505173082e-41, 5.508784522953721e-41, -5.01412616504706e-41, 4.934112022734113e-41, 4.939436956898548e-41, -4.911130727919186e-41, 4.946303319373739e-41, -4.915334623312161e-41, -4.949526305841686e-41, 4.923322024558812e-41, -4.934112022734113e-41, 4.917436571008648e-41, 4.948545396916659e-41, 4.932150204884059e-41, -4.953590071388228e-41, 4.912812286076376e-41, 4.924723323023137e-41, 4.928226569183949e-41, -4.947003968605902e-41, 4.913372805462106e-41, -4.954991369852553e-41, -4.908748520529834e-41, -4.921640466401623e-41, -5.117261732021367e-41, 4.929207478108977e-41, 4.931449555651896e-41, -4.945742799988009e-41, -5.060369014369779e-41, -4.923322024558812e-41, 4.937755398741358e-41, 5.128331989889533e-41, 6.099011436127334e-41, 5.693615790398164e-41, 4.926825270719624e-41, -6.01633482673217e-41, -6.108820525377608e-41, -5.235531322410382e-41, -5.312882997641111e-41, 5.065974208227079e-41, -5.090496931352763e-41, 4.935933710737736e-41, 5.193492368480637e-41, -6.115546758006367e-41, 5.086713425499086e-41, -4.960176174170555e-41, 5.80123551245831e-41, 5.210728339591832e-41, 4.977552275128183e-41, 4.943640852291522e-41, 5.131835236050345e-41, -5.022954345372307e-41, 6.093966761655764e-41, -5.654379433397069e-41, -4.987641624071321e-41, -5.243518723657033e-41, -5.774610841636139e-41, 5.394858957804113e-41, 5.53134542822935e-41, 5.580250744634287e-41, -5.067375506691403e-41, -6.13152156049967e-41, -5.008941360729059e-41, -5.304755466548028e-41, -4.930328516880436e-41, 5.710151112277197e-41, -4.951347993845309e-41, 4.977552275128183e-41, -5.92090640131165e-41, 4.996329674550135e-41, -5.311201439483922e-41, 4.952188772923904e-41, 5.069337324541458e-41, 5.950754058601768e-41, 4.969284614188666e-41, 5.087554204577681e-41, 5.006419023493274e-41, -5.166307178272736e-41, 5.471369853956248e-41, 5.228244570395892e-41, 5.159440815797544e-41, 5.07676420640238e-41, -4.960596563709852e-41, -5.436897911733858e-41, -6.035252356000555e-41, -5.488325565374579e-41, 5.066674857459241e-41, 4.984839027142672e-41, -6.171458566732927e-41, 5.019871488750792e-41, -5.014266294893493e-41, 5.139542377604132e-41, 4.987501494224889e-41, 5.874243162449633e-41, -5.103809266763849e-41, 5.917403155150838e-41, 5.145147571461431e-41, -5.026317461686686e-41, 5.540033478708164e-41, 5.30321403823727e-41, -4.917576700855081e-41, 5.851401997481139e-41, -5.625652814878411e-41, 5.086152906113356e-41, -5.799834213993985e-41, 4.984558767449807e-41, 5.26593949908623e-41, -5.249684436900062e-41, 5.537791401165245e-41, 5.089656152274168e-41, -5.705947216884223e-41, 5.023234605065172e-41, -4.97629110651029e-41, 6.197522718169368e-41, 4.909028780222699e-41, -5.113898615706987e-41, 4.944902020909414e-41, -6.166834281800655e-41, -5.103108617531686e-41, -5.260474435075363e-41, -5.003476296718192e-41, -4.907347222065509e-41, -5.048598107269451e-41, 4.924022673790975e-41, 5.332361046295226e-41, -5.207925742663183e-41, -5.852242776559734e-41, 5.059948624830482e-41, -5.227123531624433e-41, -4.916735921776486e-41, 5.094700826745737e-41, 5.024355643836632e-41, -5.532326337154378e-41, 4.991425129924998e-41, 5.035425901704798e-41, -5.097503423674387e-41, -5.642048006911011e-41, -5.068216285769998e-41, 4.935653451044871e-41, 5.034304862933338e-41, -5.15075276531873e-41, 5.004877595182517e-41, -5.490707772763931e-41, 5.443624144362617e-41, 5.601830740984889e-41, -5.448808948680619e-41, 6.215038948973429e-41, 4.932990983962654e-41, -4.970966172345856e-41, -5.072139921470108e-41, -5.058967715905455e-41, 5.019451099211495e-41, 5.341189226620473e-41, 5.923428738547434e-41, -5.028839798922471e-41, -4.988902792689214e-41, -6.283562443878912e-41, 5.663768133108046e-41, 4.98189630036759e-41, -5.053923041433885e-41, -4.987781753917754e-41, 4.987361364378456e-41, -4.949526305841686e-41, -4.92430293348384e-41, 5.771387855168192e-41, 6.232695309623921e-41, 5.020572137982955e-41, -5.088815373195573e-41, -4.936774489816331e-41, -5.277149886800829e-41, -5.029540448154633e-41, -6.255676604438848e-41, 5.040610706022799e-41, 4.974889808045966e-41, -5.055744729437508e-41, 5.996296258692325e-41, -5.500656991860637e-41, -5.28681884620467e-41, 4.951908513231039e-41, 5.747986170813967e-41, -5.014966944125655e-41, 5.465344270559652e-41, 5.277430146493694e-41, 5.368794806367672e-41, 6.179445967979578e-41, -5.432413756648018e-41, -4.954851240006121e-41, -5.529944129765026e-41, 5.86107095688498e-41, 5.030801616772526e-41, -4.906646572833347e-41, 5.852102646713301e-41, 4.934112022734113e-41, -4.996329674550135e-41, 5.419381680929798e-41, 6.145954934682215e-41, -4.925143712562435e-41, -4.942800073212927e-41, 5.179339253990956e-41, -4.973488509581641e-41, -4.968303705263639e-41, -5.322131567505655e-41, 5.0350055121655e-41, 5.473611931499168e-41, -5.289901702826184e-41, 5.28401624927602e-41, -5.16995055427998e-41, 6.194159601854989e-41, -5.156638218868894e-41, 4.93733500920206e-41, -5.254448851678767e-41, -5.943467306587279e-41, 5.47543361950279e-41, 5.034304862933338e-41, 5.018189930593602e-41, 4.914213584540701e-41, -5.022814215525874e-41, 5.635461904128684e-41, -6.039035861854232e-41, -5.901428352657535e-41, -5.343571434009825e-41, 4.966341887413584e-41, -4.908748520529834e-41, -5.256831059068119e-41, -4.948965786455956e-41, -5.049579016194478e-41, 4.94350072244509e-41, 5.080267452563192e-41, -5.571002174769743e-41, -5.13267601512894e-41, 5.666710859883128e-41, -6.112463901384852e-41, -4.910710338379889e-41, 5.476414528427818e-41, 5.495892577081933e-41, 5.527982311914971e-41, -5.092879138742115e-41, 6.078272218855327e-41, 5.201059380187991e-41, -5.239034568571194e-41, -5.226142622699405e-41, -5.00165460871457e-41, 5.717297734445254e-41, 5.235251062717517e-41, 5.297328584687106e-41, -5.235951711949679e-41, -5.008941360729059e-41, -4.980915391442562e-41, -5.145287701307863e-41, -4.926685140873192e-41, -5.18802730446977e-41, 5.066254467919944e-41, 5.092318619356385e-41, -6.057392871736887e-41, -4.997590843168028e-41, -4.985960065914132e-41, -6.182248564908228e-41, 4.995909285010838e-41, -5.662787224183018e-41, -5.318488191498411e-41, 5.075503037784487e-41, -5.313443517026841e-41, 5.615002946549542e-41, 5.022533955833009e-41, 5.212690157441887e-41, -5.008240711496896e-41, -5.903390170507589e-41, -5.661666185411558e-41, -5.804878888465555e-41, 5.175836007830144e-41, 5.007540062264734e-41, -5.629156061039223e-41, 4.965080718795692e-41, -5.0350055121655e-41, -5.742240847110235e-41, 6.300658285143675e-41, -5.539472959322434e-41, 5.040470576176367e-41, 5.007119672725436e-41, -5.032763434622581e-41, 5.123987964650126e-41, 5.61037866161727e-41, 4.931169295959031e-41, 5.126089912346613e-41, 5.269022355707745e-41, -5.025056293068794e-41, 5.089375892581303e-41, 5.033043694315445e-41, -5.239314828264059e-41, -5.590760483116723e-41, -4.999132271478785e-41, -5.143325883457809e-41, 4.995348765625108e-41, -5.121605757260774e-41, 5.527702052222106e-41, 5.406910124597307e-41, -4.907907741451239e-41, 4.982737079446185e-41, 5.716036565827361e-41, -4.924583193176705e-41, 5.087834464270546e-41, -5.760317597300026e-41, -5.172472891515765e-41, -5.047757328190856e-41, 5.135338482211157e-41, 5.066955117152106e-41, 5.142485104379214e-41, -5.108994071081851e-41, -4.928226569183949e-41, 5.07284057070227e-41, -5.591040742809588e-41, -5.736215263713639e-41, 4.928366699030382e-41, 5.023514864758037e-41, 5.150892895165163e-41, -5.686469168230108e-41, -4.910710338379889e-41, -5.105210565228174e-41, -5.167288087197763e-41, -4.910430078687024e-41, -5.618646322556787e-41, 5.566097630144606e-41, 5.055044080205345e-41, 4.954430850466823e-41, -5.286398456665372e-41, -5.708889943659305e-41, 4.999692790864515e-41, 5.022954345372307e-41, -5.03332395400831e-41, 5.094000177513575e-41, -5.154256011479542e-41, 5.268461836322015e-41, 5.022393825986577e-41, 5.019030709672197e-41, 5.115860433557042e-41, 5.471790243495546e-41, -5.11235718739623e-41, -5.134777962825427e-41, -5.007259802571869e-41, -5.225021583927945e-41, 6.234376867781111e-41, -6.119330263860044e-41, -5.154256011479542e-41, -5.065834078380646e-41, -4.968864224649369e-41, -5.037948238940582e-41, 5.039910056790637e-41, -4.985539676374834e-41, 6.198503627094396e-41, 4.920659557476595e-41, 5.22810444054946e-41, -5.20946717097394e-41, 5.470949464416951e-41, 5.252206774135847e-41, 6.275014523246531e-41, -5.30265351885154e-41, 4.905525534061887e-41, -5.121045237875044e-41, 5.09147784027779e-41, -5.146128480386458e-41, -4.970545782806559e-41, 5.09708303413509e-41, 4.978112794513913e-41, -5.317647412419816e-41, 4.909729429454862e-41, -4.974749678199533e-41, -5.031222006311823e-41, -4.907207092219077e-41, 5.213671066366914e-41, 5.102688227992389e-41, 4.950927604306011e-41, -5.351138445717179e-41, 5.396540515961303e-41, -5.086012776266924e-41, -5.396540515961303e-41, 5.824497066966102e-41, -5.028559539229606e-41, -4.905245274369022e-41, -6.080093906858949e-41, 5.049298756501613e-41, 5.351418705410044e-41, -4.925143712562435e-41, 5.545498542719031e-41, -5.104229656303146e-41, -5.111516408317635e-41, -4.916595791930053e-41, -5.49911556354988e-41, -6.005825088249733e-41, -4.944902020909414e-41, 4.931589685498329e-41, 5.64597164261112e-41, -5.139402247757699e-41, -5.064152520223456e-41, -5.46015946624165e-41, -5.002074998253867e-41, 5.277149886800829e-41, 5.271404563097097e-41, 4.969845133574396e-41, 5.057986806980427e-41, 4.931449555651896e-41, 4.908188001144104e-41, 5.180180033069551e-41, -4.910570208533456e-41, -4.917296441162216e-41, 5.454133882845053e-41, 5.273226251100719e-41, 5.276869627107964e-41, 5.122446536339369e-41, 5.083210179338274e-41, -5.197556134027179e-41, 5.297608844379971e-41, -5.151453414550893e-41, 4.998431622246622e-41, 4.954290720620391e-41, 5.346934550324204e-41, -5.116420952942772e-41, -4.918837869472973e-41, 5.39808194427206e-41, 5.067235376844971e-41, -4.949386175995254e-41, -5.05868745621259e-41, 5.013425515814898e-41, 5.835987714373566e-41, 5.776572659486193e-41], [-7.801501851645298e-06, -7.801501851645298e-06, 5.339233030099422e-05, -1.2766294275934342e-05, -1.7944894352694973e-05, -0.0001223512226715684, 9.136681183008477e-05, -2.745155325101223e-05, -2.4749469957896508e-05, 0.00022611202439293265, -0.00017137992836069316, -2.8706062948913313e-05, 2.9001146685914136e-05, 0.00035030883736908436, 8.762086508795619e-06, -1.2200150194985326e-05, -8.860395610099658e-05, -0.00018769240705296397, -3.710616147145629e-05, -1.6992235032375902e-05, 0.00025143177481368184, 4.01655379391741e-05, -6.382206629496068e-05, -8.359391358681023e-05, 1.5837849787203595e-05, -3.681967064039782e-05, -0.00015977805014699697, 2.4459461201331578e-05, -4.1153019992634654e-05, 0.00024092779494822025, -6.16196048213169e-05, -2.260150358779356e-05, -0.00044085088302381337, -5.870842142030597e-05, 4.152387919020839e-05, 6.749828025931492e-05, 0.00011292654380667955, -2.298572326253634e-05, -0.0003904599288944155, -2.272716665174812e-05, 4.7217046812875196e-05, -0.0004360850143712014, -0.0001853128633229062, 7.26673606550321e-05, -0.000310861854813993, -9.37335571506992e-05, 2.631432107591536e-05, 2.38206976064248e-05, 5.323404184309766e-05, -3.323977944091894e-05, 0.0005668775993399322, -8.629046351416036e-05, 6.082472100388259e-05, -0.0011412588646635413, 7.134399493224919e-05, -5.333272565621883e-05, -0.0001966645650099963, 2.62203629972646e-05, -5.4703476052964106e-05, 0.00042082599247805774, 0.00019202317344024777, -5.538541518035345e-05, -0.0003437628911342472, -7.75721127865836e-05, 1.3645083527080715e-05, 0.0007373549160547554, -2.0745599613292143e-05, -2.578897328930907e-05, -0.0008593135862611234, 0.0001520885416539386, 5.974743180559017e-05, 0.00052593310829252, -0.00011229857773287222, -4.99523139296798e-06, 0.0006285046692937613, 5.843944018124603e-05, -4.5086049794917926e-05, -0.00040346445166505873, 2.288474206579849e-05, -9.866183972917497e-06, 0.00019090720161329955, -0.00010506842954782769, -2.4076611225609668e-05, 0.0005724510992877185, -0.0001578723604325205, -2.849072916433215e-05, 0.0003252763708587736, -5.3243275033310056e-05, -5.2164272346999496e-05, -7.18943847459741e-05, 0.0001563822734169662, -2.103483166138176e-05, 0.00020412240701261908, 3.1385898182634264e-05, -4.390658068587072e-05, -0.0003757247468456626, -4.382817860459909e-05, 6.505451165139675e-05, -2.9048747819615528e-05, -4.286110925022513e-05, 1.1865870874316897e-05, -0.0002918482932727784, 2.3721042452962138e-05, 2.6412888473714702e-05, 1.4939673746994231e-05, 0.00013310399663168937, -3.757944796234369e-05, 0.00011483771231723949, -0.0002798220666591078, -0.00024813401978462934, -0.0005400153459049761, -9.2745540314354e-05, 0.00017688944353722036, 0.00010346752242185175, -0.00011420570808695629, -6.596057210117579e-05, -4.911270857765619e-41, 2.2043486751499586e-05, 1.7910708265844733e-05, -4.916876051622918e-41, -4.921920726094487e-41, 4.984698897296239e-41, -6.147776622685837e-41, -4.920659557476595e-41, 5.300271311462188e-41, 5.76283993453581e-41, 4.98133578098186e-41, 4.922200985787352e-41, -5.401585190432872e-41, 5.017349151515008e-41, -4.949386175995254e-41, 5.007399932418301e-41, 4.915474753158593e-41, 5.11123614862477e-41, -5.039629797097772e-41, -5.386731426711029e-41, -6.002321842088921e-41, 4.931589685498329e-41, -5.133096404668237e-41, -4.909309039915564e-41, -4.995909285010838e-41, 5.533867765465135e-41, 5.139682507450564e-41, -6.066221052062133e-41, 5.01692876197571e-41, -4.946303319373739e-41, -5.272105212329259e-41, -5.251646254750117e-41, 5.646952551536148e-41, 4.937054749509196e-41, 5.017769541054305e-41, -4.955271629545418e-41, 5.21283028728832e-41, -5.138281208986239e-41, -6.091584554266412e-41, -4.944341501523685e-41, -5.218575610992051e-41, -5.09652251474936e-41, -4.905945923601185e-41, -5.050139535580208e-41, 5.379584804542973e-41, -4.928927218416112e-41, 5.25066534582509e-41, -5.072700440855838e-41, -4.94237968367363e-41, -5.842013297770162e-41, -5.28569780743321e-41, -4.99717045362873e-41, 5.305596245626622e-41, -5.260614564921796e-41, 5.436057132655263e-41, 4.929487737801841e-41, 5.201339639880856e-41, 4.910990598072754e-41, 5.740839548645911e-41, 5.254588981525199e-41, -5.351979224795774e-41, 5.029120058615336e-41, -4.959055135399095e-41, 5.005297984721814e-41, 5.119223549871422e-41, 5.138281208986239e-41, 4.908188001144104e-41, -4.998711881939487e-41, -5.669793716504642e-41, -5.284296508968885e-41, -5.183543149383931e-41, -5.89834549603602e-41, -4.954851240006121e-41, -5.084611477802599e-41, -5.292564169908402e-41, -5.291863520676239e-41, 5.53302698638654e-41, 5.800394733379715e-41, 5.687029687615838e-41, -4.937755398741358e-41, -5.311902088716084e-41, -5.209887560513237e-41, 4.973628639428073e-41, -5.475713879195655e-41, 4.917156311315783e-41, 5.435076223730235e-41, 5.053502651894588e-41, -5.034865382319068e-41, 5.496032706928365e-41, -5.20946717097394e-41, 4.916876051622918e-41, -5.368514546674807e-41, 5.148230428082945e-41, 4.970125393267261e-41, -4.977272015435318e-41, -5.01636824258998e-41, 6.033010278457635e-41, 5.650315667850527e-41, -5.226002492852973e-41, -5.146829129618621e-41, 4.933411373501951e-41, 4.912111636844214e-41, -5.160001335183274e-41, -5.593843339738237e-41, 4.956672928009743e-41, -4.912952415922809e-41, 5.234830673178219e-41, -4.945882929834442e-41, 5.208766521741778e-41, 5.041731744794259e-41, 5.78427980103998e-41, 4.966341887413584e-41, 6.30149906422227e-41, 6.033991187382662e-41, 4.916735921776486e-41, -5.556849060280062e-41, -5.087414074731248e-41, 5.559231267669414e-41, -4.935092931659141e-41, 5.318908581037708e-41, -5.162103282879761e-41, -6.12759792479956e-41, -5.589359184652398e-41, -5.111936797856933e-41, 5.5725436030805e-41, 4.957934096627635e-41, -5.201760029420153e-41, -4.991004740385701e-41, 4.912952415922809e-41, -5.269582875093475e-41, -6.079953777012516e-41, 5.378463765771513e-41, -4.920799687323028e-41, -5.351418705410044e-41, 6.169076359343575e-41, -6.130540651574642e-41, 5.011463697964843e-41, 5.95593886291977e-41, -4.98189630036759e-41, 4.995208635778675e-41, 6.113584940156312e-41, 5.326615722591495e-41, -5.094420567052872e-41, 4.923322024558812e-41, -5.047477068497991e-41, -5.436897911733858e-41, -5.03444499277977e-41, -5.820853690958858e-41, -4.90510514452259e-41, 5.007820321957599e-41, 4.911971506997781e-41, 5.145988350540026e-41, 4.915194493465728e-41, 5.656060991554259e-41, 4.933271243655518e-41, -5.263557291696878e-41, 4.951207863998876e-41, -5.371877662989186e-41, 5.031081876465391e-41, -5.184664188155391e-41, 5.323112476430683e-41, -4.965501108334989e-41, 6.043379887093639e-41, -5.299150272690728e-41, 5.393878048879086e-41, -5.082789789798976e-41, -5.113898615706987e-41, -4.930188387034004e-41, 5.276869627107964e-41, 6.09312598257717e-41, -5.924409647472462e-41, -5.009361750268356e-41, 4.942659943366495e-41, -5.948371851212416e-41, 5.443203754823319e-41, 5.293965468372726e-41, -4.992125779157161e-41, 5.585015159412991e-41, -5.139542377604132e-41, -4.989883701614241e-41, 5.536810492240217e-41, 5.426248043404989e-41, 6.22022375329143e-41, -4.989603441921376e-41, 4.930608776573301e-41, 4.990864610539268e-41, 5.002635517639597e-41, 5.909696013597051e-41, 5.005157854875382e-41, 5.865134722431522e-41, 5.025056293068794e-41, -4.92150033655519e-41, 5.955098083841175e-41, -5.053923041433885e-41, 4.92037929778373e-41, -4.985960065914132e-41, 5.395839866729141e-41, 4.964239939717097e-41, -6.258339071521066e-41, -5.025336552761659e-41, 5.082229270413247e-41, 4.993807337314351e-41, 4.955972278777581e-41, -5.164625620115546e-41, 5.614022037624515e-41, 5.006979542879004e-41, -5.16826899612279e-41, 4.951908513231039e-41, 6.035953005232717e-41, -4.916455662083621e-41, 4.906646572833347e-41, -5.85714732118487e-41, 6.214758689280564e-41, -4.953730201234661e-41, -5.91922484315446e-41, 5.043693562644314e-41, -5.559651657208712e-41, -5.175695877983712e-41, -4.979794352671102e-41, 5.616824634553164e-41, 5.500376732167772e-41, -5.309099491787434e-41, -5.678481766983456e-41, -5.162243412726194e-41, 5.415317915383256e-41, 5.007399932418301e-41, 5.792407332133064e-41, -5.326615722591495e-41, 5.209887560513237e-41, 5.725425265538338e-41, 4.907347222065509e-41, 5.371036883910591e-41, -4.953449941541796e-41, -5.019310969365062e-41, -5.839490960534378e-41, 5.113898615706987e-41, 5.415738304922553e-41, 5.157759257640354e-41, 5.246321320585683e-41, 4.953449941541796e-41, 4.933271243655518e-41, -4.94462176121655e-41, 5.093860047667143e-41, 4.931309425805464e-41, -4.939436956898548e-41, -6.266466602614149e-41, 4.92374241409811e-41, 4.926825270719624e-41, -4.937755398741358e-41, 5.399483242736385e-41, 5.19195094016988e-41, -5.25010482643936e-41, -5.471229724109816e-41, -4.942099423980765e-41, 4.915194493465728e-41, -5.075222778091622e-41, -5.0570058980554e-41, 5.022533955833009e-41, 5.294946377297754e-41, -5.22922547932092e-41, -5.214932234984807e-41, 4.973488509581641e-41, 5.012444606889871e-41, 5.821974729730317e-41, 5.661946445104423e-41, -5.120484718489314e-41, -4.932850854116221e-41, -5.544938023333301e-41, -4.948965786455956e-41, 4.917436571008648e-41, -4.974329288660236e-41, 5.509485172185883e-41, 5.263837551389743e-41, 5.102968487685254e-41, 4.935513321198438e-41, 5.03332395400831e-41, 5.774470711789706e-41, 5.801936161690473e-41, -5.028139149690309e-41, -5.231747816556705e-41, -5.436897911733858e-41, 5.288220144668995e-41, 4.925984491641029e-41, 4.989323182228511e-41, 5.169670294587115e-41, -4.984418637603374e-41, -5.15411588163311e-41, -5.427789471715746e-41, 5.084611477802599e-41, -6.044921315404396e-41, -5.011603827811276e-41, 4.909168910069132e-41, 4.987641624071321e-41, -5.483701280442307e-41, -4.953870331081093e-41, -5.050980314658803e-41, -5.909976273289916e-41, 5.544938023333301e-41, 6.004423789785409e-41, 5.776292399793328e-41, -4.90510514452259e-41, 4.926545011026759e-41, 4.926825270719624e-41, -6.243625437645655e-41, 4.916876051622918e-41, 5.268461836322015e-41, -5.086152906113356e-41, -5.32185130781279e-41, -5.356323250035181e-41, 4.986660715146294e-41, 6.258899590906795e-41, 5.92034588192592e-41, -5.158600036718949e-41, 5.878447057842608e-41, -5.994054181149405e-41, -4.905525534061887e-41, 5.929314192097598e-41, 5.008520971189761e-41, 5.199517951877234e-41, 5.102828357838821e-41, -4.938596177819953e-41, 5.01636824258998e-41, -5.424846744940664e-41, -6.002041582396056e-41, 4.926545011026759e-41, -4.909168910069132e-41, 5.713093839052279e-41, -5.050559925119506e-41, -5.476414528427818e-41, 6.147496362992972e-41, 5.855465763027681e-41, -6.038335212622069e-41, 5.251786384596549e-41, 5.040190316483502e-41, 5.457777258852298e-41, -4.99773097301446e-41, -4.945042150755847e-41, 4.964520199409962e-41, -5.353800912799396e-41, 5.204282366655938e-41, -5.263277032004013e-41, -4.913512935308539e-41, 5.720941110452498e-41, 6.293932052514916e-41, -5.47599413888852e-41, -4.905385404215455e-41, -4.926264751333894e-41, 4.917997090394378e-41, 5.385750517786002e-41, -4.938035658434223e-41, 4.977131885588885e-41, 4.906366313140482e-41, 4.964239939717097e-41, -4.913512935308539e-41, 5.136739780675482e-41, -5.351839094949341e-41, 4.952188772923904e-41, 4.970685912652991e-41, 5.93954367088717e-41, 5.736915912945801e-41, 5.963085485087827e-41, 4.931729815344761e-41, 5.145427831154296e-41, 5.09484095659217e-41, 5.032062785390418e-41, -5.426808562790719e-41, 5.505561536485774e-41, -5.257251448607416e-41, 5.032202915236851e-41, 5.061490053141239e-41, -4.971666821578018e-41, -5.05308226235529e-41, 4.962278121867042e-41, 6.147636492839405e-41, 5.446707000984131e-41, 4.994227726853648e-41, 6.205650249262452e-41, -5.519014001743292e-41, -5.235251062717517e-41, 5.009081490575491e-41, 5.67021410604394e-41, -5.372298052528484e-41, 5.646392032150418e-41, -5.485522968445929e-41, 5.298449623458566e-41, -5.982003014356212e-41, 4.938736307666385e-41, -4.975590457278128e-41, -5.960423018005609e-41, 6.255536474592416e-41, 5.99769755715665e-41, 5.619767361328246e-41, 4.907487351911942e-41, 5.702724230416276e-41, 5.979340547273994e-41, 5.11011510985331e-41], [2.1403432744097256e-41, 2.1403432744097256e-41, -4.96157747263488e-41, -4.941959294134332e-41, 2.0439339400641782e-41, -4.973208249888776e-41, -4.988062013610619e-41, -4.946723708913037e-41, -4.919538518705135e-41, -5.02029187829009e-41, -4.987221234532024e-41, -4.908047871297672e-41, 4.937054749509196e-41, 4.914073454694269e-41, 5.951314577987498e-41, -6.015634177500007e-41, -5.999238985467407e-41, 4.907627481758374e-41, -4.9638195501778e-41, -4.906366313140482e-41, -4.905945923601185e-41, -5.197275874334314e-41, -4.990584350846404e-41, -4.943921111984387e-41, -5.258933006764606e-41, -6.036933914157744e-41, -4.960596563709852e-41, -5.045234990955071e-41, 5.732151498167097e-41, -4.978673313899643e-41, -5.20834613220248e-41, -5.241977295346276e-41, -4.99829149240019e-41, -5.99713703777092e-41, -4.998992141632352e-41, -4.940417865823575e-41, -5.047196808805126e-41, -5.080547712256057e-41, -4.967182666492179e-41, -5.043413302951449e-41, 4.910570208533456e-41, 5.034024603240473e-41, -4.90510514452259e-41, -5.400464151661413e-41, 4.949666435688119e-41, -5.004317075796787e-41, -4.945602670141577e-41, -4.90622618329405e-41, -5.102828357838821e-41, -5.310080400712462e-41, 4.951768383384606e-41, -3.4449521446961303e-41, -5.185504967233986e-41, -4.944761891062982e-41, -5.479637514895765e-41, -4.998571752093055e-41, 5.034304862933338e-41, -5.083910828570436e-41, -5.089516022427736e-41, 4.928506828876814e-41, 5.064853169455619e-41, -5.109694720314013e-41, 4.936634359969898e-41, 4.993667207467918e-41, -5.068916935002161e-41, 6.174541423354441e-41, -5.066814987305674e-41, -5.011183438271978e-41, 5.024355643836632e-41, -3.683172883631349e-41, -4.991565259771431e-41, -5.005858504107544e-41, -5.580951393866449e-41, -5.116420952942772e-41, -4.918837869472973e-41, -1.5750594739010944e-42, -5.115440044017745e-41, 2.522056976091806e-41, -5.100726410142334e-41, -5.072700440855838e-41, 5.032903564469013e-41, 5.095681735670765e-41, -4.955832148931148e-41, 5.045795510340801e-41, 5.086853555345518e-41, -5.340068187849013e-41, 4.990584350846404e-41, -5.539332829476002e-42, -4.0393829532627177e-41, -4.920799687323028e-41, -5.023654994604469e-41, 5.110255239699743e-41, 5.03612655093696e-41, 5.121886016953639e-41, -6.124655198024478e-41, 4.943080332905792e-41, 5.367253378056914e-41, -5.468427127181166e-41, 4.924162803637407e-41, -4.9582143563205e-41, -5.075923427323785e-41, -4.974889808045966e-41, 5.05420330112675e-41, 5.701322931951951e-41, -2.6421482544844426e-41, 5.032062785390418e-41, 6.11232377153842e-41, 4.992125779157161e-41, -5.13547861205759e-41, -5.316386243801923e-41, 4.976150976663858e-41, 4.941679034441467e-41, 4.905945923601185e-41, -5.006419023493274e-41, -4.922901635019515e-41, -5.747986170813967e-41, 5.568199577841093e-41, -5.131695106203913e-41, -5.09371991782071e-41, 5.179899773376686e-41, -4.986940974839159e-41, 5.376922337460756e-41, -5.13323653451467e-41, -5.048738237115883e-41, -5.725705525231203e-41, -4.940417865823575e-41, 5.074101739320163e-41, -5.304194947162298e-41, 5.303774557623e-41, 5.015107073972088e-41, 5.11684134248207e-41, 5.598888014209807e-41, 4.954430850466823e-41, 4.910289948840591e-41, 5.683946830994323e-41, 5.150192245933e-41, 4.954290720620391e-41, 5.033744343547608e-41, 4.925704231948164e-41, -5.787222527815062e-41, -5.172332761669332e-41, 5.142625234225646e-41, -5.162803932111924e-41, -5.617945673324624e-41, 4.913933324847836e-41, 4.93789552858779e-41, -5.261735603693256e-41, 4.909028780222699e-41, -5.178778734605226e-41, 5.406349605211577e-41, -6.093266112423602e-41, 5.409152202140226e-41, -6.028385993525363e-41, -5.006839413032571e-41, 5.126230042193046e-41, -5.639805929368091e-41, -4.908328130990537e-41, -5.780216035493438e-41, 5.099044851985144e-41, -5.26986313478634e-41, -5.952996136144688e-41, -5.387291946096759e-41, -5.766903700082352e-41, 6.07280715484446e-41, 5.558951007976549e-41, 6.104616629984633e-41, 5.061069663601942e-41, 6.077991959162462e-41, 5.078585894406002e-41, -5.812445900172909e-41, 5.574365291084122e-41, -4.93845604797352e-41, 5.902549391428994e-41, -5.18746678508404e-41, -4.910009689147727e-41, 4.997871102860893e-41, -6.069864428069378e-41, 5.276168977875801e-41, -5.012024217350573e-41, 5.135338482211157e-41, 5.036546940476258e-41, 4.908888650376267e-41, -5.497293875546257e-41, -6.025863656289578e-41, 5.002355257946732e-41, -5.011603827811276e-41, 4.976571366203155e-41, 5.204983015888101e-41, 5.334322864145281e-41, -5.072700440855838e-41, -5.242257555039141e-41, 5.005017725028949e-41, 4.939717216591413e-41, -5.007960451804031e-41, 5.411674539376011e-41, -5.118522900639259e-41, -5.562173994444496e-41, -5.006419023493274e-41, 5.142064714839916e-41, -5.485382838599496e-41, 5.149351466854405e-41, -6.032029369532608e-41, -4.939857346437845e-41, -5.004457205643219e-41, -5.963085485087827e-41, 5.423165186783475e-41, -5.205123145734533e-41, 4.935793580891303e-41, 5.228244570395892e-41, -5.51663179435394e-41, 4.920099038090865e-41, 5.046215899880099e-41, -5.25122586521082e-41, 5.149491596700838e-41, 4.907487351911942e-41, 4.947424358145199e-41, -4.916595791930053e-41, -5.038508758326312e-41, 5.163644711190518e-41, 4.930468646726869e-41, -5.680723844526376e-41, -5.230626777785245e-41, -5.810624212169286e-41, -5.12875237942883e-41, 5.383788699935947e-41, -5.107873032310391e-41, -5.503319458942854e-41, -5.137440429907644e-41, 4.928366699030382e-41, 4.969144484342234e-41, -4.960036044324123e-41, -5.465344270559652e-41, -5.817490574644478e-41, -5.044394211876476e-41, 5.181301071841011e-41, -5.606455025917161e-41, 4.936354100277033e-41, 5.49855504416415e-41, 5.098204072906549e-41, 5.194893666944962e-41, 4.907627481758374e-41, -6.018156514735792e-41, -5.009501880114789e-41, 4.943780982137955e-41, -4.932570594423356e-41, -4.953870331081093e-41, -6.106578447834688e-41, 5.304755466548028e-41, 5.892880432025153e-41, -4.918277350087243e-41, -5.426808562790719e-41, -5.217314442374159e-41, 5.21226976790259e-41, -5.124548484035856e-41, 5.149351466854405e-41, -5.140102896989861e-41, 6.245306995802845e-41, -4.961857732327745e-41, -5.665589821111668e-41, -5.231887946403137e-41, -5.026877981072416e-41, 5.241556905806978e-41, 4.942800073212927e-41, 5.927492504093976e-41, -4.926685140873192e-41, -5.378603895617945e-41, -5.789184345665117e-41, -5.290181962519049e-41, 6.200745704637316e-41, -5.153415232400947e-41, -4.92486345286957e-41, 5.415598175076121e-41, -4.977131885588885e-41, -6.16431194456487e-41, -5.714214877823739e-41, 5.014406424739925e-41, 5.0186103201329e-41, 4.908888650376267e-41, 5.221938727306431e-41, 4.906926832526212e-41, -5.026597721379551e-41, 5.184804318001823e-41, -6.051647548033155e-41, 5.928613542865436e-41, 5.945008734898036e-41, 4.919538518705135e-41, -4.997030323782298e-41, -4.939436956898548e-41, 6.200745704637316e-41, 5.060228884523347e-41, -5.432834146187316e-41, -4.983577858524779e-41, 5.251646254750117e-41, -5.216333533449132e-41, -5.338386629691823e-41, -5.079006283945299e-41, 5.037527849401285e-41, 5.89666393787883e-41, 5.409152202140226e-41, 5.139542377604132e-41, -4.99548889547154e-41, -5.17443470936582e-41, -6.2032680418731e-41, 4.953029552002498e-41, 5.633780345971495e-41, 4.961297212942015e-41, 5.622710088103328e-41, -4.928927218416112e-41, -5.397941814425628e-41, -4.997871102860893e-41, 5.754011754210564e-41, 4.906786702679779e-41, -4.964800459102827e-41, 5.892460042485856e-41, 4.967743185877909e-41, 4.911130727919186e-41, 5.924129387779597e-41, 5.077464855634542e-41, 4.972367470810181e-41, -5.177517565987334e-41, 5.67245618358686e-41, 5.256971188914551e-41, -5.170931463205007e-41, 5.009221620421924e-41, -5.906613156975536e-41, -5.642468396450308e-41, 5.365011300513995e-41, -5.557549709512225e-41, 5.469408036106194e-41, -5.237773399953301e-41, 5.240015477496221e-41, -5.004737465336084e-41, 5.811745250940746e-41, 5.189428602934095e-41, 6.073788063769487e-41, -6.154923244853894e-41, -5.123987964650126e-41, -5.615983855474569e-41, -6.162350126714816e-41, -5.05476382051248e-41, 6.231994660391759e-41, 5.11067562923904e-41, -5.885313420317799e-41, 5.030941746618958e-41, 5.071859661777243e-41, -4.937475139048493e-41, -4.992125779157161e-41, 5.940244320119332e-41, -5.043973822337179e-41, -5.824637196812535e-41, 4.975450327431695e-41, -5.525880364218484e-41, -4.954430850466823e-41, -5.881109524924825e-41, 4.958074226474068e-41, 4.915614883005026e-41, -5.01468668443279e-41, 5.212690157441887e-41, -5.185925356773283e-41, -5.667131249422425e-41, -5.09484095659217e-41, -5.249404177207197e-41, 4.933691633194816e-41, 5.020151748443657e-41, -5.148650817622243e-41, -5.806420316776312e-41, 4.915895142697891e-41, 5.038648888172745e-41, 4.912111636844214e-41, 5.942626527508684e-41, -5.265799369239798e-41, -5.193212108787772e-41, 4.929767997494706e-41, 4.93957708674498e-41, 4.970265523113694e-41, -6.167534931032817e-41, -4.930748906419734e-41, 5.919505102847325e-41, 5.504160238021449e-41, -5.715195786748766e-41, -5.009501880114789e-41, 5.198116653412909e-41, 4.991985649310728e-41, -5.605193857299268e-41, -5.09091732089206e-41, 5.753451234824834e-41, 5.024215513990199e-41, 5.153695492093812e-41, 4.965360978488557e-41, 4.986100195760564e-41, -5.262576382771851e-41, -6.261141668449715e-41, -5.30601663516592e-41, 5.847198102088164e-41, 5.779655516107708e-41, -4.978112794513913e-41, -5.513408807885993e-41, -4.91869773962654e-41, -4.931169295959031e-41, -4.994367856700081e-41, -5.253888332293037e-41, -4.991004740385701e-41, 5.296768065301376e-41, -5.980741845738319e-41, -4.932150204884059e-41, -4.911270857765619e-41, -5.612900998853055e-41, 4.968303705263639e-41, -6.286785430346859e-41, 5.881249654771257e-41, 5.70692812580925e-41, -4.970966172345856e-41, -5.026457591533119e-41, 5.046215899880099e-41, 4.906786702679779e-41, 5.412795578147471e-41, -4.909168910069132e-41, -5.898485625882452e-41, -4.929487737801841e-41, -5.387291946096759e-41, 5.32353286596998e-41, 5.591040742809588e-41, 6.136426105124806e-41, -5.308538972401705e-41, 5.951875097373228e-41, 5.296347675762079e-41, 4.960736693556285e-41, 5.543957114408274e-41, 5.021272787215117e-41, -5.266219758779095e-41, -6.14623519437508e-41, 5.012304477043438e-41, -4.925984491641029e-41, 6.172719735350819e-41, 5.736075133867206e-41, 4.966201757567152e-41, -5.156077699483164e-41, 4.97797266466748e-41, -5.019871488750792e-41, -5.102267838453091e-41, -4.971246432038721e-41, -4.920659557476595e-41, 5.094981086438602e-41, 4.939997476284278e-41, -5.22922547932092e-41, 4.991565259771431e-41, -4.911551117458484e-41, 5.770687205936029e-41, -5.725705525231203e-41, -6.027405084600336e-41, -5.216473663295564e-41, 5.231607686710272e-41, -5.023514864758037e-41, 6.200745704637316e-41, -5.189989122319825e-41, 4.999832920710947e-41, -4.906646572833347e-41, 5.961403926930637e-41, -4.94069812551644e-41, -5.559931916901577e-41, 4.911130727919186e-41, 5.714775397209469e-41, 4.940557995670008e-41, -5.067795896230701e-41, -5.883912121853474e-41, 5.216333533449132e-41, 5.075503037784487e-41, 5.050419795273073e-41, 4.9582143563205e-41, -5.045935640187234e-41, -5.483280890903009e-41, 5.288360274515427e-41, -5.516491664507507e-41, 4.942800073212927e-41, 4.984839027142672e-41, -4.970966172345856e-41, 4.915334623312161e-41, 5.125669522807316e-41, 5.239595087956924e-41, 4.933971892887681e-41, -5.222639376538593e-41, -5.332921565680956e-41, 4.966622147106449e-41, 5.168549255815655e-41, -4.931869945191194e-41, 4.984418637603374e-41, 6.072667024998027e-41, -5.887555497860719e-41, 6.004844179324706e-41, -4.913512935308539e-41, 5.665029301725938e-41, -5.021833306600847e-41, -5.155096790558137e-41, -5.599308403749104e-41, -4.945882929834442e-41, -5.122026146800071e-41, -4.924022673790975e-41, -5.904371079432617e-41, 5.300691701001486e-41, 5.141364065607754e-41, -5.042432394026422e-41, -5.03892914786561e-41, -4.908608390683402e-41, -5.221938727306431e-41, -5.935760165033493e-41, -4.909309039915564e-41, 4.97797266466748e-41, 5.067375506691403e-41, -5.203021198038046e-41, -5.381546622393027e-41, 4.982877209292617e-41, 5.564135812294551e-41], [4.940838255362873e-41, 4.940838255362873e-41, -4.911270857765619e-41, -4.916455662083621e-41, -4.920659557476595e-41, -4.949666435688119e-41, -4.906926832526212e-41, -4.913372805462106e-41, -4.951067734152444e-41, -4.913933324847836e-41, -4.952328902770336e-41, -4.912952415922809e-41, 4.922200985787352e-41, 4.914633974079998e-41, 5.394578698111248e-41, -4.984418637603374e-41, 4.977131885588885e-41, -4.928787088569679e-41, -4.915755012851458e-41, 4.962418251713475e-41, -4.923322024558812e-41, -4.910149818994159e-41, -5.069197194695026e-41, -4.907066962372644e-41, 4.925003582716002e-41, -5.081949010720382e-41, -4.920799687323028e-41, -4.932010075037626e-41, 4.942239553827197e-41, -4.913092545769241e-41, -4.962418251713475e-41, 4.964099809870664e-41, -4.913512935308539e-41, -4.920099038090865e-41, 4.98189630036759e-41, -4.927105530412489e-41, -4.952048643077471e-41, 4.914213584540701e-41, -4.932430464576924e-41, 4.951908513231039e-41, -4.917156311315783e-41, 4.913232675615674e-41, 4.912391896537079e-41, -4.911551117458484e-41, -4.922901635019515e-41, 4.944902020909414e-41, 4.930468646726869e-41, -4.939717216591413e-41, 4.929207478108977e-41, -4.924443063330272e-41, -4.919538518705135e-41, -4.944341501523685e-41, -4.911410987612051e-41, 4.909309039915564e-41, -4.944341501523685e-41, -4.912111636844214e-41, 4.928787088569679e-41, 4.908888650376267e-41, -4.918277350087243e-41, 4.914213584540701e-41, 4.937755398741358e-41, 4.923041764865947e-41, 4.930328516880436e-41, 4.949386175995254e-41, 4.937194879355628e-41, 4.929067348262544e-41, 4.932850854116221e-41, -4.956392668316878e-41, 4.907907741451239e-41, 4.938596177819953e-41, -4.904824884829725e-41, 4.942099423980765e-41, -5.186205616466148e-41, -4.952328902770336e-41, 4.906926832526212e-41, 4.950226955073849e-41, -4.916455662083621e-41, 4.919818778398e-41, 4.938596177819953e-41, 4.963679420331367e-41, 4.914073454694269e-41, 4.955692019084716e-41, 4.945322410448712e-41, 4.941118515055737e-41, 4.905525534061887e-41, -4.943080332905792e-41, 4.930608776573301e-41, -4.925984491641029e-41, -4.960036044324123e-41, 4.936213970430601e-41, -4.914073454694269e-41, -4.946303319373739e-41, 4.904684754983292e-41, -4.905525534061887e-41, 5.03836862847988e-41, 4.915895142697891e-41, -4.949666435688119e-41, 4.90566566390832e-41, 4.931169295959031e-41, 4.949806565534551e-41, 4.917156311315783e-41, 4.938876437512818e-41, 4.953169681848931e-41, 4.927525919951787e-41, 4.908748520529834e-41, -4.938736307666385e-41, -4.934672542119843e-41, 4.922200985787352e-41, -4.913232675615674e-41, -4.938175788280655e-41, -4.907907741451239e-41, 4.923882543944542e-41, -4.921780596248055e-41, -4.925564102101732e-41, -4.914493844233566e-41, -4.959195265245528e-41, 5.97737872942394e-41, -4.931029166112599e-41, -4.912672156229944e-41, 6.237599854249058e-41, -4.96101695324915e-41, 5.697259166405409e-41, -5.623410737335491e-41, 6.205930508955317e-41, -4.957934096627635e-41, -4.980915391442562e-41, -6.177484150129524e-41, 5.410973890143849e-41, 6.126196626335235e-41, 5.534988804236595e-41, 5.402706229204332e-41, -5.094420567052872e-41, -6.012691450724925e-41, 5.411954799068876e-41, -4.961717602481312e-41, -5.644710473993228e-41, -4.911410987612051e-41, 4.909589299608429e-41, 5.444184663748347e-41, 5.233849764253192e-41, -5.100025760910172e-41, -6.209854144655427e-41, -5.098063943060117e-41, 4.984138377910509e-41, -5.03836862847988e-41, 6.302900362686595e-41, -4.964800459102827e-41, 5.482299981977982e-41, -6.040857549857854e-41, 5.581231653559314e-41, 5.009361750268356e-41, 5.298169363765701e-41, 5.027578630304579e-41, 5.220677558688538e-41, -5.369495455599834e-41, 4.996609934243e-41, 5.127210951118073e-41, 5.364450781128265e-41, 4.907066962372644e-41, 5.379164415003675e-41, -4.930188387034004e-41, 5.082929919645409e-41, -4.9582143563205e-41, 5.580531004327152e-41, -5.675258780515509e-41, 4.965080718795692e-41, 5.063311741144862e-41, -5.176396527215874e-41, 5.122166276646504e-41, 5.717297734445254e-41, 5.773349673018246e-41, -5.290602352058347e-41, 5.695997997787516e-41, -5.167568346890628e-41, -5.823376028194642e-41, 5.19139042078415e-41, -5.26593949908623e-41, -5.015527463511385e-41, 5.078025375020272e-41, -4.943780982137955e-41, 5.628595541653493e-41, -5.0022151281003e-41, -5.048457977423018e-41, 5.087974594116978e-41, 4.910850468226321e-41, 5.340908966927608e-41, -5.114459135092717e-41, 6.260441019217553e-41, -5.53582958331519e-41, 5.014266294893493e-41, 5.074662258705893e-41, 4.954711110159688e-41, 5.507383224489396e-41, -5.290181962519049e-41, 5.214511845445509e-41, -5.72444435661331e-41, 5.573384382159095e-41, -5.65045579769696e-41, -4.978252924360345e-41, -5.810484082322854e-41, -4.948965786455956e-41, -4.908748520529834e-41, -5.298589753304998e-41, 5.058547326366157e-41, -5.532046077461513e-41, -4.923602284251677e-41, -4.913512935308539e-41, 5.872281344599578e-41, -5.07564316763092e-41, -4.951488123691741e-41, 4.946863838759469e-41, -4.997450713321595e-41, 5.034024603240473e-41, -5.067235376844971e-41, -5.950053409369606e-41, 5.124828743728721e-41, 4.915895142697891e-41, 5.222639376538593e-41, -5.192791719248475e-41, 5.682125142990701e-41, -5.543536724868976e-41, 5.415177785536823e-41, 5.412655448301038e-41, -5.19251145955561e-41, 4.908188001144104e-41, 5.698240075330436e-41, 4.978673313899643e-41, 4.917716830701513e-41, -4.985819936067699e-41, -4.960036044324123e-41, -5.098063943060117e-41, 5.113618356014122e-41, 4.928646958723247e-41, -5.083350309184706e-41, -4.996609934243e-41, -4.985679806221267e-41, -5.236091841796111e-41, -4.954711110159688e-41, -5.554747112583575e-41, 4.957233447395473e-41, -4.905385404215455e-41, 4.915895142697891e-41, -5.00109408932884e-41, -5.010342659193383e-41, 5.041731744794259e-41, -5.138141079139807e-41, -5.225021583927945e-41, -6.114565849081339e-41, 4.922200985787352e-41, 5.903109910814724e-41, -5.037387719554852e-41, -5.172052501976467e-41, 5.710151112277197e-41, -5.135198352364725e-41, 4.908468260836969e-41, 5.659283978022206e-41, 5.338246499845391e-41, -4.924022673790975e-41, -5.029120058615336e-41, -5.672876573126157e-41, -5.013986035200628e-41, -5.155096790558137e-41, 4.984979156989104e-41, -5.276589367415099e-41, 5.01580772320425e-41, -5.001514478868137e-41, 4.972787860349478e-41, -4.974049028967371e-41, 4.939857346437845e-41, -4.931169295959031e-41, -4.996469804396568e-41, -5.485102578906631e-41, 5.826318754969724e-41, 6.156464673164651e-41, 4.905245274369022e-41, 5.642188136757443e-41, 6.167254671339952e-41, 5.734113316017151e-41, 5.041871874640692e-41, 4.90510514452259e-41, -5.022253696140144e-41, 5.160561854569004e-41, 4.91813722024081e-41, -6.111623122306257e-41, 4.908748520529834e-41, 5.201479769727288e-41, 5.712253059973684e-41, 4.907487351911942e-41, 4.933551503348383e-41, -4.907627481758374e-41, -5.147669908697216e-41, 6.211255443119752e-41, 5.032343045083283e-41, 5.544237374101139e-41, -5.744623054499588e-41, 5.073120830395135e-41, 4.982316689906887e-41, 4.921920726094487e-41, -6.092845722884305e-41, -4.929908127341139e-41, -5.221238078074268e-41, 4.972927990195911e-41, 6.233395958856084e-41, -5.493089980153283e-41, -6.213917910201969e-41, -5.194613407252097e-41, -4.936774489816331e-41, 5.630417229657115e-41, 4.912251766690646e-41, -4.968724094802936e-41, -5.215632884216969e-41, 5.233429374713894e-41, 5.485102578906631e-41, 5.034725252472635e-41, -5.366973118364049e-41, 5.339647798309715e-41, 5.093019268588548e-41, -5.436337392348128e-41, -5.039209407558475e-41, 4.949806565534551e-41, 5.138000949293374e-41, -4.908468260836969e-41, -4.952889422156066e-41, -4.955692019084716e-41, 4.959055135399095e-41, -5.317086893034086e-41, 5.497574135239122e-41, -6.004704049478274e-41, -4.968023445570774e-41, 5.098624462445847e-41, -4.933691633194816e-41, -4.929767997494706e-41, -5.158459906872517e-41, 5.89498237972164e-41, -5.078726024252435e-41, -5.007399932418301e-41, -4.919818778398e-41, -4.957233447395473e-41, 4.989183052382079e-41, 5.97793924880967e-41, -4.992686298542891e-41, -5.5945439889704e-41, 6.156604803011084e-41, -5.706647866116385e-41, -5.371457273449889e-41, -5.101847448913794e-41, 5.135899001596887e-41, 5.365571819899725e-41, 5.030381227233228e-41, -5.478516476124305e-41, -5.288920793901157e-41, 5.05756641744113e-41, 5.109414460621148e-41, 5.147109389311486e-41, -5.088535113502708e-41, 6.30262010299373e-41, 5.687730336848e-41, 5.927072114554679e-41, 5.098624462445847e-41, -5.30545611578019e-41, -4.92206085594092e-41, -4.938596177819953e-41, 4.905385404215455e-41, -4.923462154405245e-41, -6.237319594556193e-41, 5.261735603693256e-41, -4.934952801812708e-41, 5.050419795273073e-41, -5.362909352817507e-41, -6.23942154225268e-41, 4.983858118217644e-41, 6.28174075587529e-41, -5.506402315564369e-41, -4.937194879355628e-41, 5.294105598219159e-41, -6.276415821710856e-41, -5.806140057083447e-41, -5.547460360569086e-41, -4.910570208533456e-41, -5.537791401165245e-41, 5.358425197731668e-41, 6.135585326046212e-41, 5.610939181003e-41, -5.431432847722991e-41, 5.156918478561759e-41, 4.91925825901227e-41, -4.952889422156066e-41, 4.933691633194816e-41, -5.607856324381485e-41, -5.792547461979496e-41, 4.965921497874287e-41, -5.223620285463621e-41, -5.014266294893493e-41, 5.749667728971157e-41, 4.933271243655518e-41, -5.065974208227079e-41, 5.060369014369779e-41, -4.972087211117316e-41, -4.927806179644652e-41, -5.165606529040573e-41, 4.910430078687024e-41, 5.309379751480299e-41, 4.956392668316878e-41, -5.012164347197006e-41, 5.135618741904022e-41, 5.060649274062644e-41, 4.999552661018082e-41, -5.026457591533119e-41, -4.946163189527307e-41, 5.176957046601604e-41, -6.277957250021613e-41, 4.91813722024081e-41, -5.47655465827425e-41, 5.487765045988849e-41, -5.426528303097854e-41, -5.066674857459241e-41, 5.908995364364889e-41, -5.054623690666048e-41, -5.529663870072161e-41, -4.96325903079207e-41, 4.950927604306011e-41, -6.112463901384852e-41, 5.473471801652735e-41, -4.995629025317973e-41, 5.889096926171476e-41, 4.927385790105354e-41, 5.185785226926851e-41, 5.075503037784487e-41, -5.067795896230701e-41, -5.509625302032316e-41, 5.310220530558894e-41, -4.906786702679779e-41, -4.907066962372644e-41, -4.989603441921376e-41, 5.779235126568411e-41, -5.043413302951449e-41, -5.063311741144862e-41, -4.962558381559907e-41, -5.202040289113018e-41, -4.910430078687024e-41, -5.199517951877234e-41, -5.068916935002161e-41, 5.237773399953301e-41, -5.272805861561422e-41, -5.392196490721896e-41, -6.237459724402626e-41, -5.09035680150633e-41, -5.009361750268356e-41, -5.187326655237608e-41, 5.067515636537836e-41, -4.918277350087243e-41, -5.932537178565546e-41, -5.055604599591075e-41, 4.95989591447769e-41, 5.512988418346695e-41, -4.951908513231039e-41, 4.980495001903265e-41, 6.098591046588036e-41, 4.904824884829725e-41, 4.929908127341139e-41, 5.808802524165664e-41, -6.290428806354104e-41, -4.965501108334989e-41, -5.872841863985308e-41, 5.262996772311148e-41, 5.346233901092042e-41, -5.138701598525537e-41, -6.140770130364213e-41, -4.9418191642879e-41, 5.074381999013028e-41, 5.32689598228436e-41, 4.983577858524779e-41, -4.918277350087243e-41, -5.681284363912106e-41, 6.162350126714816e-41, -5.912778870218566e-41, 4.966902406799314e-41, -5.454974661923648e-41, 5.804878888465555e-41, 5.095681735670765e-41, 4.978673313899643e-41, 5.227964310703028e-41, -4.996890193935865e-41, -6.000079764546002e-41, 4.963539290484935e-41, 5.228384700242325e-41, 6.246568164420737e-41, 5.519434391282589e-41, 4.908468260836969e-41, 5.931836529333383e-41, 6.07336767423019e-41, -4.976711496049588e-41, 6.27781712017518e-41, 6.007786906099788e-41, -5.477955956738575e-41, -5.16714795735133e-41, 4.935933710737736e-41, -4.975310197585263e-41, 6.037634563389907e-41, 5.456656220080838e-41, 5.673717352204752e-41, -6.136706364817671e-41, -5.105771084613903e-41, 4.914914233772863e-41, 5.315405334876896e-41, -5.869338617824496e-41, 6.155764023932489e-41, -5.133516794207535e-41, -4.954150590773958e-41, -4.918557609780108e-41, -4.910570208533456e-41, -4.92486345286957e-41], [-2.975029585476543e-16, -2.975029585476543e-16, -1.058992560309946e-09, -1.2665613002837972e-09, -1.258049664443206e-09, -6.687204678890168e-10, -9.385943133821684e-10, -1.2996751452831745e-09, -1.5954695342657033e-09, -8.033545495500505e-10, -7.350389186200346e-10, -9.514443677360873e-10, -3.7381987567641772e-06, -2.7154269446327817e-06, 4.922341115633785e-41, -4.938596177819953e-41, 4.911831377151349e-41, -7.300158255674205e-10, -5.39360442507568e-31, 4.932570594423356e-41, -1.4605954223867457e-09, -5.411659016108145e-23, 4.941118515055737e-41, -1.350353495688239e-09, -7.723777256222816e-19, -4.938175788280655e-41, -5.865078422928605e-10, -7.182391992210446e-22, 4.917716830701513e-41, -1.5634465944103226e-09, -3.834227269820972e-24, -4.952889422156066e-41, -1.253288695046706e-09, -5.697343893459048e-26, -4.910430078687024e-41, -2.9521769473461745e-09, -7.101427449648385e-18, 4.946583579066604e-41, -1.2975167607010007e-09, -4.7925312752827975e-17, -4.300487307765798e-34, -5.649926637651959e-10, -6.641701382934743e-15, -6.0702411667423325e-30, -8.693808450921381e-10, -1.6790118691046256e-16, -2.189248766372562e-30, -7.946491464849714e-09, -3.517754035028915e-16, -1.9315018693314818e-21, -3.5233568840276064e-10, -3.1399898956993577e-13, -8.907869848337517e-22, -3.1131708322362783e-09, -1.1783143905041982e-12, -1.5452318038798173e-19, -7.856217846408109e-13, -8.023532467767158e-14, -2.1485274016465128e-18, -1.1797851107511748e-12, -2.8437508288936195e-14, -2.9373146328630448e-18, -1.4297925907472142e-12, -1.2763799721738755e-14, -6.2027296285146354e-18, 3.6537020631222106e-10, -1.2253848829800224e-15, -2.004268519687181e-21, 8.56256905656938e-12, -7.820523064859183e-14, -8.986147285339586e-25, 2.864392723012088e-09, -1.3004785508023697e-13, -6.335870713155477e-26, 6.0716813798933345e-09, -1.0821376951126946e-17, -4.829608114331931e-25, 8.141797236405068e-10, -2.819712859707666e-16, -4.8302277866248804e-30, 8.246576199688604e-10, -8.663270343037732e-17, -2.2874375742099016e-40, 2.807819088346264e-09, -1.834881548569382e-16, -2.0751899023109432e-39, 3.00982322398724e-10, -1.180442228900131e-23, -4.951067734152444e-41, 2.0462389560549354e-09, -3.3698942746770214e-24, 4.943921111984387e-41, 1.5771117745089214e-09, -4.951298721949225e-35, 4.939717216591413e-41, 2.079209582284136e-10, -7.112733024680985e-21, 4.911130727919186e-41, 2.3943652616154054e-10, -4.798733806387965e-17, -4.945462540295144e-41, 3.81479188515943e-11, -3.632569863881215e-18, 5.665912119758463e-40, 1.4765848266318216e-10, -2.698771642614125e-16, -1.7136316051295198e-26, 3.363352348365045e-12, -6.329686859892923e-19, -8.625026484452037e-25, -7.854823562414293e-13, -2.525769871031258e-10, -5.373860384461082e-11, -3.556708421705024e-13, -3.4861490864207534e-13, 4.923322024558812e-41, -5.093579787974278e-41, -2.193258371725745e-32, -4.231862314906777e-34, 5.342870784777663e-41, 5.039910056790637e-41, -5.01748928136144e-41, 5.233989894099624e-41, -4.990444220999971e-41, -4.978673313899643e-41, -4.974049028967371e-41, 4.967462926185044e-41, -4.946163189527307e-41, -5.13211549574321e-41, 4.905945923601185e-41, 5.308959361941002e-41, 5.850140828863246e-41, 4.940417865823575e-41, -5.038228498633447e-41, 5.720660850759633e-41, -4.932290334730491e-41, -5.731450848934934e-41, 5.218996000531349e-41, 4.907207092219077e-41, -5.931836529333383e-41, 5.051680963890966e-41, 4.995769155164405e-41, 4.99885201178592e-41, -4.993947467160783e-41, -5.51607127496821e-41, -5.265238849854068e-41, 5.170791333358575e-41, 4.994788246239378e-41, 4.907066962372644e-41, -5.448388559141321e-41, 5.314704685644734e-41, -4.956672928009743e-41, 5.843134336541622e-41, -4.937475139048493e-41, 4.99492837608581e-41, 5.07620368701665e-41, 4.929067348262544e-41, 5.18690626569831e-41, -5.078305634713137e-41, 5.700342023026923e-41, -5.068636675309296e-41, -5.4025660993579e-41, 6.088501697644898e-41, 4.986380455453429e-41, 4.955972278777581e-41, 5.351839094949341e-41, 6.299116856832918e-41, 4.942519813520062e-41, -5.042152134333557e-41, 5.891759393253693e-41, -5.24618119073925e-41, 6.270810627853556e-41, 5.251786384596549e-41, -5.031081876465391e-41, 5.44152219666613e-41, 5.221378207920701e-41, -5.199237692184369e-41, -5.415738304922553e-41, 5.05196122358383e-41, -5.096662644595792e-41, 5.584314510180829e-41, 5.03948966725134e-41, -5.580531004327152e-41, 6.217561286209213e-41, -5.562033864598064e-41, 5.206524444198858e-41, -4.975029937892398e-41, -5.023094475218739e-41, -5.089656152274168e-41, 6.066221052062133e-41, 5.035986421090528e-41, -5.62845541180706e-41, -5.005718374261112e-41, -4.94069812551644e-41, 4.936774489816331e-41, -4.998571752093055e-41, -4.954430850466823e-41, -5.001374349021705e-41, -5.25122586521082e-41, -5.060228884523347e-41, 5.393317529493356e-41, 4.958634745859798e-41, -5.103248747378119e-41, 4.932570594423356e-41, 5.058407196519725e-41, 6.189395187076285e-41, 6.283282184186047e-41, -5.023234605065172e-41, -4.977272015435318e-41, -5.62901593119279e-41, 5.464643621327489e-41, -5.297048324994241e-41, 4.912111636844214e-41, -5.595244638202562e-41, 5.23146755686384e-41, -5.255289630757361e-41, -5.07396160947373e-41, -5.027438500458146e-41, 5.349176627867124e-41, -5.015667593357818e-41, -5.048037587883721e-41, 6.043379887093639e-41, -5.092739008895683e-41, 5.046636289419396e-41, -5.07844576455957e-41, -6.24278465856706e-41, -4.935653451044871e-41, -5.456516090234405e-41, 5.166167048426303e-41, -4.91869773962654e-41, -4.917856960547946e-41, 4.978673313899643e-41, 4.97909370343894e-41, -5.147529778850783e-41, 5.022533955833009e-41, 6.006665867328328e-41, -4.907207092219077e-41, -5.063592000837726e-41, -5.765502401618027e-41, 5.61262073916019e-41, 5.837108753145026e-41, 4.925003582716002e-41, -5.030381227233228e-41, -5.505561536485774e-41, -5.13323653451467e-41, 5.037948238940582e-41, -5.043133043258584e-41, -5.128892509275263e-41, 4.996890193935865e-41, 5.181721461380309e-41, 4.947844747684497e-41, 5.241416775960546e-41, 6.232415049931056e-41, 4.949806565534551e-41, 5.026597721379551e-41, -5.131695106203913e-41, 4.970685912652991e-41, -5.615983855474569e-41, 5.084611477802599e-41, -5.806560446622744e-41, -5.967569640173666e-41, 5.074802388552325e-41, 5.634480995203657e-41, -5.091617970124223e-41, -5.195173926637827e-41, -4.964660329256394e-41, -6.018296644582224e-41, -5.269723004939907e-41, -4.910289948840591e-41, 5.142344974532781e-41, 4.92318189471238e-41, 4.92150033655519e-41, -5.089936411967033e-41, 5.164205230576248e-41, 5.046356029726531e-41, -5.093439658127845e-41, -5.905632248050509e-41, -5.526160623911349e-41, -4.929767997494706e-41, -5.04005018663707e-41, 4.921780596248055e-41, -4.941398774748602e-41, 5.035145642011933e-41, -5.024355643836632e-41, 4.997310583475163e-41, 5.060088754676914e-41, -6.052067937572452e-41, -5.055184210051778e-41, -4.92150033655519e-41, -5.565116721219579e-41, 4.995348765625108e-41, -5.11572030371061e-41, 5.68436722053362e-41, -5.528542831300701e-41, 5.152013933936622e-41, 5.446006351751969e-41, -5.673717352204752e-41, 5.086433165806221e-41, -5.786942268122197e-41, 5.462821933323867e-41, 4.92206085594092e-41, 5.192091070016312e-41, -5.688571115926595e-41, -4.923462154405245e-41, -5.222639376538593e-41, 5.164625620115546e-41, 6.288466988504049e-41, -5.028839798922471e-41, 4.938596177819953e-41, 5.477955956738575e-41, 5.836828493452161e-41, -4.928226569183949e-41, -4.937054749509196e-41, -5.010202529346951e-41, -5.267480927396987e-41, 6.213917910201969e-41, 5.699361114101896e-41, 5.380285453775135e-41, -4.927525919951787e-41, -5.209046781434642e-41, 5.047617198344424e-41, -5.90114809296467e-41, -5.013705775507763e-41, -5.112497317242663e-41, -5.781056814572033e-41, -5.203021198038046e-41, 5.03836862847988e-41, 6.204529210490993e-41, 5.299150272690728e-41, -5.279391964343748e-41, -5.047196808805126e-41, 4.906926832526212e-41, -4.978813443746075e-41, -4.907066962372644e-41, -5.002495387793164e-41, -5.218855870684916e-41, 5.064993299302051e-41, -6.289027507889779e-41, 6.004704049478274e-41, -5.054903950358913e-41, 5.023654994604469e-41, -5.005017725028949e-41, -5.581652043098611e-41, -5.775731880407599e-41, -4.908047871297672e-41, 4.985539676374834e-41, -4.990584350846404e-41, -5.071299142391513e-41, -4.926685140873192e-41, -4.984278507756942e-41, -5.838369921762918e-41, -5.045795510340801e-41, 4.926685140873192e-41, 4.936494230123466e-41, 5.693615790398164e-41, 4.929347607955409e-41, 5.42344544647634e-41, -4.98245681975332e-41, 4.968583964956504e-41, -5.027578630304579e-41, 4.919538518705135e-41, -5.024916163222362e-41, 5.022954345372307e-41, -5.17107159305144e-41, -5.108573681542553e-41, -5.321711177966358e-41, 4.905945923601185e-41, -5.220397298995674e-41, 5.076904336248812e-41, 4.963539290484935e-41, -5.027158240765281e-41, -4.904684754983292e-41, 4.910289948840591e-41, -5.275328198797206e-41, 5.469688295799058e-41, -5.623550867181923e-41, 5.921046531158082e-41, 6.214898819126996e-41, 5.199938341416531e-41, -5.14963172654727e-41, -5.066674857459241e-41, -6.302760232840162e-41, 5.722342408916823e-41, 4.965921497874287e-41, 6.056552092658292e-41, -4.912532026383511e-41, -4.905805793754752e-41, -5.534988804236595e-41, 5.25010482643936e-41, 4.913793195001404e-41, 4.989323182228511e-41, 5.472631022574141e-41, -4.984839027142672e-41, 4.953169681848931e-41, -5.243658853503465e-41, 5.303494297930135e-41, -5.5945439889704e-41, -5.049158626655181e-41, -4.906086053447617e-41, 4.97629110651029e-41, -5.043833692490747e-41, -4.969705003727964e-41, 4.992966558235756e-41, -5.849159919938219e-41, 5.224040675002918e-41, -5.453433233612891e-41, -5.118522900639259e-41, -5.658723458636476e-41, -4.986240325606997e-41, 5.930995750254788e-41, 4.905245274369022e-41, -5.167568346890628e-41, -5.633780345971495e-41, 4.92037929778373e-41, 5.077464855634542e-41, -4.989042922535646e-41, 5.274767679411476e-41, 5.223620285463621e-41, 5.079426673484597e-41, -4.961857732327745e-41, 5.129172768968128e-41, 5.120764978182179e-41, -6.304021401458055e-41, 5.12875237942883e-41, -4.929207478108977e-41, 5.935760165033493e-41, -5.362909352817507e-41, 5.003055907178894e-41, 4.932990983962654e-41, 5.587957886188073e-41, -5.594824248663265e-41, 5.693615790398164e-41, -5.087694334424113e-41, -4.92430293348384e-41, -5.085312127034761e-41, -4.962278121867042e-41, 4.914213584540701e-41, -4.995348765625108e-41, -4.908468260836969e-41, 5.030661486926093e-41, -5.006979542879004e-41, 4.919958908244433e-41, 4.96325903079207e-41, 4.92093981716946e-41, 5.92034588192592e-41, -5.163504581344086e-41, -5.01973135890436e-41, -4.936073840584168e-41, 5.818051094030208e-41, 5.030521357079661e-41, -5.013705775507763e-41, 5.176396527215874e-41, -5.386170907325299e-41, -5.376501947921458e-41, -4.949666435688119e-41, -5.087694334424113e-41, -4.962978771099205e-41, -5.065413688841349e-41, 5.3641705214354e-41, -5.021973436447279e-41, -4.988762662842781e-41, 5.105771084613903e-41, -6.260020629678255e-41, -4.945742799988009e-41, 4.956112408624013e-41, -5.407330514136604e-41, -5.195033796791394e-41, 5.241697035653411e-41, -4.909309039915564e-41, 4.98189630036759e-41, 4.951628253538174e-41, -4.932990983962654e-41, 5.749667728971157e-41, 5.429891419412234e-41, 6.287486079579022e-41, 5.874803681835363e-41, 4.906366313140482e-41, 6.248249722577927e-41, -4.917856960547946e-41, -5.185645097080418e-41, -5.147810038543648e-41, -5.776432529639761e-41, 4.945042150755847e-41, 5.078726024252435e-41, 4.916595791930053e-41, -5.855045373488383e-41, -5.298870012997863e-41, 6.189815576615582e-41, 5.059528235291185e-41, 5.22922547932092e-41, 5.142485104379214e-41, 5.15355536224738e-41, -4.908468260836969e-41, 4.932010075037626e-41, 4.9254239722553e-41, -5.963926264166421e-41, -4.919398388858703e-41, 4.943921111984387e-41, 4.954290720620391e-41, -4.95989591447769e-41, -4.997030323782298e-41, -5.37944467469654e-41, 5.256831059068119e-41, 5.178358345065929e-41, 5.09091732089206e-41, 5.094700826745737e-41, 6.097750267509441e-41, 5.032062785390418e-41, 5.987888467906376e-41, 5.179479383837389e-41, 5.089375892581303e-41, -5.950333669062471e-41], [-4.939156697205683e-41, -4.939156697205683e-41, -4.905945923601185e-41, -4.948405267070227e-41, -4.940838255362873e-41, -4.909869559301294e-41, -4.951207863998876e-41, -4.927385790105354e-41, -4.943360592598657e-41, -4.93845604797352e-41, -4.908608390683402e-41, -4.925003582716002e-41, 4.911691247304916e-41, 4.910850468226321e-41, -5.04005018663707e-41, -4.949946695380984e-41, -4.964940588949259e-41, -4.944341501523685e-41, -4.946163189527307e-41, -5.009081490575491e-41, -4.920659557476595e-41, 4.941959294134332e-41, 5.012864996429168e-41, -4.949105916302389e-41, 4.918417479933675e-41, -5.058407196519725e-41, -4.94406124183082e-41, -4.940417865823575e-41, 4.931449555651896e-41, -4.931449555651896e-41, 4.949946695380984e-41, -4.947704617838064e-41, -4.94125864490217e-41, -4.94125864490217e-41, -4.906786702679779e-41, -4.917716830701513e-41, -4.913512935308539e-41, 4.945322410448712e-41, -4.906926832526212e-41, -4.950647344613146e-41, -4.914914233772863e-41, -4.91925825901227e-41, 4.913512935308539e-41, -4.917856960547946e-41, -4.917576700855081e-41, 4.931449555651896e-41, 5.585435548952288e-41, -4.933971892887681e-41, -4.929627867648274e-41, 4.922200985787352e-41, -4.922341115633785e-41, -4.945042150755847e-41, 4.916876051622918e-41, -4.90510514452259e-41, -4.932990983962654e-41, 4.943220462752225e-41, -4.917016181469351e-41, -4.906786702679779e-41, 4.912952415922809e-41, -4.936494230123466e-41, -4.93957708674498e-41, 4.916595791930053e-41, 4.942800073212927e-41, -4.910149818994159e-41, 4.925564102101732e-41, 4.948965786455956e-41, -4.920239167937298e-41, 4.925143712562435e-41, 4.921780596248055e-41, -4.908328130990537e-41, 4.936213970430601e-41, 4.913653065154971e-41, -4.928787088569679e-41, 4.925844361794597e-41, 4.917016181469351e-41, -6.257077902903173e-41, 4.92430293348384e-41, 4.923602284251677e-41, -4.936634359969898e-41, -4.920659557476595e-41, 4.925143712562435e-41, -4.931309425805464e-41, -4.913512935308539e-41, 4.918417479933675e-41, 4.928787088569679e-41, 4.961297212942015e-41, 4.926825270719624e-41, -4.936634359969898e-41, -4.931869945191194e-41, 4.919958908244433e-41, 4.909869559301294e-41, -4.909168910069132e-41, 4.923041764865947e-41, 4.952469032616768e-41, 4.915895142697891e-41, 4.945042150755847e-41, 4.934252152580546e-41, -4.929207478108977e-41, 4.935793580891303e-41, 4.951207863998876e-41, -4.957513707088338e-41, 4.911130727919186e-41, 4.947284228298767e-41, 4.933131113809086e-41, 4.913653065154971e-41, 4.931169295959031e-41, 4.945322410448712e-41, -4.921780596248055e-41, 4.939717216591413e-41, -4.90622618329405e-41, -4.908748520529834e-41, -4.951347993845309e-41, 4.950647344613146e-41, -5.424846744940664e-41, -4.906786702679779e-41, -4.919538518705135e-41, 5.023094475218739e-41, 4.908888650376267e-41, 4.918557609780108e-41, 5.944868605051604e-41, -5.117401861867799e-41, -4.996750064089433e-41, 4.954991369852553e-41, 4.907627481758374e-41, -6.094527281041494e-41, -5.661385925718693e-41, 5.588518405573803e-41, 6.11232377153842e-41, -5.098624462445847e-41, -5.296487805608511e-41, -5.044674471569341e-41, -4.916175402390756e-41, -5.518733742050427e-41, -4.911971506997781e-41, 5.234830673178219e-41, 4.9638195501778e-41, -5.290602352058347e-41, 5.013285385968466e-41, 5.349597017406422e-41, -5.134777962825427e-41, 4.954010460927526e-41, -5.390655062411139e-41, 4.905245274369022e-41, 6.006385607635463e-41, -5.071018882698648e-41, -4.904824884829725e-41, 5.127070821271641e-41, 5.087974594116978e-41, -5.827019404201887e-41, 5.455955570848675e-41, -5.202460678652316e-41, 5.816229406026586e-41, -5.024495773683064e-41, 5.454694402230783e-41, 4.96101695324915e-41, -4.936073840584168e-41, -5.112497317242663e-41, -4.967603056031477e-41, 5.813707068790801e-41, 6.253154267203064e-41, 4.983998248064077e-41, -5.057846677133995e-41, -4.908468260836969e-41, 4.974609548353101e-41, 4.925003582716002e-41, -5.37944467469654e-41, -5.350577926331449e-41, 5.031502266004688e-41, -5.494911668156905e-41, -6.202567392640938e-41, -5.036827200169122e-41, -4.966762276952882e-41, 5.663207613722316e-41, -6.006385607635463e-41, -4.936634359969898e-41, -4.911971506997781e-41, 4.904824884829725e-41, 5.064012390377024e-41, 5.340628707234743e-41, 5.507243094642964e-41, 5.011043308425546e-41, 5.063451870991294e-41, 4.946583579066604e-41, -5.44152219666613e-41, 5.102407968299524e-41, 5.611779960081595e-41, -5.698940724562599e-41, 4.990724480692836e-41, 5.503739848482152e-41, 5.545638672565464e-41, -5.061770312834104e-41, 6.252313488124469e-41, 5.253888332293037e-41, -4.984278507756942e-41, -5.127631340657371e-41, -5.271824952636394e-41, -4.935653451044871e-41, 5.968830808791558e-41, -4.985259416681969e-41, -5.467165958563274e-41, -4.974329288660236e-41, -4.909309039915564e-41, 5.218295351299186e-41, -5.467586348102571e-41, 5.301392350233648e-41, -5.047477068497991e-41, -4.947003968605902e-41, -5.185645097080418e-41, -5.042432394026422e-41, 5.12875237942883e-41, -5.025616812454524e-41, -5.911237441907808e-41, -5.717718123984551e-41, 5.047897458037289e-41, 5.205963924813128e-41, 4.906366313140482e-41, 5.922728089315272e-41, -6.168936229497142e-41, -6.060055338819104e-41, -4.941398774748602e-41, 5.100586280295902e-41, 5.821694470037453e-41, 5.70468604826633e-41, 5.930575360715491e-41, -4.967322796338612e-41, -5.066955117152106e-41, 5.013145256122033e-41, -5.769005647778839e-41, 5.038088368787015e-41, -5.80235655122977e-41, 5.125389263114451e-41, -5.489166344453173e-41, 5.138141079139807e-41, -5.005157854875382e-41, -5.199798211570099e-41, -5.017629411207872e-41, 4.910430078687024e-41, -4.997590843168028e-41, -5.098904722138712e-41, -5.520275170361184e-41, 5.538351920550975e-41, -5.059107845751887e-41, -5.133376664361102e-41, -4.931169295959031e-41, -5.344131953395555e-41, -5.380425583621568e-41, -4.954851240006121e-41, -5.895683028953803e-41, -5.901988872043265e-41, 4.906086053447617e-41, 4.92318189471238e-41, -5.624251516414086e-41, -4.945602670141577e-41, 5.407050254443739e-41, 4.924583193176705e-41, -5.136319391136184e-41, 5.153415232400947e-41, 4.978252924360345e-41, -5.066814987305674e-41, 5.053222392201723e-41, 5.229505739013785e-41, 6.14567467498935e-41, 5.409012072293794e-41, 4.99997305055738e-41, 4.939997476284278e-41, 5.792827721672361e-41, -5.716036565827361e-41, -5.155657309943867e-41, 5.158459906872517e-41, 5.908574974825591e-41, -5.100306020603037e-41, -4.930608776573301e-41, -4.975870716970993e-41, -4.932850854116221e-41, -5.160141465029706e-41, 6.172439475657954e-41, 5.05476382051248e-41, -5.036266680783393e-41, -4.991285000078566e-41, 5.025756942300956e-41, -5.243798983349898e-41, 5.787923177047224e-41, 4.956252538470445e-41, -5.106191474153201e-41, -4.934952801812708e-41, -4.906926832526212e-41, 4.921220076862325e-41, 6.006385607635463e-41, -5.469127776413329e-41, 5.946410033362361e-41, 5.040470576176367e-41, 4.970125393267261e-41, 5.783018632422088e-41, 5.549842567958438e-41, -5.008941360729059e-41, -4.942659943366495e-41, 5.151453414550893e-41, 4.969985263420829e-41, 5.024215513990199e-41, 5.132956274821805e-41, -5.081108231641787e-41, 4.957934096627635e-41, 6.278798029100208e-41, 5.352539744181504e-41, 4.921780596248055e-41, 4.910570208533456e-41, 4.928506828876814e-41, -6.16879609965071e-41, 4.93733500920206e-41, 4.988062013610619e-41, 4.96325903079207e-41, 5.421483628626285e-41, 5.323813125662845e-41, -4.908468260836969e-41, 4.982596949599752e-41, -5.09371991782071e-41, 4.959055135399095e-41, 5.366832988517617e-41, 5.135618741904022e-41, 5.050419795273073e-41, -4.905805793754752e-41, -5.00109408932884e-41, -5.225441973467243e-41, 4.948125007377362e-41, -4.950927604306011e-41, -5.802216421383338e-41, -6.041978588629314e-41, -4.917296441162216e-41, 5.032763434622581e-41, 4.969004354495801e-41, 4.989323182228511e-41, -5.466044919791814e-41, 6.035812875386285e-41, -5.145007441614998e-41, -5.11403874555342e-41, -5.808242004779934e-41, 5.848038881166759e-41, -5.102267838453091e-41, -5.13155497635748e-41, -5.167428217044195e-41, 6.296034000211403e-41, 4.9418191642879e-41, -4.946443449220172e-41, -5.09203835966352e-41, 5.023935254297334e-41, 5.007960451804031e-41, 5.063031481451997e-41, -5.200638990648694e-41, 5.129453028660993e-41, -5.040470576176367e-41, -5.222078857152863e-41, 5.597346585899049e-41, 5.013845905354195e-41, -5.01636824258998e-41, 4.963118900945637e-41, 5.176396527215874e-41, 4.916315532237188e-41, 5.441382066819697e-41, 5.235251062717517e-41, 4.906786702679779e-41, -5.401164800893575e-41, -4.954150590773958e-41, -4.924022673790975e-41, 5.500376732167772e-41, -5.174574839212252e-41, -5.598747884363374e-41, -5.018189930593602e-41, 6.055571183733264e-41, 4.90622618329405e-41, 5.541434777172489e-41, -5.20610405465956e-41, -4.906366313140482e-41, -5.285557677586778e-41, 5.367393507903347e-41, 5.503459588789287e-41, 5.023094475218739e-41, -5.391495841489734e-41, -4.928646958723247e-41, -5.791566553054469e-41, 5.354641691877991e-41, -5.616123985321002e-41, -5.101427059374497e-41, -5.516771924200372e-41, 5.478936865663602e-41, -5.673296962665454e-41, 4.960736693556285e-41, 5.007680192111166e-41, 5.523778416521996e-41, -5.241276646114113e-41, -5.086993685191951e-41, -6.120871692170801e-41, -5.302373259158675e-41, -4.993386947775053e-41, -6.018436774428657e-41, -5.575206070162717e-41, 4.997590843168028e-41, 4.949946695380984e-41, 6.149458180843027e-41, 6.006805997174761e-41, 6.042398978168611e-41, 6.217281026516348e-41, -6.174541423354441e-41, 4.916175402390756e-41, 5.51382919742529e-41, -5.48103881336009e-41, -4.951488123691741e-41, 5.472070503188411e-41, 4.987921883764186e-41, -4.926124621487462e-41, -5.539613089168867e-41, -4.940277735977143e-41, 5.996436388538757e-41, 5.030801616772526e-41, -5.427228952330017e-41, -4.908748520529834e-41, 5.096242255056495e-41, 5.798152655836796e-41, -5.16995055427998e-41, 5.507663484182261e-41, -4.919118129165838e-41, -5.138281208986239e-41, -5.360527145428155e-41, 5.121745887107206e-41, 6.196681939090774e-41, -5.268321706475582e-41, -5.669373326965345e-41, -5.086713425499086e-41, 5.190129252166257e-41, 5.159300685951111e-41, -6.02936690245039e-41, 5.524619195600591e-41, -5.373278961453511e-41, -5.87746614891758e-41, 4.908047871297672e-41, -5.991671973760053e-41, -4.909449169761997e-41, 4.94069812551644e-41, -4.997871102860893e-41, 4.955551889238283e-41, -4.993807337314351e-41, -6.223726999452243e-41, 4.909589299608429e-41, 5.161963153033329e-41, -5.687590207001568e-41, -4.92037929778373e-41, -5.249123917514332e-41, -4.992686298542891e-41, 5.472070503188411e-41, 4.939997476284278e-41, -4.992546168696458e-41, -6.303040492533027e-41, -5.175275488444414e-41, -5.185785226926851e-41, -6.033991187382662e-41, -5.251926514442982e-41, 4.911551117458484e-41, -5.480198034281495e-41, -4.998711881939487e-41, 5.100586280295902e-41, 6.199764795712288e-41, -6.016615086425035e-41, 5.080687842102489e-41, 5.689552024851622e-41, 5.182281980766038e-41, -4.917997090394378e-41, -5.609537882538675e-41, -5.115580173864177e-41, -4.957233447395473e-41, 4.928646958723247e-41, 5.546479451644058e-41, -5.745463833578182e-41, -5.779515386261276e-41, -5.926651725015381e-41, 5.106892123385363e-41, 5.415598175076121e-41, -6.038895732007799e-41, 4.969284614188666e-41, -4.930608776573301e-41, 5.107172383078228e-41, -4.986660715146294e-41, -4.920519427630163e-41, -5.988448987292106e-41, 5.287239235743967e-41, 5.065553818687781e-41, 5.747705911121102e-41, 5.312462608101814e-41, -5.44264323543759e-41, 5.644850603839661e-41, 5.049438886348046e-41, -5.274767679411476e-41, -5.926651725015381e-41, -5.050279665426641e-41, 4.929767997494706e-41, -5.121605757260774e-41, 4.983577858524779e-41, -5.193772628173502e-41, 4.979514092978237e-41, 5.125109003421586e-41, -6.266046213074852e-41, -5.022113566293712e-41, -5.851542127327571e-41, 6.10896065522404e-41, -5.80011447368685e-41, 5.066254467919944e-41, -5.49519192784977e-41, -4.969705003727964e-41, -5.041591614947827e-41, 5.223620285463621e-41, 5.701322931951951e-41, -5.356042990342316e-41, -4.951347993845309e-41, -5.60813658407435e-41], [-2.3719526325294282e-06, -2.3719526325294282e-06, -5.631314343190752e-05, -4.982099198969081e-05, -5.8771282056113705e-05, -5.073158536106348e-05, -4.961426748195663e-05, -5.257662996882573e-05, -5.5850814533187076e-05, -5.395152766141109e-05, -4.9797694373410195e-05, -3.4727014281088486e-05, -0.0003239622456021607, -0.00023379547928925604, 5.736215263713639e-41, -1.8594867399329695e-12, 7.112637724664517e-32, -6.795169610995799e-05, -4.090813376933511e-08, 6.7985396295182825e-40, -5.968945333734155e-05, -5.623457468573179e-07, -1.934212270307545e-41, -5.881813194719143e-05, -2.0600720063157496e-07, -4.927666049798219e-41, -5.145328395883553e-05, -1.7881388814089405e-08, -1.959637561606292e-20, -5.193426477489993e-05, -6.815714925778593e-08, 3.214553915145344e-23, -5.368372512748465e-05, -7.410396847262746e-07, -1.2118986912092178e-13, -6.835833482909948e-05, -1.1639759804893401e-06, -4.2658815369023273e-10, -4.072877345606685e-05, -2.8485569600888994e-06, -1.3167203993802445e-09, -5.127192343934439e-05, -2.242131586172036e-06, -1.0110213111147459e-08, -3.760154504561797e-05, -3.0704170512763085e-06, -4.939646558455024e-08, -4.101084778085351e-05, -4.495614120969549e-06, -1.9709625576069811e-07, -3.469029616098851e-05, -8.701089427631814e-06, -4.6256613472905883e-07, -2.871905053325463e-06, -1.015614816424204e-05, -3.6402002479007933e-07, -4.57862151961308e-05, -4.621517291525379e-06, -9.170247494694195e-07, -9.861839316727128e-06, -5.9339690778870136e-06, -2.0062204839632614e-06, 1.6248844758592895e-07, -1.1444503797974903e-05, -1.5871888763285824e-06, -1.714120116957929e-06, -5.175661954126554e-06, -8.726748887966096e-07, 1.7388863852829672e-05, -5.452561254060129e-06, -3.000009769493772e-07, 1.404247905156808e-05, -5.55781207367545e-06, -1.9854329025292827e-07, 3.2454739994136617e-05, -3.906026449840283e-06, -8.348679614300636e-08, 5.109267294756137e-05, -1.4293973435997032e-06, -4.173568868282018e-08, 1.4999021914263722e-05, -7.923094926809426e-07, -1.2401382143423234e-08, 2.775527536869049e-05, -2.4110925096465508e-06, -5.287103047035835e-11, 6.191584543557838e-05, -7.229744625192325e-08, -1.1478302710437108e-14, 5.859962766407989e-05, -7.865985907073991e-08, -2.4114213162634672e-14, 3.133568316115998e-05, -3.0036144949008303e-07, -2.614067117077366e-25, 7.043558434816077e-05, -1.5554454080302094e-07, 7.081788624076483e-23, 5.806967965327203e-05, -8.433199241153488e-07, -1.1512711729853419e-14, 3.291245593572967e-05, -9.272589522879571e-07, -3.476413601433137e-12, 2.2906306185177527e-05, -2.36139112530509e-06, -8.763237246967037e-08, 7.347713562921854e-06, -7.697999535594136e-06, -1.9750441992982815e-07, 5.400214035944373e-07, -3.4296870580874383e-05, -1.1840435945487116e-05, -2.1014300273236586e-06, -5.519446403923212e-06, -3.9140199870231485e-14, 5.745603963424615e-41, -4.0432875797469237e-11, -1.4752808696893993e-10, -6.28061971710383e-41, 6.291830104818429e-41, 4.964520199409962e-41, -5.200218601109396e-41, -5.130013548046723e-41, 5.942206137969387e-41, -4.944341501523685e-41, -5.520275170361184e-41, 5.83794953222362e-41, -6.112043511845555e-41, 5.66965358665821e-41, -4.905805793754752e-41, -5.016508372436413e-41, -6.268148160771339e-41, -4.907627481758374e-41, 5.72556539538477e-41, 5.159020426258247e-41, 5.056865768208967e-41, 5.699220984255464e-41, 5.657041900479287e-41, 5.036266680783393e-41, 5.684086960840755e-41, 5.301812739772945e-41, -4.908888650376267e-41, -5.015387333664953e-41, 4.907066962372644e-41, 5.016087982897115e-41, 6.197802977862233e-41, 5.399343112889953e-41, 4.911410987612051e-41, 5.429190770180071e-41, 4.927806179644652e-41, -4.923462154405245e-41, -5.175836007830144e-41, -5.253888332293037e-41, 5.582913211716504e-41, 4.908328130990537e-41, -5.851822387020436e-41, 5.10955459046758e-41, 5.130153677893155e-41, -4.991985649310728e-41, -5.292424040061969e-41, 5.685067869765783e-41, 5.126089912346613e-41, 6.057392871736887e-41, 5.935479905340628e-41, 5.117822251407097e-41, 5.503599718635719e-41, -5.715476046441631e-41, -4.905385404215455e-41, -4.94125864490217e-41, 4.947003968605902e-41, -4.917716830701513e-41, 4.951207863998876e-41, 4.968583964956504e-41, 5.369915845139131e-41, -6.159127140246868e-41, -5.007540062264734e-41, -5.435776872962398e-41, 5.037667979247717e-41, 5.85994991811352e-41, -4.912812286076376e-41, 5.075923427323785e-41, -4.986800844992727e-41, -5.870599786442389e-41, -6.144273376525025e-41, -4.954290720620391e-41, -4.907627481758374e-41, -5.174714969058684e-41, 4.919678648551568e-41, 5.829822001130536e-41, -5.573524512005527e-41, -5.262716512618283e-41, 5.069617584234323e-41, -5.74756578127467e-41, -5.233849764253192e-41, 6.049405470490235e-41, 5.566798279376768e-41, -5.085592386727626e-41, -4.907207092219077e-41, -6.101393643516686e-41, -5.562594383983794e-41, 5.355902860495883e-41, -5.282755080658128e-41, 6.228211154538082e-41, -6.101253513670254e-41, 4.910430078687024e-41, 4.94350072244509e-41, 4.922901635019515e-41, 5.077044466095245e-41, 4.930048257187571e-41, 5.890918614175098e-41, -5.62901593119279e-41, -5.079146413791732e-41, -5.787362657661495e-41, -5.155096790558137e-41, -5.060509144216212e-41, -5.028279279536741e-41, 5.650315667850527e-41, 5.041731744794259e-41, -4.953590071388228e-41, 5.140803546222024e-41, -5.067655766384268e-41, -5.09484095659217e-41, -5.122026146800071e-41, -5.420502719701257e-41, -5.845936933470272e-41, -4.935653451044871e-41, 5.464363361634624e-41, 6.003863270399679e-41, 6.148197012225135e-41, -5.246041060892818e-41, -4.986520585299862e-41, -5.311201439483922e-41, 5.014406424739925e-41, 4.917997090394378e-41, -5.219136130377781e-41, -4.920239167937298e-41, 5.827720053434049e-41, 5.980461586045454e-41, 4.956672928009743e-41, 5.049018496808748e-41, 4.983717988371212e-41, -5.017629411207872e-41, -5.395699736882708e-41, 6.109941564149067e-41, -5.070878752852216e-41, -6.230172972388137e-41, -5.041311355254962e-41, -5.164625620115546e-41, -5.085031867341896e-41, -5.029820707847498e-41, 5.794789539522416e-41, 5.199658081723666e-41, 5.600009052981266e-41, -5.254729111371632e-41, 5.047196808805126e-41, -5.7097307227379e-41, -5.067375506691403e-41, -5.222779506385026e-41, 5.284997158201048e-41, -5.33992805800258e-41, -4.987921883764186e-41, -5.033744343547608e-41, 4.904965014676157e-41, 4.989463312074944e-41, -4.911551117458484e-41, -5.230766907631677e-41, -4.909309039915564e-41, -6.215319208666294e-41, -5.409852851372389e-41, -5.119643939410719e-41, 5.025056293068794e-41, 5.745183573885318e-41, 5.456656220080838e-41, -5.139822637296997e-41, 5.021132657368685e-41, 4.908047871297672e-41, 5.679322546062051e-41, 5.029120058615336e-41, -5.006699283186139e-41, 4.922761505173082e-41, 6.021099241510874e-41, 5.856867061492005e-41, -5.025897072147389e-41, -6.128999223263885e-41, 5.348475978634962e-41, 5.886434459089259e-41, -5.063031481451997e-41, -5.089516022427736e-41, 5.934639126262033e-41, -4.908888650376267e-41, -5.327176241977225e-41, 4.996890193935865e-41, 5.145567961000728e-41, -5.466185049638246e-41, -5.01748928136144e-41, -4.990584350846404e-41, -4.988902792689214e-41, 5.545358412872599e-41, 5.718418773216714e-41, -5.130854327125318e-41, 5.622009438871166e-41, 5.108013162156823e-41, 5.214792105138374e-41, 4.927946309491084e-41, -5.349316757713557e-41, -6.145954934682215e-41, -5.019871488750792e-41, 5.641207227832416e-41, 5.833044987598484e-41, 5.929033932404734e-41, 5.020712267829387e-41, 5.336424811841768e-41, 5.227964310703028e-41, -5.440681417587535e-41, -5.797732266297498e-41, -5.055044080205345e-41, 5.480758553667225e-41, -4.984558767449807e-41, -5.007680192111166e-41, 6.080514296398246e-41, -5.171211722897872e-41, -5.861211086731412e-41, -5.634340865357224e-41, -5.013986035200628e-41, -5.029820707847498e-41, -5.155096790558137e-41, -5.701182802105518e-41, -4.972787860349478e-41, -5.82099382080529e-41, 5.753731494517699e-41, 4.928506828876814e-41, 5.108994071081851e-41, -5.171351852744305e-41, -5.19251145955561e-41, -5.19307197894134e-41, -5.700061763334058e-41, -4.990304091153539e-41, -4.988622532996349e-41, 5.024495773683064e-41, -4.906926832526212e-41, 5.292424040061969e-41, 5.366132339285454e-41, 5.088535113502708e-41, -5.464503491481057e-41, -5.279532094190181e-41, 5.028139149690309e-41, -5.694736829169624e-41, -4.954570980313256e-41, 4.992686298542891e-41, 6.16319090579341e-41, -5.091057450738493e-41, -4.934812671966276e-41, 4.941118515055737e-41, 5.315405334876896e-41, -5.151453414550893e-41, 4.954290720620391e-41, 5.165466399194141e-41, 4.991705389617863e-41, -4.917997090394378e-41, -4.92430293348384e-41, -4.917856960547946e-41, -5.07228005131654e-41, 5.02029187829009e-41, 5.861211086731412e-41, -4.983577858524779e-41, 5.342030005699068e-41, 5.004737465336084e-41, 5.060228884523347e-41, 5.246041060892818e-41, 4.977131885588885e-41, -6.121992730942261e-41, -6.05192780772602e-41, 5.546059062104761e-41, -5.637003332439442e-41, -5.02029187829009e-41, 5.032483174929716e-41, -4.907627481758374e-41, -4.988342273303484e-41, 5.179199124144524e-41, -6.03553261569342e-41, -4.995909285010838e-41, -4.919538518705135e-41, -4.936634359969898e-41, -5.486644007217389e-41, 4.995348765625108e-41, -5.109834850160445e-41, 5.129733288353858e-41, 4.935373191352006e-41, -5.375521038996431e-41, 5.016228112743548e-41, 5.006559153339706e-41, -4.990584350846404e-41, 5.432974276033748e-41, 6.058513910508347e-41, 5.342870784777663e-41, -5.141364065607754e-41, -5.85658680179914e-41, 5.191110161091285e-41, 5.615002946549542e-41, -6.102935071827443e-41, -4.988342273303484e-41, 6.002321842088921e-41, -4.992546168696458e-41, 5.401024671047142e-41, 5.085592386727626e-41, 4.935933710737736e-41, 5.233849764253192e-41, 5.0186103201329e-41, -4.906366313140482e-41, 6.01633482673217e-41, -4.932430464576924e-41, -4.905385404215455e-41, -5.175415618290847e-41, -4.95653279816331e-41, -6.104476500138201e-41, -5.043413302951449e-41, 4.941398774748602e-41, -4.963118900945637e-41, -4.965360978488557e-41, -5.0350055121655e-41, -6.255816734285281e-41, -4.96325903079207e-41, -4.907907741451239e-41, -5.145007441614998e-41, 5.522096858364807e-41, 5.256550799375254e-41, 5.09035680150633e-41, 5.043133043258584e-41, -5.055744729437508e-41, -5.019451099211495e-41, 4.920659557476595e-41, 5.237633270106869e-41, -4.968583964956504e-41, 4.967042536645747e-41, -5.062891351605564e-41, 4.931029166112599e-41, -4.978252924360345e-41, -5.003336166871759e-41, 5.041171225408529e-41, -6.091164164727115e-41, -4.990584350846404e-41, -4.908748520529834e-41, -5.178498474912361e-41, 4.954991369852553e-41, -5.49519192784977e-41, 5.706087346730655e-41, 5.038508758326312e-41, -6.06944403853008e-41, -5.219136130377781e-41, 5.382107141778757e-41, -4.923882543944542e-41, -5.034585122626203e-41, 5.832764727905619e-41, -5.017068891822143e-41, -5.087273944884816e-41, 6.199204276326558e-41, 5.002635517639597e-41, -5.006278893646841e-41, -5.061910442680537e-41, 5.217454572220591e-41, 5.025897072147389e-41, 5.999238985467407e-41, 4.995629025317973e-41, -4.986520585299862e-41, 5.28513728804748e-41, 4.964239939717097e-41, 4.974469418506668e-41, 6.009748723949843e-41, 4.960876823402717e-41, 4.908748520529834e-41, -4.984698897296239e-41, -5.889657445557206e-41, -5.157198738254624e-41, -4.956672928009743e-41, -4.937615268894925e-41, 6.286645300500427e-41, 4.915054363619296e-41, -5.398502333811358e-41, 4.910149818994159e-41, -6.117648705702854e-41, 5.727947602774122e-41, -5.202320548805883e-41, 5.696278257480381e-41, 5.775731880407599e-41, -6.14791675253227e-41, 4.975029937892398e-41, 4.969004354495801e-41, 5.199097562337936e-41, 6.228491414230947e-41, 5.926091205629651e-41, -6.201866743408775e-41, 6.103915980752471e-41, -5.147810038543648e-41, -5.953276395837553e-41, -4.905525534061887e-41, -5.990550934988593e-41, 5.024495773683064e-41, -5.272245342175692e-41, -4.906926832526212e-41, -5.669233197118912e-41, -6.206210768648182e-41, -5.006839413032571e-41, 5.26593949908623e-41, 5.183403019537498e-41, -5.25122586521082e-41, 5.348335848788529e-41, -5.660405016793666e-41, 5.097503423674387e-41, -6.26590608322842e-41, 5.272665731714989e-41, 4.946723708913037e-41], [-4.930468646726869e-41, -4.930468646726869e-41, -4.919958908244433e-41, -4.916175402390756e-41, -4.916735921776486e-41, -4.925283842408867e-41, -4.913653065154971e-41, -4.909168910069132e-41, -4.912812286076376e-41, -4.916315532237188e-41, -4.928927218416112e-41, -4.924723323023137e-41, 4.907907741451239e-41, 4.942519813520062e-41, 4.990864610539268e-41, 4.938736307666385e-41, -5.064993299302051e-41, -4.951908513231039e-41, -4.954150590773958e-41, -5.340628707234743e-41, -4.907066962372644e-41, 4.936494230123466e-41, 4.96157747263488e-41, -4.926264751333894e-41, 4.932150204884059e-41, -5.01580772320425e-41, 4.927666049798219e-41, 4.922200985787352e-41, -4.930748906419734e-41, -4.915474753158593e-41, 4.944761891062982e-41, 4.96045643386342e-41, 4.917296441162216e-41, 4.922901635019515e-41, -4.953730201234661e-41, -4.928506828876814e-41, -5.47879673581717e-41, -4.947564487991632e-41, -4.92374241409811e-41, -4.951347993845309e-41, -4.922901635019515e-41, -4.927946309491084e-41, -4.940978385209305e-41, -4.913653065154971e-41, -4.936494230123466e-41, 4.954711110159688e-41, -4.939997476284278e-41, -4.928787088569679e-41, -4.939717216591413e-41, 4.943220462752225e-41, 4.929487737801841e-41, -4.911270857765619e-41, 4.934252152580546e-41, -4.932150204884059e-41, -4.930188387034004e-41, 4.927385790105354e-41, 5.53470854454373e-41, -4.933271243655518e-41, 4.942800073212927e-41, -4.918837869472973e-41, -4.943220462752225e-41, -4.952188772923904e-41, 4.92037929778373e-41, -4.923041764865947e-41, -5.455535181309378e-41, 4.952469032616768e-41, -4.908608390683402e-41, 4.930468646726869e-41, 4.908328130990537e-41, -4.92430293348384e-41, 4.952469032616768e-41, 4.928506828876814e-41, -4.933551503348383e-41, 4.930328516880436e-41, 4.94069812551644e-41, -4.94125864490217e-41, 4.928506828876814e-41, 4.913512935308539e-41, 4.929487737801841e-41, -4.940838255362873e-41, 4.922901635019515e-41, -4.947144098452334e-41, -4.938175788280655e-41, 4.926545011026759e-41, -4.909449169761997e-41, -4.909168910069132e-41, 4.922901635019515e-41, 4.917016181469351e-41, -4.935092931659141e-41, 4.92093981716946e-41, 5.776432529639761e-41, -4.957233447395473e-41, 4.925143712562435e-41, 4.916315532237188e-41, 4.968724094802936e-41, -4.914914233772863e-41, 4.9254239722553e-41, -4.917716830701513e-41, 4.926545011026759e-41, 4.940978385209305e-41, -4.968023445570774e-41, 4.9418191642879e-41, 4.927105530412489e-41, -4.92206085594092e-41, 4.911831377151349e-41, -4.948545396916659e-41, -4.942519813520062e-41, 4.927525919951787e-41, -4.950927604306011e-41, 4.944201371677252e-41, -4.933971892887681e-41, 4.915895142697891e-41, -4.93957708674498e-41, -4.912111636844214e-41, -4.94013760613071e-41, -4.946863838759469e-41, -5.037387719554852e-41, -4.959055135399095e-41, -4.913512935308539e-41, -5.208206002356048e-41, 5.223199895924323e-41, 5.256690929221686e-41, 4.992686298542891e-41, 4.912952415922809e-41, 4.980635131749697e-41, -5.962384835855664e-41, 5.059668365137617e-41, -5.605614246838566e-41, -5.489306474299606e-41, 5.123707704957261e-41, -4.917016181469351e-41, -4.98133578098186e-41, 4.976571366203155e-41, -5.160842114261869e-41, 5.013285385968466e-41, 4.912812286076376e-41, -5.530364519304323e-41, -6.245867515188575e-41, -5.101707319067362e-41, -4.929067348262544e-41, 4.956953187702608e-41, -5.175275488444414e-41, 5.359265976810263e-41, -4.979934482517535e-41, 4.978393054206778e-41, -5.268601966168447e-41, 4.958634745859798e-41, -6.153101556850272e-41, -5.199237692184369e-41, -6.178324929208118e-41, 5.523217897136266e-41, 4.949666435688119e-41, 5.021693176754414e-41, 5.029120058615336e-41, 5.894281730489478e-41, -5.656621510939989e-41, 5.042852783565719e-41, 5.021833306600847e-41, 5.183683279230363e-41, -5.857287451031303e-41, 5.060509144216212e-41, 4.907487351911942e-41, 4.943220462752225e-41, -4.911410987612051e-41, -5.107032253231796e-41, 5.88307134277488e-41, 5.589779574191695e-41, 5.637984241364469e-41, 5.953977045069715e-41, 6.035252356000555e-41, 6.15015883007519e-41, -5.395559607036276e-41, 4.940417865823575e-41, 4.922901635019515e-41, -5.5945439889704e-41, -5.528823090993566e-41, 6.174961812893739e-41, 4.95709331754904e-41, -5.651997226007717e-41, 4.918417479933675e-41, 5.055744729437508e-41, -5.132956274821805e-41, -6.304581920843784e-41, -4.976571366203155e-41, -5.028419409383174e-41, -6.237599854249058e-41, 4.974749678199533e-41, 5.222499246692161e-41, 4.961297212942015e-41, 5.983964832206266e-41, -6.223726999452243e-41, -4.996469804396568e-41, -4.995769155164405e-41, -5.753591364671266e-41, -5.188167434316203e-41, 5.01580772320425e-41, -5.339087278923986e-41, -5.307558063476677e-41, 4.971526691731586e-41, 5.062751221759132e-41, -5.580531004327152e-41, -5.070178103620053e-41, -4.983437728678347e-41, -5.139262117911267e-41, -4.969985263420829e-41, -6.130120262035345e-41, 5.089936411967033e-41, 5.152154063783055e-41, -5.184383928462526e-41, -5.003756556411057e-41, 5.855325633181248e-41, -5.267901316936285e-41, 4.977832534821048e-41, -5.2105882097454e-41, -4.908328130990537e-41, 5.032903564469013e-41, 5.34553325185988e-41, 4.955131499698986e-41, -4.908468260836969e-41, 6.238160373634788e-41, 5.004036816103922e-41, -5.408171293215199e-41, 4.9802147422104e-41, -6.002742231628219e-41, -5.094560696899305e-41, 5.741680327724505e-41, 4.906506442986914e-41, -4.967603056031477e-41, 5.602811649909916e-41, 4.937475139048493e-41, 5.12987341820029e-41, -5.03444499277977e-41, -4.904965014676157e-41, 5.054903950358913e-41, -4.927385790105354e-41, 5.928333283172571e-41, -5.042992913412152e-41, 6.238300503481221e-41, 5.30489559639446e-41, 5.033043694315445e-41, 5.695577608248219e-41, -5.994754830381567e-41, -5.615423336088839e-41, 6.157865971628976e-41, 5.037387719554852e-41, 6.16823558026498e-41, 5.048037587883721e-41, 5.2817741717331e-41, 6.006105347942598e-41, 5.383088050703785e-41, 5.520415300207617e-41, -5.011743957657708e-41, -5.238894438724761e-41, 5.021833306600847e-41, 5.352960133720801e-41, -4.945042150755847e-41, 5.079847063023894e-41, 6.047303522793748e-41, -4.993246817928621e-41, 5.096662644595792e-41, 5.040190316483502e-41, -4.911410987612051e-41, -4.911410987612051e-41, 5.604212948374241e-41, 5.43647752219456e-41, -4.963959680024232e-41, -5.011743957657708e-41, 5.391635971336166e-41, 5.03948966725134e-41, 5.411534409529579e-41, -5.007680192111166e-41, -4.905245274369022e-41, 6.294072182361348e-41, -4.963118900945637e-41, -5.077044466095245e-41, -5.751909806514077e-41, -4.9582143563205e-41, 4.945042150755847e-41, 5.029400318308201e-41, 5.093439658127845e-41, -5.125249133268018e-41, -4.94294020305936e-41, 4.929767997494706e-41, 5.421483628626285e-41, 6.041418069243584e-41, -5.015387333664953e-41, 4.99548889547154e-41, 5.047196808805126e-41, -5.336144552148903e-41, 5.645270993378958e-41, 5.573804771698392e-41, -4.986240325606997e-41, -5.058827586059022e-41, -5.101707319067362e-41, 4.959755784631258e-41, 5.13491809267186e-41, -5.026317461686686e-41, -5.121886016953639e-41, 5.502618809710692e-41, 4.937194879355628e-41, -5.511446990035938e-41, 5.486924266910254e-41, -5.410273240911686e-41, 4.92206085594092e-41, -4.998431622246622e-41, -5.129032639121695e-41, -5.478656605970737e-41, 4.931309425805464e-41, -4.952609162463201e-41, -4.904965014676157e-41, 5.445305702519807e-41, 5.025616812454524e-41, 4.944481631370117e-41, -5.065413688841349e-41, -5.793528370904524e-41, -5.093579787974278e-41, -4.946303319373739e-41, 4.918277350087243e-41, -5.236231971642544e-41, 5.09315939843498e-41, 6.103075201673876e-41, -5.549141918726276e-41, 6.074208453308785e-41, 5.677080468519131e-41, -5.049859275887343e-41, -5.088955503042006e-41, -5.548020879954816e-41, -5.372998701760646e-41, 4.906926832526212e-41, -5.203301457730911e-41, -5.318067801959113e-41, -5.223760415310053e-41, -5.464503491481057e-41, -5.859109139034925e-41, 5.034725252472635e-41, 5.712393189820117e-41, -5.772929283478949e-41, 5.109274330774716e-41, -6.069303908683648e-41, 6.088501697644898e-41, -4.92430293348384e-41, -5.625652814878411e-41, -4.922901635019515e-41, 4.984138377910509e-41, 4.929207478108977e-41, 6.067902610219323e-41, 5.05868745621259e-41, -5.754292013903429e-41, 5.074802388552325e-41, 5.01692876197571e-41, 5.718418773216714e-41, 4.968583964956504e-41, 5.126510301885911e-41, 5.083630568877571e-41, 6.045762094482991e-41, 5.576186979087745e-41, 5.756113701907051e-41, -5.617525283785327e-41, 5.354221302338694e-41, 4.954991369852553e-41, -5.869198487978064e-41, -5.010622918886248e-41, 6.06776248037289e-41, 5.882230563696285e-41, 6.017175605810765e-41, 4.951207863998876e-41, 5.05868745621259e-41, 4.920659557476595e-41, 5.174014319826522e-41, -5.374820389764268e-41, 5.341469486313338e-41, -5.115019654478447e-41, -5.435216353576668e-41, -4.993947467160783e-41, 6.09200494380571e-41, -5.753591364671266e-41, 4.905945923601185e-41, -6.205369989569587e-41, -4.955692019084716e-41, -5.862332125502872e-41, -4.975870716970993e-41, 4.907207092219077e-41, 5.082229270413247e-41, -5.061490053141239e-41, -5.702163711030546e-41, 6.010449373182005e-41, 5.282755080658128e-41, -5.004036816103922e-41, 5.265238849854068e-41, -5.210868469438265e-41, 5.046215899880099e-41, 4.986520585299862e-41, 4.946303319373739e-41, 5.759897207760728e-41, -5.358985717117398e-41, 6.022080150435901e-41, -4.914213584540701e-41, 4.93845604797352e-41, 5.314844815491166e-41, 5.548861659033411e-41, -5.131134586818183e-41, -5.275047939104341e-41, -5.842293557463027e-41, 5.292844429601267e-41, 5.791286293361604e-41, 5.646812421689715e-41, -6.273473094935774e-41, -4.907767611604807e-41, 5.673577222358319e-41, -5.033604213701175e-41, 5.009922269654086e-41, -4.984698897296239e-41, 5.027718760151011e-41, -5.0570058980554e-41, -5.911237441907808e-41, 6.24222413918133e-41, -6.256377253671011e-41, -5.068916935002161e-41, 5.09708303413509e-41, 6.071545986226567e-41, 4.911270857765619e-41, 6.221765181602188e-41, 5.303914687469433e-41, -4.905385404215455e-41, -5.022954345372307e-41, -6.300798414990107e-41, 4.946863838759469e-41, -5.862612385195737e-41, 4.970265523113694e-41, -5.705526827344925e-41, -5.492529460767553e-41, -5.619767361328246e-41, 5.112777576935528e-41, 5.57422516123769e-41, 5.143045623764944e-41, -5.01748928136144e-41, 6.254415435820956e-41, 5.288080014822562e-41, -5.001234219175272e-41, 5.149911986240135e-41, 5.196575225102152e-41, -5.291723390829807e-41, -5.274347289872179e-41, -5.942626527508684e-41, 4.92486345286957e-41, -5.355342341110153e-41, -5.475013229963493e-41, 5.396120126422006e-41, 5.172052501976467e-41, 5.284997158201048e-41, -5.390935322104004e-41, -5.765502401618027e-41, -5.330399228445172e-41, -5.311061309637489e-41, -5.011603827811276e-41, -4.915614883005026e-41, -5.855185503334816e-41, 5.443484014516184e-41, 5.139822637296997e-41, -4.980074612363967e-41, 4.953590071388228e-41, 5.111936797856933e-41, 4.92374241409811e-41, -4.906786702679779e-41, -5.959021719541285e-41, 4.953590071388228e-41, -5.446707000984131e-41, -6.063698714826348e-41, 5.732291628013529e-41, -4.923462154405245e-41, 5.013425515814898e-41, -5.121325497567909e-41, 5.948792240751713e-41, -5.114319005246285e-41, -4.968864224649369e-41, -4.909869559301294e-41, 5.12987341820029e-41, 5.671615404508265e-41, 5.695997997787516e-41, 5.550963606729898e-41, -5.323392736123548e-41, -5.122726796032234e-41, -4.933131113809086e-41, -4.905805793754752e-41, -4.972367470810181e-41, 5.70748864519498e-41, -5.122866925878666e-41, 5.923989257933164e-41, 5.299290402537161e-41, -5.61486281670311e-41, 5.907594065900564e-41, -5.190409511859122e-41, 5.031922655543986e-41, -5.096662644595792e-41, -5.266359888625528e-41, -4.978393054206778e-41, -5.045935640187234e-41, -5.226563012238703e-41, -5.475573749349223e-41, -5.224040675002918e-41, 5.052661872815993e-41, -5.264398070775473e-41, 5.572683732926933e-41, -5.255569890450226e-41, -5.117401861867799e-41, -4.918557609780108e-41, 5.031782525697553e-41, 4.905525534061887e-41, -5.564836461526714e-41, -5.62677385364987e-41, 5.005998633953977e-41, 5.050700054965938e-41], [-1.6561517712787577e-09, -1.6561517712787577e-09, -6.768487423869374e-07, -6.085176096348732e-07, -8.920453637983883e-07, -8.985844033304602e-07, -7.414329843413725e-07, -1.058115799423831e-06, -9.260598972105072e-07, -9.624878885006183e-07, -7.130284416234645e-07, -3.093612122029299e-07, -2.956434946099762e-05, -3.739402018254623e-05, 4.993947467160783e-41, -1.3782593166330223e-24, -4.959475524938393e-41, -1.2346691846687463e-06, -9.51941325245953e-13, 4.933551503348383e-41, -1.3170404145057546e-06, -8.714022559086487e-11, -4.958494616013365e-41, -5.479905667016283e-07, -9.079343722163957e-13, 4.936914619662763e-41, -5.631728683397341e-08, -7.019103180627706e-13, -1.0256413494875971e-35, -5.620200340672454e-07, -2.674507837419071e-10, 1.6143246494827231e-18, -8.258934940386098e-07, 2.0096731223606668e-10, -1.604624975102588e-14, -5.370748112909496e-07, -2.6680937459389042e-09, -6.361289431680312e-16, -2.7015494197257794e-07, -2.3097976864505654e-08, -1.7645051544022683e-15, -7.951977636366792e-07, -4.175245926774096e-09, -7.004571144571432e-15, -1.6494124110977282e-06, -5.973789241053851e-10, -3.4422178649129442e-12, -1.1778702173614874e-06, -2.131318943554561e-08, -2.1863233879565458e-12, -1.5623105582562857e-06, -3.202126919177317e-08, -4.482346351725175e-12, -3.399743718546233e-06, -7.27760385288434e-09, -8.081647157043292e-11, -7.893915494605608e-07, -3.522642799680398e-08, -9.043765736294063e-11, -8.255370289589337e-07, -1.0107254588831438e-08, -1.120985082536663e-09, 1.7061347534763627e-06, -7.749689956426664e-08, -7.953412928252135e-10, -1.488360794610344e-07, -1.3110589947018525e-08, -1.0644204961884896e-10, 3.2712655411160085e-06, -1.4361468458901072e-08, -1.9797373809748997e-11, 1.767152525644633e-06, -9.67520463746041e-09, -1.177477837455143e-10, -5.473858095683681e-07, -3.832313666407572e-08, -7.935872098352448e-11, 1.8398516488105088e-07, -2.434045187627021e-09, -9.642333589562901e-13, 1.5403248880829778e-06, -1.6050468731876322e-09, -2.9263921066122536e-14, 1.778937189556018e-06, -1.077060884924208e-09, -2.0651362056241327e-15, -7.146982561323512e-09, -3.114614122168291e-09, -4.957057664555717e-18, 1.4247133321987349e-06, -1.9454087230030837e-09, -2.0679057774500664e-23, 1.8374140609012102e-06, -3.172277371343846e-11, -6.713088673371509e-35, 7.967329906932719e-07, -2.1516334991911884e-13, 5.11031622420891e-37, 9.984953521779971e-07, 9.45321165096713e-12, 5.9173458353977726e-24, 3.3053058814402902e-06, 1.8585188943376352e-11, 2.0786847623132613e-16, 1.990798864426324e-06, -1.6216006315517006e-08, -4.977087145197068e-11, 1.5207510273285152e-07, -1.845601929062468e-07, -3.700011408369619e-10, 1.2257699211204454e-07, -2.1286634819261963e-06, -1.0973458302032668e-06, -1.3778594620816875e-07, -1.369695468156351e-07, -1.0531371438451956e-31, 5.078025375020272e-41, -9.017600170269438e-14, -1.7925832801642116e-13, 5.034725252472635e-41, 6.120030913092206e-41, -5.826178625123292e-41, -6.28398283341821e-41, -6.220363883137863e-41, 5.118102511099962e-41, -5.998678466081677e-41, -5.049438886348046e-41, 5.320870398887763e-41, -5.012024217350573e-41, -6.066641441601431e-41, -5.838229791916485e-41, 5.003336166871759e-41, 4.906506442986914e-41, 5.365711949746157e-41, 5.157058608408192e-41, -5.764241233000135e-41, -5.358985717117398e-41, -4.94294020305936e-41, 5.758215649603538e-41, 5.305175856087325e-41, -5.123147185571531e-41, -5.311201439483922e-41, -4.906366313140482e-41, -5.043553432797882e-41, -5.544657763640436e-41, -5.159580945643976e-41, 4.94125864490217e-41, -5.145427831154296e-41, -5.03724758970842e-41, -5.249123917514332e-41, 5.673997611897617e-41, 5.025756942300956e-41, 5.694176309783894e-41, -4.982316689906887e-41, 5.877045759378283e-41, 5.348616108481394e-41, 4.930188387034004e-41, -4.909869559301294e-41, 4.908328130990537e-41, 