{"version": 3, "feature_size": 512, "hidden1_size": 256, "hidden2_size": 64, "state_dict": {"fc1.weight": [[4.950787474459579e-41, 4.950787474459579e-41, -2.2806805037309327e-31, -6.44267341807155e-31, -4.6129707342864127e-32, -7.5019085564110714e-31, -9.366603238482052e-31, -8.268007847299597e-31, 2.8639222737816035e-33, -9.838609124221402e-32, -3.7240227622327165e-31, 1.5406038145426516e-33, -6.892831791449616e-12, -4.6018284668991605e-12, 5.159580945643976e-41, -4.95709331754904e-41, 5.015667593357818e-41, 5.710957928365172e-34, -4.932150204884059e-41, 5.064853169455619e-41, 3.252569726180238e-33, -4.952889422156066e-41, 6.27949867833237e-41, -2.4482542764067547e-31, -4.958354486166933e-41, -5.116420952942772e-41, -3.6764028560159336e-29, -4.95653279816331e-41, -4.993667207467918e-41, -1.398865552620881e-33, 4.932010075037626e-41, -5.011183438271978e-41, -9.767940519739797e-31, -4.931589685498329e-41, 4.907627481758374e-41, -2.4591001396038257e-30, -4.953449941541796e-41, 4.946863838759469e-41, -1.3339176346609273e-32, 4.937054749509196e-41, -4.917997090394378e-41, 1.4378278638918627e-33, 4.928366699030382e-41, -4.928646958723247e-41, 1.6211931358411352e-33, 4.94294020305936e-41, 4.944481631370117e-41, -2.3869912724238197e-31, 4.950787474459579e-41, -4.932010075037626e-41, 7.976264571271822e-34, 4.955271629545418e-41, -4.957373577241905e-41, -1.6376284632152962e-28, -4.951347993845309e-41, -4.954851240006121e-41, 1.7873428338451345e-33, 4.93733500920206e-41, -4.939156697205683e-41, 3.637833017586576e-35, 4.928646958723247e-41, -4.944902020909414e-41, -4.916315532237188e-41, 4.915614883005026e-41, 4.920239167937298e-41, 4.904965014676157e-41, 4.926685140873192e-41, -4.945042150755847e-41, 4.877359434928958e-41, 4.905945923601185e-41, -4.937054749509196e-41, 5.24167741747491e-38, 4.934392282426978e-41, -4.948965786455956e-41, 1.5916007838450072e-28, 4.907627481758374e-41, -4.922341115633785e-41, -8.697460747310805e-36, 4.935373191352006e-41, 4.919118129165838e-41, 3.9495796482227357e-28, 4.94237968367363e-41, 4.958494616013365e-41, 2.162170954250311e-32, 4.95709331754904e-41, -4.929767997494706e-41, -2.82110158597504e-33, -4.92206085594092e-41, 4.956112408624013e-41, -1.407593873682225e-33, -4.906646572833347e-41, -4.920239167937298e-41, 8.640218494433798e-32, 4.938596177819953e-41, -5.02085239767582e-41, 1.299580592440004e-31, -4.920659557476595e-41, -5.048177717730153e-41, 1.3189160404079225e-30, -4.944902020909414e-41, -5.104089526456714e-41, 8.576059153244448e-28, -4.930608776573301e-41, 4.954430850466823e-41, 2.2617175635281004e-27, -4.94294020305936e-41, 4.939296827052115e-41, -1.0069554375913679e-34, -4.932570594423356e-41, 4.927245660258922e-41, -3.571661295213046e-34, -1.5975928222140883e-24, -2.243650329978886e-25, 1.0209674967050063e-35, 2.438418676860312e-35, -4.951908513231039e-41, -5.625792944724843e-41, -4.947424358145199e-41, -4.93733500920206e-41, -5.872561604292443e-41, 5.256971188914551e-41, 5.137860819446942e-41, 5.030381227233228e-41, -5.174574839212252e-41, -4.914633974079998e-41, -5.640646708446686e-41, 5.508644393107288e-41, 5.232308335942434e-41, -5.236091841796111e-41, 5.251085735364387e-41, 5.494911668156905e-41, -6.251612838892306e-41, 4.928506828876814e-41, -5.01580772320425e-41, 5.05252174296956e-41, 4.921079947015893e-41, 6.300798414990107e-41, -4.915474753158593e-41, 5.813286679251504e-41, 5.018330060440035e-41, -5.548861659033411e-41, -5.758495909296403e-41, -5.787362657661495e-42, -4.907066962372644e-41, -4.910850468226321e-41, 5.754151884056996e-41, -4.909309039915564e-41, 5.532186207307945e-41, -4.997450713321595e-41, -4.932290334730491e-41, 5.082229270413247e-41, 5.321150658580628e-41, -4.910570208533456e-41, -4.906786702679779e-41, 4.906926832526212e-41, 5.455815441002243e-41, 5.693055271012434e-41, 4.913933324847836e-41, -4.916595791930053e-41, -6.867763773655928e-42, 5.066254467919944e-41, -5.354641691877991e-41, -5.029820707847498e-41, -5.80067499307258e-41, -5.058267066673292e-41, 5.078305634713137e-41, -5.097503423674387e-41, -6.218962584673538e-41, 4.993386947775053e-41, -5.05308226235529e-41, 5.428069731408611e-41, -6.183930123065418e-41, -4.919818778398e-41, 4.965080718795692e-41, 5.040610706022799e-41, 5.488886084760308e-41, 5.263977681236175e-41, 4.929487737801841e-41, 5.012584736736303e-41, -5.423865836015637e-41, 5.094700826745737e-41, 5.646952551536148e-41, 6.179726227672443e-41, 5.90058757357894e-41, -5.433254535726613e-41, -6.10615805829539e-41, -6.254695695513821e-41, -6.116107277392097e-41, -5.445305702519807e-41, 5.645270993378958e-41, -4.904684754983292e-41, 6.268708680157069e-41, 4.904965014676157e-41, 6.287766339271887e-41, -5.161682893340464e-41, -6.301639194068702e-41, 5.194052887866367e-41, -5.105070435381741e-41, -5.83738901283789e-41, 5.235531322410382e-41, -5.105490824921039e-41, -5.129172768968128e-41, 4.912672156229944e-41, -4.9418191642879e-41, -5.409712721525956e-41, 5.698240075330436e-41, 4.908468260836969e-41, -5.030100967540363e-41, -5.9401041902729e-41, -5.278831444958018e-41, 5.76508201207873e-41, -5.147389649004351e-41, -4.953169681848931e-41, 5.001374349021705e-41, -5.082789789798976e-41, 4.960176174170555e-41, -4.981055521288995e-41, -5.091617970124223e-41, 5.126370172039478e-41, -6.185051161836878e-41, -5.158179647179652e-41, 5.124408354189424e-41, -5.288360274515427e-41, 4.91813722024081e-41, 5.535128934083027e-41, -5.390795192257571e-41, -4.981195651135427e-41, 5.597206456052617e-41, -4.90510514452259e-41, -4.971246432038721e-41, -4.905945923601185e-41, 5.546479451644058e-41, 6.061596767129861e-41, -5.023935254297334e-41, 4.97909370343894e-41, 5.047336938651559e-41, 5.239735217803356e-41, 6.230032842541704e-41, 6.16935661903644e-41, -5.573244252312662e-41, 4.947284228298767e-41, 5.047757328190856e-41, -5.376922337460756e-41, 4.910710338379889e-41, -5.332080786602361e-41, 5.707768904887845e-41, 5.11123614862477e-41, 5.30097196069435e-41, -5.091617970124223e-41, 4.963679420331367e-41, 4.908047871297672e-41, 5.118803160332124e-41, 5.669513456811777e-41, -5.104089526456714e-41, 5.295927286222781e-41, 5.74756578127467e-41, 5.30153248008008e-41, 5.219556519917079e-41, 5.109834850160445e-41, -5.963225614934259e-41, -4.946023059680874e-41, 5.085312127034761e-41, -5.404107527668657e-41, -5.131134586818183e-41, -6.131941950038967e-41, 4.926404881180327e-41, -4.998011232707325e-41, -5.712253059973684e-41, -5.358285067885236e-41, -5.568900227073256e-41, -4.994507986546513e-41, -4.974329288660236e-41, 5.186065486619715e-41, -4.909449169761997e-41, -4.98077526159613e-41, 5.819592522340965e-41, 5.248843657821467e-41, 4.973768769274506e-41, -5.141364065607754e-41, 5.134777962825427e-41, -5.032483174929716e-41, -4.964099809870664e-41, -5.610658921310135e-41, 5.51326867803956e-41, -6.18911492738342e-41, 4.947704617838064e-41, 5.057986806980427e-41, -5.166587437965601e-41, -5.866115631356549e-41, -5.029960837693931e-41, -5.292844429601267e-41, -5.088535113502708e-41, -5.044394211876476e-41, -5.347915459249232e-41, -4.954851240006121e-41, -5.091337710431358e-41, -5.002775647486029e-41, 2.3149450630645978e-42, 5.084751607649031e-41, 6.304161531304487e-41, 5.912498610525701e-41, 6.139789221439186e-41, -5.158740166565382e-41, -4.966201757567152e-41, -5.635041514589387e-41, 4.922481245480217e-41, 6.141610909442808e-41, -4.905385404215455e-41, -5.184944447848256e-41, -5.049859275887343e-41, -5.540033478708164e-41, -5.006979542879004e-41, -4.963959680024232e-41, 5.107873032310391e-41, -5.060509144216212e-41, 5.586276328030883e-41, -5.07676420640238e-41, -5.040190316483502e-41, -5.180460292762416e-41, 4.988482403149916e-41, 5.711972800280819e-41, 5.022533955833009e-41, -5.819032002955235e-41, -5.028839798922471e-41, -4.918557609780108e-41, -5.509204912493018e-41, 5.323813125662845e-41, 5.564976591373146e-41, -5.197135744487882e-41, -4.912532026383511e-41, 4.90566566390832e-41, 6.030768200914715e-41, -5.890498224635801e-41, -6.27949867833237e-41, -6.146375324221513e-41, -4.954430850466823e-41, -6.164592204257735e-41, -5.953416525683985e-41, -5.203861977116641e-41, -5.019451099211495e-41, -5.618225933017489e-41, -5.734813965249314e-41, -5.331800526909496e-41, 6.033710927689797e-41, 4.908748520529834e-41, 4.929347607955409e-41, -5.757094610832078e-41, -5.237913529799734e-41, 4.958074226474068e-41, 4.913653065154971e-41, -5.215492754370537e-41, -5.07508264824519e-41, -5.458057518545162e-41, -5.74140006803164e-41, -5.056865768208967e-41, 4.919678648551568e-41, 4.988622532996349e-41, -5.62845541180706e-41, -5.015387333664953e-41, -6.487871759977471e-41, 5.860230177806385e-41, -4.909729429454862e-41, -5.898765885575317e-41, 4.943780982137955e-41, -5.832484468212754e-41, -4.985679806221267e-41, -4.993527077621486e-41, -4.948265137223794e-41, 6.26254296691404e-41, -5.241556905806978e-41, 4.917296441162216e-41, 5.317647412419816e-41, 5.080827971948922e-41, 5.018189930593602e-41, -5.019871488750792e-41, -5.240015477496221e-41, 5.980881975584752e-41, -4.933691633194816e-41, 4.966902406799314e-41, 4.929908127341139e-41, -5.094420567052872e-41, 5.139682507450564e-41, -5.241136516267681e-41, -4.993947467160783e-41, -4.989603441921376e-41, -5.417559992926175e-41, -5.502058290324962e-41, -5.02141291706155e-41, -5.758215649603538e-41, -5.053923041433885e-41, -4.918277350087243e-41, -5.295647026529916e-41, 4.91925825901227e-41, 5.153695492093812e-41, 5.349877277099287e-41, -5.027858889997444e-41, 4.930889036266166e-41, -4.912812286076376e-41, 5.008380841343329e-41, -4.953590071388228e-41, 5.044254082030044e-41, -6.302479973147297e-41, 5.743782275420993e-41, -5.256270539682389e-41, 5.887275238167854e-41, 4.923041764865947e-41, -5.437318301273155e-41, 4.967603056031477e-41, 4.918837869472973e-41, 5.093299528281413e-41, 5.079706933177462e-41, -1.0291135922001457e-41, 5.681704753451403e-41, -5.785120580118575e-41, 5.724304226766878e-41, -4.90566566390832e-41, 5.067095246998539e-41, 4.983297598831914e-41, 4.910289948840591e-41, -4.916175402390756e-41, 6.180987396290336e-41, -5.489026214606741e-41, -6.016474956578602e-41, -4.992125779157161e-41, 4.910850468226321e-41, 5.058827586059022e-41, 5.052661872815993e-41, 5.073260960241568e-41, -5.507523354335829e-41, -4.913933324847836e-41, 5.664889171879505e-41, -4.993947467160783e-41, 5.276449237568666e-41, -5.184944447848256e-41, 3.0214797487771706e-41, 5.649194629079068e-41, -5.957480291230527e-41, 4.954430850466823e-41, -5.163504581344086e-41, 5.059388105444752e-41, -5.112637447089095e-41, 4.970405652960126e-41, 6.22694998592019e-41, -5.830242390669834e-41, -6.194299731701421e-41, -5.080827971948922e-41, -4.987921883764186e-41, 5.259493526150336e-41, 5.809363043551394e-41, 6.114705978927772e-41, 5.264398070775473e-41, -5.720520720913201e-41, 4.988342273303484e-41, 4.917856960547946e-41, -6.192197784004934e-41, -4.904684754983292e-41, 5.967990029712963e-41, -5.102267838453091e-41, -5.555167502122872e-41, 5.846077063316704e-41, -5.91642224622581e-41, 4.914914233772863e-41, 5.323392736123548e-41, -5.781617333957763e-41, -5.174574839212252e-41, -4.970265523113694e-41, -5.014546554586358e-41, -5.058407196519725e-41, 5.913339389604296e-41, -4.996189544703703e-41, -6.098170657048739e-41, 4.929487737801841e-41, 6.82096040494748e-41, -2.2160133914832657e-41, -5.298870012997863e-41, 5.091197580584925e-41, 5.275888718182936e-41, -5.310640920098192e-41, 4.90622618329405e-41, 4.915474753158593e-41, -4.922200985787352e-41, -5.217454572220591e-41, -5.719820071681038e-41, -5.185224707541121e-41, -5.840611999305838e-41, -4.929347607955409e-41, 4.964940588949259e-41, 5.096102125210062e-41, 4.912532026383511e-41, -5.220257169149241e-41, 5.155377050251002e-41, -4.947984877530929e-41, 5.28345572989029e-41, 5.145708090847161e-41, -4.953169681848931e-41, 5.953836915223283e-41, 5.071859661777243e-41, 5.060789403909077e-41, -5.259773785843201e-41, -4.938035658434223e-41, -6.259319980446093e-41, -5.731030459395637e-41, 4.917997090394378e-41, 6.264644914610527e-41, 4.991565259771431e-41, 6.184770902144013e-41, 5.353240393413666e-41, 4.921360206708758e-41, -5.0186103201329e-41, 5.55502737227644e-41, -5.05868745621259e-41, 5.717297734445254e-41], [4.936914619662763e-41, 4.936914619662763e-41, -4.931169295959031e-41, -4.913653065154971e-41, -4.909729429454862e-41, -4.951488123691741e-41, -4.919958908244433e-41, -4.920659557476595e-41, -4.952469032616768e-41, -4.937194879355628e-41, -4.94069812551644e-41, -4.914353714387133e-41, -2.7073990371413794e-17, -5.512703171584535e-17, -5.060088754676914e-41, 4.926264751333894e-41, 4.909729429454862e-41, -4.917997090394378e-41, 4.936634359969898e-41, -5.075923427323785e-41, -4.934672542119843e-41, -4.943780982137955e-41, -4.986800844992727e-41, -4.925564102101732e-41, -4.92318189471238e-41, 4.937475139048493e-41, -4.915614883005026e-41, -4.917156311315783e-41, 5.036827200169122e-41, -4.914073454694269e-41, -4.93733500920206e-41, -4.910710338379889e-41, -4.912952415922809e-41, -4.927105530412489e-41, -4.907907741451239e-41, -4.942659943366495e-41, -4.937615268894925e-41, -4.928787088569679e-41, -4.925844361794597e-41, 4.917436571008648e-41, -4.912532026383511e-41, -4.911551117458484e-41, 4.955972278777581e-41, 5.20778561281675e-41, -4.92206085594092e-41, 4.930048257187571e-41, 4.908188001144104e-41, -4.907627481758374e-41, 4.954570980313256e-41, -4.933691633194816e-41, -4.908468260836969e-41, 4.94013760613071e-41, -4.917856960547946e-41, -4.913793195001404e-41, 4.950927604306011e-41, -4.926965400566057e-41, -4.924443063330272e-41, 4.944902020909414e-41, 6.038895732007799e-41, -4.90566566390832e-41, 4.92318189471238e-41, 4.90622618329405e-41, -4.91869773962654e-41, 4.950226955073849e-41, 4.924583193176705e-41, -4.908888650376267e-41, 4.930608776573301e-41, 5.404808176900819e-41, 4.950226955073849e-41, -5.85714732118487e-41, -4.927385790105354e-41, 4.920099038090865e-41, 4.911831377151349e-41, -4.93957708674498e-41, 4.925564102101732e-41, 4.910710338379889e-41, -4.949386175995254e-41, 4.909168910069132e-41, 4.943360592598657e-41, 4.943921111984387e-41, 4.949105916302389e-41, 4.922761505173082e-41, -4.961717602481312e-41, 4.928226569183949e-41, 4.946443449220172e-41, -4.910570208533456e-41, 4.937615268894925e-41, -4.909589299608429e-41, -4.947704617838064e-41, 4.947844747684497e-41, -4.945042150755847e-41, 4.970685912652991e-41, 4.948405267070227e-41, -4.930608776573301e-41, -4.989463312074944e-41, 4.947144098452334e-41, -5.529523740225728e-41, -5.01692876197571e-41, 4.811778666798557e-41, -4.906786702679779e-41, -4.931869945191194e-41, 4.947564487991632e-41, -4.9582143563205e-41, 5.492669590613985e-41, 4.926124621487462e-41, -4.937755398741358e-41, -4.928086439337517e-41, 4.925984491641029e-41, 4.948965786455956e-41, -4.912952415922809e-41, -4.933551503348383e-41, -4.945742799988009e-41, -4.934112022734113e-41, -4.951488123691741e-41, -4.912391896537079e-41, -4.970826042499424e-41, 5.427789471715746e-41, 4.956392668316878e-41, -5.781757463804195e-41, 5.157759257640354e-41, 5.022113566293712e-41, 4.907066962372644e-41, -5.41671921384758e-41, 5.017629411207872e-41, -5.597486715745482e-41, 5.665309561418803e-41, -4.918277350087243e-41, 5.365571819899725e-41, -4.906506442986914e-41, -4.974889808045966e-41, -4.963118900945637e-41, 4.912952415922809e-41, 5.911938091139971e-41, -6.027264954753903e-41, 6.056972482197589e-41, -6.225688817302297e-41, -5.53582958331519e-41, -4.969004354495801e-41, 5.284296508968885e-41, -5.071299142391513e-41, 4.935653451044871e-41, -4.912532026383511e-41, 4.934812671966276e-41, -4.924723323023137e-41, -5.088955503042006e-41, 4.973208249888776e-41, -5.166167048426303e-41, -5.737616562177963e-41, 5.203721847270208e-41, 5.083910828570436e-41, 4.924723323023137e-41, -4.99773097301446e-41, -5.104650045842444e-41, 4.981055521288995e-41, 6.182108435061795e-41, 5.111516408317635e-41, -4.987361364378456e-41, -4.968864224649369e-41, -5.4025660993579e-41, 5.02085239767582e-41, 4.979514092978237e-41, -4.960736693556285e-41, -5.450910896377106e-41, -5.466465309331111e-41, -5.082509530106112e-41, -4.993667207467918e-41, -5.042852783565719e-41, -5.536249972854487e-41, 5.457496999159433e-41, -5.041731744794259e-41, -5.381826882085892e-41, 6.064679623751376e-41, -4.970265523113694e-41, -6.288326858657617e-41, -4.931309425805464e-41, 4.926545011026759e-41, 5.522517247904104e-41, 5.041871874640692e-41, 5.034585122626203e-41, -4.969424744035099e-41, -5.079847063023894e-41, 5.052101353430263e-41, -5.075783297477352e-41, 5.849019790091786e-41, 4.916035272544323e-41, -4.982036430214022e-41, -4.918557609780108e-41, 4.97741214528175e-41, 5.505141146946476e-41, 5.659424107868639e-41, 5.197416004180747e-41, 5.90002705419321e-41, -5.011323568118411e-41, 5.857007191338438e-41, 4.983437728678347e-41, 4.936354100277033e-41, -6.006105347942598e-41, 4.915755012851458e-41, 5.062751221759132e-41, -4.927946309491084e-41, 4.930188387034004e-41, -5.065834078380646e-41, -5.547880750108383e-41, -5.027999019843876e-41, 4.984839027142672e-41, 5.583193471409369e-41, -4.998431622246622e-41, 6.220644142830728e-41, -4.970545782806559e-41, -5.680723844526376e-41, 5.533307246079405e-41, 5.53526906392946e-41, 6.265485693689122e-41, -4.949666435688119e-41, -4.905245274369022e-41, 6.021239371357306e-41, -4.948685526763091e-41, 4.988762662842781e-41, 5.829401611591239e-41, 4.911691247304916e-41, -4.94294020305936e-41, 4.937054749509196e-41, -5.332220916448794e-41, 4.911130727919186e-41, -5.202460678652316e-41, -5.646111772457553e-41, -4.962978771099205e-41, 5.256130409835956e-41, 5.407190384290172e-41, 5.453293103766458e-41, -5.276449237568666e-41, 4.984278507756942e-41, -5.917683414843702e-41, 5.063311741144862e-41, -5.899886924346777e-41, -5.031922655543986e-41, 5.05868745621259e-41, -5.021553046907982e-41, -6.021799890743036e-41, -5.103529007070984e-41, 5.003476296718192e-41, 5.070318233466486e-41, -5.548161009801248e-41, -5.289201053594022e-41, 6.213077131123374e-41, -5.100726410142334e-41, 5.003055907178894e-41, -4.909729429454862e-41, -5.181721461380309e-41, 5.169109775201385e-41, 5.419802070469095e-41, -5.206384314352425e-41, 4.929067348262544e-41, -5.07452212885946e-41, -4.977272015435318e-41, 6.257218032749606e-41, 4.907627481758374e-41, -5.249123917514332e-41, 7.368027325419888e-42, 5.747846040967535e-41, -5.298309493612133e-41, -5.278971574804451e-41, 6.102374552441713e-41, -4.94350072244509e-41, 5.093579787974278e-41, -5.061910442680537e-41, 5.106191474153201e-41, 5.798853305068958e-41, -6.113444810309879e-41, -5.016508372436413e-41, 6.119750653399341e-41, 5.501077381399934e-41, 4.977832534821048e-41, 7.119997497234396e-42, 4.926825270719624e-41, 5.090076541813466e-41, -5.342030005699068e-41, -5.003196037025327e-41, 4.933831763041248e-41, 5.028979928768904e-41, -6.299537246372215e-41, -5.028419409383174e-41, 4.995629025317973e-41, -5.060088754676914e-41, -6.284263093111075e-41, -4.92318189471238e-41, 5.080687842102489e-41, 4.908328130990537e-41, -5.712253059973684e-41, 5.877606278764013e-41, 5.097783683367252e-41, -5.166167048426303e-41, -5.164625620115546e-41, 5.006979542879004e-41, -5.011043308425546e-41, 5.124268224342991e-41, -6.196261549551476e-41, -5.084891737495464e-41, 4.908748520529834e-41, -4.942800073212927e-41, 5.436197262501695e-41, 5.092178489509953e-41, 5.11347822616769e-41, 4.941538904595035e-41, 5.565957500298173e-41, -5.230486647938812e-41, 5.255990279989524e-41, -5.018750449979332e-41, 6.301078674682972e-41, 5.515650885428912e-41, 4.911410987612051e-41, 4.905945923601185e-41, -5.928893802558301e-42, 5.93786211272998e-41, 4.967883315724341e-41, 5.560772695980172e-41, 4.909028780222699e-41, -5.01468668443279e-41, 5.47431258073133e-41, 4.968163575417206e-41, -5.163784841036951e-41, -6.168095450418547e-41, -5.020572137982955e-41, 4.949246046148821e-41, 6.201726613562343e-41, -5.457777258852298e-41, 5.557549709512225e-41, 4.959195265245528e-41, -5.278971574804451e-41, 5.13099445697175e-41, 4.91925825901227e-41, 4.966622147106449e-41, 5.563575292908821e-41, 5.628175152114195e-41, -5.003055907178894e-41, -5.404808176900819e-41, -4.911831377151349e-41, 4.984698897296239e-41, -5.184944447848256e-41, -6.137827403589131e-41, 4.996329674550135e-41, 5.930575360715491e-41, 5.354081172492261e-41, 6.265205433996257e-41, 5.30265351885154e-41, -5.873122123678173e-41, 4.909309039915564e-41, 5.218855870684916e-41, 5.894421860335911e-41, -4.97741214528175e-41, -5.042712653719287e-41, 5.000953959482407e-41, 4.973488509581641e-41, -5.212970417134752e-41, -5.842293557463027e-41, -4.967883315724341e-41, 5.037667979247717e-41, -5.524198806061294e-41, 5.784980450272142e-41, -4.978953573592508e-41, 5.374680259917836e-41, 5.07732472578811e-41, -6.30374114176519e-41, -4.9418191642879e-41, -5.360947534967453e-41, -5.13547861205759e-41, 5.249264047360765e-41, -4.910149818994159e-41, 5.618225933017489e-41, 4.923041764865947e-41, -5.058547326366157e-41, -4.954010460927526e-41, 5.694596699323192e-41, -5.32745650167009e-41, -6.170898047347197e-41, 4.928086439337517e-41, 5.198256783259341e-41, -5.032062785390418e-41, 6.147075973453675e-41, -6.233255829009651e-41, -5.453433233612891e-41, -4.943780982137955e-41, 6.020678851971577e-41, -5.487344656449551e-41, -5.730610069856339e-41, -5.132255625589643e-41, 5.118663030485692e-41, -5.72500487599904e-41, 5.023094475218739e-41, 5.183262889691066e-41, -5.1721926318229e-41, 4.927105530412489e-41, -4.931589685498329e-41, 5.581932302791476e-41, 6.251332579199441e-41, -5.405088436593684e-41, 6.237880113941923e-41, 6.295333350979241e-41, -6.275575042632261e-41, 5.012584736736303e-41, -5.853784204870491e-41, 4.99829149240019e-41, 5.021833306600847e-41, 5.060228884523347e-41, -5.928613542865436e-41, -6.197802977862233e-41, 4.905245274369022e-41, -4.914353714387133e-41, 4.942800073212927e-41, -5.38504986855384e-41, -5.350017406945719e-41, -5.101847448913794e-41, 5.21283028728832e-41, 5.197556134027179e-41, 5.315685594569761e-41, -5.257671838146714e-41, 5.050419795273073e-41, -5.059948624830482e-41, -5.01412616504706e-41, -5.270844043711367e-41, -4.906506442986914e-41, -4.921920726094487e-41, 5.283035340350993e-41, -5.10955459046758e-41, 5.512988418346695e-41, -4.965921497874287e-41, 5.005438114568247e-41, 5.078866154098867e-41, 5.071299142391513e-41, 4.96045643386342e-41, 5.329278189673712e-41, 5.084611477802599e-41, 5.656341251247124e-41, -6.278798029100208e-41, 4.965921497874287e-41, -5.740559288953046e-41, -6.176503241204496e-41, -4.908888650376267e-41, -6.717404448433876e-41, -4.913933324847836e-41, 1.087407608316058e-42, -5.521396209132644e-41, -5.268321706475582e-41, -4.936914619662763e-41, -4.906926832526212e-41, -5.051400704198101e-41, 5.143325883457809e-41, 5.311481699176787e-41, -5.591461132348885e-41, 4.97685162589602e-41, 4.91869773962654e-41, 6.059494819433374e-41, 4.927105530412489e-41, 6.173700644275847e-41, -4.906926832526212e-41, -4.997030323782298e-41, -5.017629411207872e-41, 5.797311876758201e-41, 5.474452710577763e-41, 5.03556603155123e-41, -5.817770834337343e-41, -5.141924584993484e-41, -5.202460678652316e-41, -4.956392668316878e-41, -5.07171953193081e-41, 5.11628082309634e-41, -5.017068891822143e-41, 5.585996068338018e-41, 5.414617266151093e-41, 5.065974208227079e-41, -4.907487351911942e-41, -4.979373963131805e-41, 4.948965786455956e-41, 5.080687842102489e-41, -4.990444220999971e-41, -5.146829129618621e-41, 5.404387787361522e-41, -5.87914770707477e-41, 5.077604985480975e-41, -5.289481313286887e-41, -6.266886992153447e-41, -5.035986421090528e-41, -4.963539290484935e-41, -5.538772310090272e-41, 4.908608390683402e-41, 5.091898229817088e-41, -5.810203822629989e-41, -5.274487419718611e-41, 5.508924652800153e-41, -5.408731812600929e-41, 5.619487101635381e-41, -5.086993685191951e-41, 5.392476750414761e-41, 5.972053795259505e-41, 5.567218668916066e-41, -5.480618423820792e-41, -4.916175402390756e-41, 4.995068505932243e-41, -5.122446536339369e-41, 5.167007827504898e-41, 4.933271243655518e-41, -4.90510514452259e-41, -7.052735170946804e-41, 5.617525283785327e-41, -4.965921497874287e-41, -6.187853758765527e-41, 5.019591229057927e-41, -5.099184981831577e-41, -5.11459926493915e-41, 4.942800073212927e-41, 5.013986035200628e-41, 5.216753922988429e-41], [0.02195039950311184, 0.0377192422747612, -0.030408475548028946, 0.07944896817207336, 0.05538725480437279, 0.009070551954209805, 0.04875820130109787, -0.0338602252304554, 0.17490121722221375, -0.18609832227230072, 0.14431928098201752, -0.041765667498111725, -0.1052420362830162, 0.059171609580516815, -0.16355293989181519, -0.012913110665977001, -0.010991408489644527, -0.01286885142326355, -0.0027621318586170673, -0.008790059015154839, 0.01406320370733738, -0.0063032968901097775, -0.0007162560941651464, 0.006591332610696554, -0.005482659675180912, -0.008489662781357765, 0.04096391052007675, -0.03586144745349884, -0.014771566726267338, 0.035078562796115875, -0.02447287179529667, -0.007320740260183811, 0.035099923610687256, 0.009021562524139881, 0.0035074984189122915, 0.005344194360077381, 0.02103976532816887, 0.011060679331421852, 0.0029448443092405796, 0.012363703921437263, 0.007308974862098694, 0.01651260070502758, 0.02543272078037262, 0.02299477905035019, 0.04277227818965912, -0.013220500200986862, 0.009366693906486034, 0.044529229402542114, 0.003110280027613044, 0.015662476420402527, 0.03519149869680405, 0.008973637595772743, 0.028288690373301506, 0.028451547026634216, -0.0229976624250412, -0.0023637674748897552, 0.01511272881180048, -0.03160582110285759, 0.020129570737481117, 0.030611373484134674, 0.01124540250748396, 0.019692303612828255, 0.02768898196518421, -0.001041425159201026, -0.0017172315856441855, 0.015166864730417728, 0.010925537906587124, -0.01819639466702938, -0.013637477532029152, -0.004667115863412619, -0.02834179811179638, 0.01118148397654295, 0.002140815369784832, 0.002419145544990897, 0.030699336901307106, -0.011616027913987637, 0.011684984900057316, -0.015595413744449615, -0.004911784548312426, 0.004690645262598991, 0.021627219393849373, -0.01764179766178131, -0.00782481487840414, 0.07038646191358566, -0.01018788106739521, 0.0031821795273572206, 0.04018687456846237, -0.0003372995415702462, -0.010697455145418644, -0.007297866512089968, -0.016164107248187065, -0.004013329278677702, 0.0036313284654170275, 0.009854694828391075, -0.0008248779340647161, 0.01791951432824135, 0.017137501388788223, -0.00302436132915318, 0.04352787509560585, 0.007690208964049816, -0.0037416298873722553, 0.024582786485552788, 0.009343004785478115, 0.02076331339776516, 0.019378021359443665, 0.021177498623728752, 0.03392389789223671, 0.03807291388511658, -0.017878519371151924, -0.000505750416778028, 0.027638064697384834, -0.03016180917620659, -0.012469161301851273, -0.027647992596030235, -0.02682475931942463, 0.004309674259275198, 5.11067562923904e-41, -0.006488374900072813, -0.007401355542242527, -6.289027507889779e-41, -4.949105916302389e-41, 1.5292370141176729e-41, 4.987781753917754e-41, 5.040750835869232e-41, 6.246848424113602e-41, -5.353520653106531e-41, -5.674277871590482e-41, -5.470108685338356e-41, -6.612727453148812e-42, -5.592442041273912e-41, 4.998151362553758e-41, 7.369428623884213e-42, -4.910710338379889e-41, -5.950613928755336e-41, -5.215492754370537e-41, 5.671755534354697e-41, -5.000393440096677e-41, 5.99545547961373e-41, 4.910570208533456e-41, -4.907347222065509e-41, 4.998571752093055e-41, -5.93898315150144e-41, -6.073647933923055e-41, 5.018330060440035e-41, -5.09652251474936e-41, 4.907066962372644e-41, -5.366132339285454e-41, -5.098344202752982e-41, 5.01692876197571e-41, 5.270984173557799e-41, -4.986520585299862e-41, -5.078726024252435e-41, 4.92318189471238e-41, -5.067795896230701e-41, -4.998711881939487e-41, -5.268882225861312e-41, -5.025476682608091e-41, 5.006559153339706e-41, 4.983717988371212e-41, 5.178358345065929e-41, -6.101253513670254e-41, -5.012584736736303e-41, -5.64821372015404e-41, 5.073681349780865e-41, -5.066114338073511e-41, -4.941959294134332e-41, 5.099465241524442e-41, 5.264958590161203e-41, 4.927806179644652e-41, 5.818051094030208e-41, 4.967042536645747e-41, -5.794929669368849e-41, -5.964626913398584e-41, -5.695577608248219e-41, 5.025897072147389e-41, 5.487204526603119e-41, 5.620187750867544e-41, -5.126089912346613e-41, 5.197836393720044e-41, 5.822254989423182e-41, -5.009782139807654e-41, -4.936634359969898e-41, -5.558390488590819e-41, -6.223446739759378e-41, 5.040190316483502e-41, 5.720240461220336e-41, -5.478656605970737e-41, 4.90510514452259e-41, -5.056165118976805e-41, -4.987641624071321e-41, 5.114459135092717e-41, 5.046496159572964e-41, -5.144727181922133e-41, -5.03556603155123e-41, -4.97629110651029e-41, -4.952048643077471e-41, -6.056411962811859e-41, -5.032623304776148e-41, 5.123147185571531e-41, 4.995909285010838e-41, 4.971246432038721e-41, -5.454974661923648e-41, -4.993386947775053e-41, -5.571002174769743e-41, -5.086433165806221e-41, -6.046182484022288e-41, 4.908328130990537e-41, -5.993633791610108e-41, 5.313723776719706e-41, -6.221625051755755e-41, -5.130293807739588e-41, 5.395979996575573e-41, -4.964660329256394e-41, -5.0954014759779e-41, 4.995208635778675e-41, -5.019451099211495e-41, -4.907907741451239e-41, 6.1868728498405e-41, -5.108013162156823e-41, -5.065834078380646e-41, -6.130120262035345e-41, 5.395839866729141e-41, -5.120064328950017e-41, -5.870179396903091e-41, -4.934952801812708e-41, 5.231747816556705e-41, 4.99829149240019e-41, 6.005264568864004e-41, -4.951067734152444e-41, 5.119223549871422e-41, -5.255569890450226e-41, 6.125636106949505e-41, -4.911270857765619e-41, 5.775171361021869e-41, 4.925844361794597e-41, -4.925143712562435e-41, 4.9638195501778e-41, -4.921360206708758e-41, 5.683946830994323e-41, 5.143886402843539e-41, 4.910149818994159e-41, 5.173173540747927e-41, -5.646952551536148e-41, -4.997030323782298e-41, 6.181127526136768e-41, 4.964660329256394e-41, 4.999132271478785e-41, -4.907627481758374e-41, -4.937615268894925e-41, 5.095541605824332e-41, -4.919118129165838e-41, 5.329838709059442e-41, -5.3421701355455e-41, 5.291723390829807e-41, -5.000673699789542e-41, -5.819732652187398e-41, 5.809643303244259e-41, -6.279218418639505e-41, -5.696698647019679e-41, -4.947144098452334e-41, 5.191110161091285e-41, 5.496593226314095e-41, 7.354434730315937e-41, -6.079953777012516e-41, 6.115266498313502e-41, -5.118382770792827e-41, -5.351979224795774e-41, 5.223480155617188e-41, 6.023201189207361e-41, -4.923882543944542e-41, 4.914213584540701e-41, -5.431572977569423e-41, -4.905945923601185e-41, -5.924830037011759e-41, -5.060369014369779e-41, 5.909836143443484e-41, -5.835707454680701e-41, 4.930468646726869e-41, 5.109274330774716e-41, -5.479497385049332e-41, -5.099044851985144e-41, 1.0754965713692971e-41, 5.759196558528566e-41, -5.758355779449971e-41, -5.346934550324204e-41, -5.160701984415436e-41, -5.039209407558475e-41, 5.775731880407599e-41, 6.232555179777489e-41, 5.080267452563192e-41, -5.95257574660539e-41, -5.550403087344168e-41, 5.026597721379551e-41, -5.004737465336084e-41, 5.514810106350318e-41, -5.07396160947373e-41, 4.98301733913905e-41, 4.946723708913037e-41, -4.972367470810181e-41, 5.744482924653155e-41, 5.544517633794004e-41, -5.230626777785245e-41, 5.047617198344424e-41, 5.312882997641111e-41, 5.173593930287225e-41, 4.929347607955409e-41, 5.837809402377188e-41, 4.977832534821048e-41, -4.911971506997781e-41, 6.183369603679688e-41, 5.353100263567234e-41, 5.260334305228931e-41, 5.26762105724342e-41, -4.948125007377362e-41, -5.021132657368685e-41, 4.910990598072754e-41, 5.102968487685254e-41, -5.03836862847988e-41, -5.181441201687444e-41, -4.979233833285372e-41, -6.049545600336668e-41, 4.979373963131805e-41, -4.947704617838064e-41, -4.989883701614241e-41, -5.107452642771093e-41, -4.908328130990537e-41, -5.350437796485017e-41, -5.730329810163474e-41, -4.940838255362873e-41, -5.409432461833091e-41, 5.396680645807736e-41, 5.02085239767582e-41, -5.70524656765206e-41, -5.631538268428575e-41, -4.991705389617863e-41, -5.805859797390582e-41, -5.364871170667562e-41, -5.108713811388986e-41, 5.447407650216294e-41, -5.025336552761659e-41, -5.306296894858785e-41, 5.119643939410719e-41, -5.847057972241732e-41, 5.024215513990199e-41, -5.18634574631258e-41, -7.35289330200518e-41, 4.945742799988009e-41, 4.93845604797352e-41, 5.256550799375254e-41, -5.126790561578776e-41, -5.184103668769661e-41, -5.147109389311486e-41, 4.961157083095582e-41, 3.332287748164415e-42, -4.966482017260017e-41, 4.913512935308539e-41, -5.016087982897115e-41, -4.938876437512818e-41, 5.05196122358383e-41, -5.811605121094314e-41, -5.154256011479542e-41, 4.919538518705135e-41, -5.409432461833091e-41, -5.056585508516102e-41, 5.712112930127252e-41, -5.149771856393703e-41, 4.905245274369022e-41, 6.269829718928529e-41, 5.07115901254508e-41, -4.956252538470445e-41, 5.051120444505236e-41, 5.221518337767133e-41, 4.986520585299862e-41, -5.048598107269451e-41, 5.034725252472635e-41, 5.031362136158256e-41, 5.509625302032316e-41, -4.960736693556285e-41, 5.073260960241568e-41, -5.00165460871457e-41, -4.975170067738831e-41, -5.005578244414679e-41, 6.292110364511294e-41, -4.982176560060455e-41, 6.30149906422227e-41, 5.061770312834104e-41, 5.558810878130117e-41, 4.909309039915564e-41, 5.278971574804451e-41, -5.895262639414505e-41, 5.682125142990701e-41, -5.075783297477352e-41, -5.172613021362197e-41, -5.585295419105856e-41, 4.939857346437845e-41, 5.600289312674131e-41, 4.912672156229944e-41, -5.021693176754414e-41, 5.098204072906549e-41, 4.90566566390832e-41, -5.954397434609013e-41, -5.420362589854825e-41, 4.955692019084716e-41, 6.114565849081339e-41, -5.097223163981522e-41, -6.518840456039049e-42, -4.990023831460674e-41, -5.131414846511048e-41, 5.55502737227644e-41, -5.043833692490747e-41, -4.919118129165838e-41, 5.89778497665029e-41, -5.122866925878666e-41, -4.917296441162216e-41, 5.058267066673292e-41, 4.905245274369022e-41, 4.946303319373739e-41, -4.971666821578018e-41, -5.26762105724342e-41, 5.34385169370269e-41, -5.165606529040573e-41, -4.911551117458484e-41, 4.916595791930053e-41, 5.058267066673292e-41, 4.92318189471238e-41, 5.02029187829009e-41, -5.270984173557799e-41, -4.931029166112599e-41, 5.113898615706987e-41, -4.952609162463201e-41, -5.794369149983119e-41, 5.697819685791139e-41, -6.206350898494615e-41, -5.012444606889871e-41, 4.988202143457051e-41, 4.946723708913037e-41, -4.94013760613071e-41, 5.137160170214779e-41, 4.961297212942015e-41, 4.939296827052115e-41, 5.937581853037115e-41, 5.055184210051778e-41, 5.058547326366157e-41, 5.125249133268018e-41, -4.981475910828292e-41, 4.993527077621486e-41, 4.910430078687024e-41, 4.969985263420829e-41, 4.992966558235756e-41, 4.906926832526212e-41, 4.946583579066604e-41, 5.22754392116373e-41, 4.907627481758374e-41, -5.13491809267186e-41, 5.165886788733438e-41, 1.0131387897068427e-42, 5.958461200155555e-41, 5.357724548499506e-41, 2.3139641541395704e-41, -5.467165958563274e-41, -5.207645482970318e-41, 5.200498860802261e-41, -5.991952233452918e-41, 1.53302051997135e-41, 5.245340411660655e-41, 4.938596177819953e-41, -4.98133578098186e-41, -5.041591614947827e-41, -5.593843339738237e-41, 5.057426287594697e-41, -5.006699283186139e-41, 5.182982629998201e-41, -6.000640283931732e-41, 4.906086053447617e-41, -4.992125779157161e-41, -4.970826042499424e-41, -5.803337460154797e-41, 5.113898615706987e-41, -5.508784522953721e-41, 4.912672156229944e-41, 4.96325903079207e-41, -5.151593544397325e-41, 4.981055521288995e-41, 5.277990665879423e-41, 5.004176945950354e-41, -4.942800073212927e-41, -5.186485876159013e-41, 5.402846359050765e-41, -5.173734060133657e-41, 4.950507214766714e-41, 5.191250290937717e-41, 4.956112408624013e-41, 5.060088754676914e-41, -4.916595791930053e-41, 5.053782911587453e-41, 5.599588663441969e-41, 4.946303319373739e-41, -4.917716830701513e-41, -5.495051798003338e-41, -5.384349219321677e-41, 4.94406124183082e-41, -4.931869945191194e-41, -5.084191088263301e-41, -4.908888650376267e-41, -4.988342273303484e-41, -5.019451099211495e-41, 4.961157083095582e-41, -6.253294397049496e-41, -4.934532412273411e-41, -4.908328130990537e-41, 5.035145642011933e-41, 4.914633974079998e-41], [-0.005486425012350082, 0.010311586782336235, -0.05023062974214554, 0.05207452550530434, -0.07265404611825943, 0.058474376797676086, 0.07180462032556534, 0.13275393843650818, -0.0997009351849556, 0.16448427736759186, -0.04708479717373848, 0.10274741798639297, 0.08436387777328491, 0.0012353194179013371, -0.3822034001350403, -0.024067791178822517, 0.013619832694530487, -0.0005631062667816877, 0.004812008235603571, 0.04095032811164856, -0.027200832962989807, -0.012300238944590092, 0.02428673580288887, -0.02995423786342144, -0.01132257655262947, -0.005216603633016348, -0.021985532715916634, 0.014034116640686989, -0.017271608114242554, -0.03228316456079483, -0.017667362466454506, -0.02028375305235386, 0.019039947539567947, -0.012632789090275764, -0.022937703877687454, 0.0025659799575805664, -0.024676790460944176, 0.0011572064831852913, -0.01860705018043518, 0.024402448907494545, 0.006469969172030687, -0.12978051602840424, 0.017255809158086777, -0.002515148837119341, -0.007671362720429897, 0.007697261869907379, 0.009397769346833229, -0.03682171180844307, -0.0063218045979738235, -0.001989176031202078, -0.05041498690843582, -0.014865085482597351, 0.006880233064293861, -0.1028018370270729, -0.05305285006761551, -0.015836726874113083, -0.04883309453725815, 0.0005286734085530043, -0.03013347089290619, -0.03161846473813057, 0.004592083394527435, -0.002757921116426587, -0.032809145748615265, -0.016156110912561417, -0.011225837282836437, -0.020898224785923958, 0.027627337723970413, -0.017534226179122925, -0.006858683656901121, 0.01161145605146885, -0.014704772271215916, -0.053363606333732605, -0.039231449365615845, -0.003833591705188155, -0.03850024566054344, -0.045161183923482895, -0.016013598069548607, -0.05136856436729431, -0.0011508887400850654, -0.014041935093700886, -0.00020134515943937004, 0.005155917257070541, 0.0025683618150651455, -0.0393676720559597, -0.0355844721198082, 0.0027015379164367914, -0.05648847296833992, -0.006319723092019558, -0.004944793414324522, -0.018989982083439827, -0.0015496156411245465, -0.021793173626065254, -0.013297755271196365, -0.005091961473226547, -0.016950611025094986, -0.022309448570013046, -0.012546123005449772, -0.02369741164147854, -0.029687855392694473, 0.005554182920604944, 0.026882238686084747, -0.03799106925725937, 0.012849411927163601, 0.011917815543711185, -0.0018391463672742248, -0.023347822949290276, 0.005791377741843462, -0.043509915471076965, -0.03023996204137802, 0.011974848806858063, -0.08932792395353317, 0.042516663670539856, 0.019752003252506256, -0.0041815354488790035, 0.03063948079943657, -0.02326725237071514, 5.001794738561002e-41, 0.028619039803743362, 0.0114012835547328, 5.05196122358383e-41, -5.185084577694688e-41, -4.92037929778373e-41, -5.282755080658128e-41, 6.222185571141485e-41, 4.990163961307106e-41, 4.988902792689214e-41, 5.081108231641787e-41, -5.488185435528146e-41, 5.048037587883721e-41, -5.902689521275427e-41, -4.94462176121655e-41, 4.983998248064077e-41, -5.231747816556705e-41, 4.967182666492179e-41, 5.083910828570436e-41, -5.122166276646504e-41, -5.114319005246285e-41, -6.270670498007124e-41, 5.189989122319825e-41, 6.049965989875965e-41, -4.961157083095582e-41, 4.929627867648274e-41, 4.989042922535646e-41, -4.940277735977143e-41, 5.732011368320664e-41, -4.977832534821048e-41, -4.906086053447617e-41, -4.907207092219077e-41, -5.498414914317717e-41, 5.297188454840673e-41, -4.924583193176705e-41, -4.912391896537079e-41, -5.90058757357894e-41, -5.32241182719852e-41, -5.290322092365482e-41, 5.081388491334652e-41, 5.688711245773027e-41, 4.988622532996349e-41, 5.219136130377781e-41, -5.099605371370874e-41, -5.542415686097516e-41, 5.233989894099624e-41, -4.940277735977143e-41, -5.038789018019177e-41, 4.956392668316878e-41, -5.218855870684916e-41, 6.239001152713383e-41, -5.010903178579113e-41, 4.990864610539268e-41, -4.997450713321595e-41, -5.560072046748009e-41, -4.945182280602279e-41, 5.077745115327407e-41, 4.926404881180327e-41, 5.860090047959953e-41, 4.908608390683402e-41, -5.372157922682051e-41, 4.922901635019515e-41, 5.438999859430345e-41, 5.633219826585765e-41, -6.055711313579697e-41, -4.916595791930053e-41, -5.113338096321257e-41, 5.276028848029369e-41, 4.967182666492179e-41, 5.089516022427736e-41, -4.928506828876814e-41, -4.932010075037626e-41, -4.959475524938393e-41, 5.63125800873571e-41, 8.241036268694249e-42, 5.139822637296997e-41, 5.127631340657371e-41, 4.968023445570774e-41, -4.961857732327745e-41, -5.234410283638922e-41, -5.112217057549798e-41, -4.94294020305936e-41, 4.984558767449807e-41, 5.05420330112675e-41, 4.968443835110071e-41, -5.545498542719031e-41, -5.290882611751212e-41, -5.047477068497991e-41, 6.284963742343237e-41, 5.003756556411057e-41, -5.296347675762079e-41, 4.985119286835537e-41, -4.970966172345856e-41, 5.043273173105017e-41, -5.197556134027179e-41, 5.089375892581303e-41, 5.364030391588967e-41, -5.012164347197006e-41, -4.990023831460674e-41, -5.213951326059779e-41, 4.956112408624013e-41, -6.204809470183858e-41, 5.057146027901832e-41, 4.907487351911942e-41, 5.049859275887343e-41, 6.169636878729305e-41, 5.148650817622243e-41, 5.011183438271978e-41, 4.956252538470445e-41, 4.918837869472973e-41, -6.789291059653739e-41, -4.91925825901227e-41, 5.129453028660993e-41, 5.266219758779095e-41, 5.140102896989861e-41, -6.190656355694177e-41, -5.025336552761659e-41, 5.023654994604469e-41, 4.907207092219077e-41, -4.913232675615674e-41, -6.250772059813712e-41, 6.255816734285281e-41, -5.709590592891467e-41, -4.930328516880436e-41, -4.919958908244433e-41, -6.249230631502954e-41, 4.926124621487462e-41, -5.07732472578811e-41, -5.318488191498411e-41, -5.163504581344086e-41, 5.089656152274168e-41, 5.483701280442307e-41, 5.128892509275263e-41, -5.790165254590144e-41, 6.120171042938639e-41, 5.397101035347033e-41, 5.900727703425372e-41, 5.923148478854569e-41, -5.306437024705217e-41, 5.106051344306768e-41, 4.911410987612051e-41, -4.914493844233566e-41, 5.215913143909834e-41, -6.297155038982863e-41, -5.294245728065591e-41, 4.928646958723247e-41, -4.907066962372644e-41, -4.909028780222699e-41, -5.356183120188748e-41, 4.946163189527307e-41, 5.119083420024989e-41, -4.914493844233566e-41, -5.613321388392352e-41, 5.03724758970842e-41, -5.547039971029788e-41, 4.981475910828292e-41, -5.145147571461431e-41, -4.944201371677252e-41, 4.907487351911942e-41, -5.331520267216632e-41, 5.125529392960883e-41, 5.228524830088757e-41, -5.087834464270546e-41, -4.926264751333894e-41, 5.156638218868894e-41, 5.060929533755509e-41, -5.227964310703028e-41, -3.2818410034487216e-42, -5.055464469744643e-41, -4.918277350087243e-41, 5.514529846657453e-41, -4.917296441162216e-41, 4.958354486166933e-41, 4.995629025317973e-41, -5.037667979247717e-41, 4.949386175995254e-41, 4.99773097301446e-41, 6.283562443878912e-41, -5.040750835869232e-41, -4.910710338379889e-41, 5.003476296718192e-41, -4.992265909003593e-41, -4.930468646726869e-41, 4.920239167937298e-41, 6.155483764239624e-41, 6.210134404348292e-41, -6.154362725468164e-41, -5.046215899880099e-41, 5.078025375020272e-41, 5.144587052075701e-41, 6.022220280282334e-41, 4.975029937892398e-41, 5.461000245320245e-41, 5.140663416375591e-41, 5.228244570395892e-41, 5.037527849401285e-41, 4.920799687323028e-41, 5.674137741744049e-41, 5.272105212329259e-41, 5.888676536632179e-41, 5.139402247757699e-41, 5.155517180097434e-41, -5.192371329709177e-41, -4.935233061505573e-41, 5.019591229057927e-41, 5.033604213701175e-41, 5.694596699323192e-41, 4.970966172345856e-41, -5.222919636231458e-41, -5.423305316629907e-41, 5.01692876197571e-41, -4.931729815344761e-41, -5.011884087504141e-41, -5.256690929221686e-41, 4.911410987612051e-41, 5.038789018019177e-41, 6.295333350979241e-41, -4.92093981716946e-41, -4.921079947015893e-41, 5.405228566440117e-41, -4.912532026383511e-41, -5.251085735364387e-41, -5.037948238940582e-41, 5.132395755436075e-41, -5.049859275887343e-41, -4.907767611604807e-41, 4.932290334730491e-41, -4.994227726853648e-41, -5.2814939120402355e-42, -6.251192449353009e-41, 5.066394597766376e-41, 4.946863838759469e-41, -5.612200349620892e-41, -4.993106688082188e-41, -5.051120444505236e-41, 5.633640216125062e-41, -5.222359116845728e-41, -5.098624462445847e-41, -4.916315532237188e-41, 5.906473027129104e-41, -5.321711177966358e-41, 4.939717216591413e-41, -5.400043762122115e-41, -4.991565259771431e-41, 5.464083101941759e-41, -5.118522900639259e-41, 5.515370625736048e-41, -6.144273376525025e-41, 4.985119286835537e-41, -6.007786906099788e-41, 5.647232811229013e-41, 4.983157468985482e-41, -5.345393122013447e-41, 4.956112408624013e-41, -5.213811196213347e-41, 5.633920475817927e-41, 4.943640852291522e-41, -5.141364065607754e-41, -5.012864996429168e-41, -5.09652251474936e-41, 5.00109408932884e-41, 5.457496999159433e-41, 5.211569118670427e-41, -5.227123531624433e-41, 5.276028848029369e-41, 5.00165460871457e-41, 6.200605574790883e-41, -5.717577994138119e-41, -5.13211549574321e-41, 5.466465309331111e-41, -4.909869559301294e-41, -4.938035658434223e-41, 6.202006873255208e-41, -4.910570208533456e-41, -4.90566566390832e-41, 6.007506646406923e-41, 4.918277350087243e-41, 5.014546554586358e-41, 4.95765383693477e-41, 5.000393440096677e-41, 4.986380455453429e-41, -5.197556134027179e-41, -5.221238078074268e-41, 5.309379751480299e-41, 6.165573113182763e-41, -5.067095246998539e-41, 6.257218032749606e-41, 5.198537042952206e-41, 5.687450077155135e-41, 5.196715354948584e-41, -6.18631233045477e-41, -5.512427898960965e-41, -4.967182666492179e-41, 6.185331421529743e-41, 5.152294193629487e-41, 5.654099173704204e-41, 5.287519495436832e-41, -5.019310969365062e-41, 5.649615018618365e-41, -4.955271629545418e-41, -4.906086053447617e-41, -4.914774103926431e-41, -4.996609934243e-41, -5.493930759231878e-41, 6.110922473074095e-41, -6.246568164420737e-41, 5.054483560819615e-41, -4.983998248064077e-41, 4.909869559301294e-41, -4.957233447395473e-41, -5.312462608101814e-41, -4.928366699030382e-41, -5.03388447339404e-41, 5.161823023186896e-41, 5.195173926637827e-41, 4.912952415922809e-41, 5.778114087796951e-41, -4.992265909003593e-41, -6.255536474592416e-41, -4.993947467160783e-41, 5.452172064994998e-41, 5.160141465029706e-41, 4.988902792689214e-41, -4.921640466401623e-41, -5.644990733686093e-41, 5.080687842102489e-41, -5.020572137982955e-41, 5.023514864758037e-41, 4.946023059680874e-41, 5.125109003421586e-41, -5.028979928768904e-41, 5.482580241670847e-41, 6.234657127473976e-41, 5.128051730196668e-41, -5.027018110918849e-41, -5.040330446329935e-41, 4.965080718795692e-41, 5.141644325300619e-41, 5.003196037025327e-41, 5.088254853809843e-41, -5.2105882097454e-41, 5.909415753904186e-41, -6.059354689586941e-41, 5.295787156376349e-41, 4.970405652960126e-41, -4.986240325606997e-41, 5.16826899612279e-41, 5.464923881020354e-41, -5.645691382918255e-41, -5.607716194535053e-41, 4.943640852291522e-41, 4.987361364378456e-41, 4.996609934243e-41, -5.086853555345518e-41, -4.978252924360345e-41, 4.908888650376267e-41, -5.129453028660993e-41, -5.006699283186139e-41, 4.923882543944542e-41, -4.97909370343894e-41, 6.008487555331951e-41, 5.178078085373064e-41, -5.316246113955491e-41, -5.257811967993146e-41, 4.926685140873192e-41, 5.525880364218484e-41, -5.752330196053374e-41, 6.076450530851704e-41, 5.61374177793165e-41, 4.926124621487462e-41, 6.183369603679688e-41, -4.924723323023137e-41, -4.968583964956504e-41, -5.57422516123769e-41, -4.93901656735925e-41, -4.98189630036759e-41, 5.149211337007973e-41, -5.616684504706732e-41, -4.932290334730491e-41, 4.910710338379889e-41, -5.433674925265911e-41, -5.225021583927945e-41, 5.006559153339706e-41, -4.959755784631258e-41, -5.116140693249907e-41, 4.945182280602279e-41, -5.119503809564287e-41, 5.834726545755673e-41, 4.980354872056832e-41, -5.128051730196668e-41, 5.060369014369779e-41, 5.467446218256139e-41, 1.877739942195255e-43, 4.906086053447617e-41, 5.239595087956924e-41, -5.066114338073511e-41], [-3.63663616796724e-16, -3.63663616796724e-16, -1.0160328578479039e-08, -5.9022764453686705e-09, -2.2013477707361062e-09, -5.170157635348005e-09, -6.218725090434418e-09, -8.987923294512257e-09, -6.89253043528737e-10, -3.0653164451166504e-09, -1.786994108243789e-09, -2.449496605549939e-09, -1.4232512512535322e-05, -1.7372141883242875e-05, 5.015527463511385e-41, 4.964099809870664e-41, 4.938596177819953e-41, -3.590929997798753e-09, 2.2757480353953343e-30, 4.929207478108977e-41, -2.0032068448472273e-08, -4.4060706309722925e-22, -4.976150976663858e-41, -1.320268960824933e-08, -2.7035947976382137e-21, 4.948965786455956e-41, -5.803991176556167e-10, -1.463319106555093e-25, 4.980635131749697e-41, -5.5982088298378585e-08, -9.5132089219449e-26, 4.927525919951787e-41, -2.4797850439739477e-09, -4.369859208304457e-19, 4.061243209306185e-41, -1.361108226127783e-09, -2.559861150940176e-16, -2.2563982527057212e-38, -1.4210728427332953e-10, -4.18278527760448e-16, -1.1382887555556922e-40, -8.660322237119544e-09, -8.252260178527894e-17, -2.89774958441912e-23, -1.6785788037321225e-11, -1.2363170925379363e-13, -2.2479359844794417e-23, -5.027289140535629e-10, -1.532991940854378e-13, -1.6328207785547077e-22, 6.48703313288479e-10, -2.056035192359723e-13, -2.0059574140872742e-22, -8.508733628787013e-08, -1.0252158144782517e-14, -2.0980822055802726e-18, 5.72175202793253e-15, -7.462681731254528e-13, -2.280065786731787e-16, 4.066160656877177e-14, -1.481135906197112e-13, -5.5060476763759336e-17, 2.949596816792521e-11, -8.085146593027337e-13, -3.9548795487915836e-18, -4.498064681141001e-12, -4.237898660469641e-12, -2.4094160503297205e-20, 2.3435355878120845e-09, -6.561365220678766e-14, -4.490027771828644e-23, 5.916666045990837e-10, -1.3465333584478448e-14, -8.396669553963555e-23, 2.1289600291019006e-11, -1.2710590964876812e-16, -2.5427311083710436e-31, 1.4167904627271355e-09, -4.3287899349094797e-16, -3.9446542623067225e-35, 1.5324153057605372e-09, -4.486357516318835e-20, 2.256510917102253e-41, 7.0789624162515e-10, -3.788255594921352e-18, 4.937755398741358e-41, 8.443503674016029e-09, -1.1568940777024543e-21, -4.91869773962654e-41, 1.7195517898471735e-08, -1.15253396695979e-24, -4.973488509581641e-41, 6.150363773826939e-09, -1.7828327139931975e-20, -4.910710338379889e-41, 6.728977375303202e-09, -5.086953455060099e-19, -4.934952801812708e-41, 2.1035055919327306e-09, -4.955367308049268e-20, -4.403380038460339e-39, 8.133264894905068e-11, 8.521005271054387e-20, -2.38041077423268e-33, 9.479044285609639e-12, -3.256794833816912e-11, -1.1520415697796604e-11, -1.1932668971036207e-14, -7.446818162115676e-11, 9.810805698385033e-16, 3.7358218417183533e-22, -1.5778041374019455e-16, 9.334292990967656e-35, 4.926685140873192e-41, -5.025336552761659e-41, -5.135198352364725e-41, -6.235357776706139e-41, -4.963118900945637e-41, -4.99829149240019e-41, -4.94350072244509e-41, -4.993807337314351e-41, 5.086152906113356e-41, 5.222078857152863e-41, 4.960876823402717e-41, 5.725985784924068e-41, -5.663628003261613e-41, 5.497714265085555e-41, -4.937755398741358e-41, -5.15187380409019e-41, 4.948405267070227e-41, -5.667271379268858e-41, -5.617385153938894e-41, 6.948478565201038e-41, 5.15467640101884e-41, 5.32073026904133e-41, -6.174821683047306e-41, 6.26086140875685e-41, -5.006278893646841e-41, 5.046075770033666e-41, 5.325074294280737e-41, -4.950507214766714e-41, -5.121886016953639e-41, 5.023514864758037e-41, -5.926371465322516e-41, -4.909168910069132e-41, -5.883631862160609e-41, 6.209293625269697e-41, -5.023654994604469e-41, -4.978813443746075e-41, 4.926404881180327e-41, 4.938736307666385e-41, 4.939156697205683e-41, -5.084331218109734e-41, 4.94237968367363e-41, 5.673717352204752e-41, -5.917122895457973e-41, 4.94350072244509e-41, 5.979340547273994e-41, 5.563575292908821e-41, -5.11011510985331e-41, 5.193212108787772e-41, 6.153662076236002e-41, 5.921326790850947e-41, -5.202740938345181e-41, 4.97965422282467e-41, 5.005438114568247e-41, -5.451891805302133e-41, 5.042292264179989e-41, -4.905805793754752e-41, 4.965921497874287e-41, 5.433955184958776e-41, 5.310921179791057e-41, 4.964800459102827e-41, 4.970826042499424e-41, 4.967743185877909e-41, 4.906366313140482e-41, -4.977272015435318e-41, 5.51607127496821e-41, 5.775171361021869e-41, 5.934919385954898e-41, -5.369775715292699e-41, -4.951628253538174e-41, 5.044534341722909e-41, 5.45791738869873e-41, 5.307417933630245e-41, -4.993527077621486e-41, 6.171318436886494e-41, -4.91925825901227e-41, -5.052101353430263e-41, -5.065273558994916e-41, 5.154816530865272e-41, -5.262155993232553e-41, -5.652838005086312e-41, 5.007259802571869e-41, 1.1032422809629285e-41, -5.248843657821467e-41, -4.987081104685591e-41, 4.909309039915564e-41, 4.910710338379889e-41, -4.908888650376267e-41, -4.929347607955409e-41, -5.495892577081933e-41, 6.120591432477936e-41, -5.257111318760984e-41, -6.286785430346859e-41, 5.233429374713894e-41, 5.196855484795017e-41, 5.082929919645409e-41, 4.916735921776486e-41, -4.929767997494706e-41, 5.770266816396732e-41, -5.427649341869314e-41, 5.851542127327571e-41, -5.201059380187991e-41, 4.692528167484515e-41, 4.982176560060455e-41, 4.925984491641029e-41, -5.070178103620053e-41, 4.988622532996349e-41, 4.988482403149916e-41, 5.006559153339706e-41, -4.919538518705135e-41, -5.352539744181504e-41, -6.115266498313502e-41, 6.782284567332115e-43, -4.994648116392945e-41, 6.194159601854989e-41, 5.581511913252179e-41, 5.072980700548703e-41, -5.690112544237352e-41, -5.074802388552325e-41, -5.734813965249314e-41, 5.215773014063402e-41, 5.095681735670765e-41, -6.254555565667389e-41, 5.144306792382836e-41, -5.238193789492599e-41, 5.099325111678009e-41, 5.142485104379214e-41, 5.118382770792827e-41, -5.039349537404907e-41, -4.930468646726869e-41, -4.994788246239378e-41, -5.022253696140144e-41, 4.911691247304916e-41, -4.931309425805464e-41, 5.046075770033666e-41, -6.139508961746321e-41, 5.240155607342653e-41, -4.962418251713475e-41, 5.19026938201269e-41, 5.041871874640692e-41, 5.173734060133657e-41, 5.68885137561946e-41, 4.910710338379889e-41, 5.480198034281495e-41, -5.652978134932745e-41, 5.153975751786677e-41, -6.094387151195062e-41, 5.057706547287562e-41, -6.272071796471449e-41, 5.163784841036951e-41, -5.864434073199359e-41, 5.691373712855245e-41, -4.912952415922809e-41, 4.933271243655518e-41, -5.071018882698648e-41, 5.665029301725938e-41, 5.023094475218739e-41, -5.024635903529497e-41, 4.915614883005026e-41, 6.273893484475071e-41, -4.90566566390832e-41, 5.085171997188329e-41, 4.983157468985482e-41, 5.045375120801504e-41, 5.168409125969223e-41, -5.609117492999378e-41, -4.995348765625108e-41, 5.849720439323949e-41, -4.916035272544323e-41, -4.906506442986914e-41, -5.072980700548703e-41, -4.990864610539268e-41, -4.932010075037626e-41, 6.265765953381987e-41, 5.445025442826942e-41, 5.421623758472717e-41, 2.4242463432819335e-42, 5.600009052981266e-41, 5.19082990139842e-41, -5.127491210810938e-41, -4.972927990195911e-41, 4.93845604797352e-41, -5.948231721365984e-41, -5.30433507700873e-41, 6.058093520969049e-41, -5.440821547433967e-41, -5.340208317695445e-41, -4.925564102101732e-41, 5.088535113502708e-41, -5.34104909677404e-41, 4.95989591447769e-41, -4.908608390683402e-41, 5.210448079898967e-41, -4.913232675615674e-41, -5.029120058615336e-41, 4.948685526763091e-41, 5.080968101795354e-41, 5.050980314658803e-41, -5.120905108028612e-41, -5.081668751027517e-41, 4.994087597007216e-41, -5.594403859123967e-41, 5.898625755728885e-41, 4.908468260836969e-41, 5.494911668156905e-41, -6.272352056164314e-41, -5.095821865517197e-41, 4.911551117458484e-41, 6.000780413778164e-41, -5.019871488750792e-41, 5.314004036412571e-41, -4.937054749509196e-41, 4.913232675615674e-41, 5.166867697658466e-41, 4.922341115633785e-41, -5.069477454387891e-41, 6.005965218096166e-41, 4.964940588949259e-41, 1.3864026616490443e-40, -5.817350444798046e-41, 5.089235762734871e-41, -5.11628082309634e-41, 5.708189294427142e-41, 4.922481245480217e-41, -5.904371079432617e-41, 4.927385790105354e-41, 6.256937773056741e-41, -4.924162803637407e-41, 5.87690562953185e-41, -5.172332761669332e-41, 4.958074226474068e-41, -5.104509915996011e-41, 5.247582489203575e-41, 5.179899773376686e-41, 4.965080718795692e-41, -5.090496931352763e-41, -5.114178875399852e-41, 6.270810627853556e-41, 5.457496999159433e-41, -5.127351080964506e-41, -5.024075384143767e-41, 4.909168910069132e-41, 5.810203822629989e-41, -5.119924199103584e-41, 4.928086439337517e-41, 4.972927990195911e-41, -6.002181712242489e-41, 5.066114338073511e-41, -5.837248882991458e-41, 5.028699669076039e-41, -5.042572523872854e-41, -4.940978385209305e-41, -4.910570208533456e-41, 5.038648888172745e-41, -5.226142622699405e-41, 5.844815894698812e-41, -5.15299484286165e-41, -5.106051344306768e-41, 5.101427059374497e-41, -5.111936797856933e-41, -5.151173154858028e-41, 5.015667593357818e-41, -4.973068120042343e-41, 5.34048857738831e-41, 5.562594383983794e-41, -5.041031095562097e-41, 4.946723708913037e-41, -4.974889808045966e-41, 4.945182280602279e-41, -5.962384835855664e-41, -5.063872260530591e-41, 4.933131113809086e-41, -4.941118515055737e-41, -4.947144098452334e-41, 4.914774103926431e-41, 5.539613089168867e-41, 4.92318189471238e-41, -4.963399160638502e-41, 5.068496545462863e-41, -5.028979928768904e-41, 5.222078857152863e-41, 5.688150726387297e-41, -5.180880682301714e-41, 4.1711050089092505e-41, -5.166167048426303e-41, 4.951488123691741e-41, -5.156357959176029e-41, 5.88082926523196e-41, -5.247722619050007e-41, -4.909309039915564e-41, -5.432553886494451e-41, -5.352960133720801e-41, 5.590199963730993e-41, 5.1885878238555e-41, -5.174574839212252e-41, 5.013425515814898e-41, 5.419241551083365e-41, -4.912952415922809e-41, 5.540313738401029e-41, 4.969705003727964e-41, -5.998958725774542e-41, 5.117401861867799e-41, 4.925844361794597e-41, -5.410273240911686e-41, -5.109834850160445e-41, -4.950927604306011e-41, -5.259633655996768e-41, 5.163084191804788e-41, 5.404948306747252e-41, -5.758776168989268e-41, -4.946723708913037e-41, 4.955972278777581e-41, 5.073541219934433e-41, -5.524479065754159e-41, 4.955271629545418e-41, -5.066114338073511e-41, 5.015947853050683e-41, 5.466325179484679e-41, -4.910430078687024e-41, 5.747145391735372e-41, -5.511306860189506e-41, -5.689692154698055e-41, -5.065974208227079e-41, 5.021833306600847e-41, -4.92430293348384e-41, -6.104476500138201e-41, 5.007119672725436e-41, 4.926545011026759e-41, 5.541574907018922e-41, -4.932850854116221e-41, 4.908888650376267e-41, 5.008100581650464e-41, -5.426107913558557e-41, -4.980635131749697e-41, 5.057146027901832e-41, -5.51326867803956e-41, 5.484822319213766e-41, -5.586276328030883e-41, 4.920239167937298e-41, -4.97909370343894e-41, 5.880128615999797e-41, 5.36136792450675e-41, 5.087834464270546e-41, 5.059107845751887e-41, 5.695577608248219e-41, 4.921640466401623e-41, -4.96213799202061e-41, 4.98301733913905e-41, 4.915334623312161e-41, 5.247582489203575e-41, -4.913092545769241e-41, 5.11011510985331e-41, -6.223446739759378e-41, 5.370055974985564e-41, -5.036266680783393e-41, 5.194193017712799e-41, -6.750895481731239e-41, 4.996890193935865e-41, 5.006699283186139e-41, -6.295333350979241e-41, 5.091617970124223e-41, -6.259600240138958e-41, -5.251506124903684e-41, -4.926825270719624e-41, 5.37888415531081e-41, 5.059107845751887e-41, -4.917997090394378e-41, 4.99492837608581e-41, 5.084050958416869e-41, 5.041031095562097e-41, 4.955692019084716e-41, -4.983998248064077e-41, 5.547039971029788e-41, -4.99941253117165e-41, -4.922341115633785e-41, -6.012691450724925e-41, -4.946863838759469e-41, 6.222045441295053e-41, -5.018189930593602e-41, 5.464363361634624e-41, -4.968864224649369e-41, 5.066814987305674e-41, 5.713654358438009e-41, 5.333341955220254e-41, 5.13155497635748e-41, 5.786381748736467e-41, -4.918837869472973e-41, 5.030381227233228e-41, 5.03892914786561e-41, -5.062330832219834e-41, 5.059808494984049e-41, -5.434095314805208e-41, 5.95762042107696e-41, 4.968163575417206e-41, -5.013285385968466e-41, 5.008240711496896e-41, -5.050559925119506e-41, 5.008240711496896e-41, 5.895683028953803e-41, -5.166167048426303e-41], [0.016824420541524887, 0.016824420541524887, 0.03095935471355915, 0.029459308832883835, 0.02980908751487732, 0.02733459509909153, 0.03553680703043938, 0.024538937956094742, 0.017511582002043724, 0.03673388436436653, 0.028760293498635292, 0.029152581468224525, 0.05191971734166145, 0.05965581163764, 0.00878815446048975, 0.0043035647831857204, 0.00021854187070857733, 0.03186983987689018, 0.01039043441414833, -0.003184736240655184, 0.026197971776127815, 0.009088928811252117, 0.010118313133716583, 0.031751397997140884, 0.015467589721083641, 0.00844811275601387, 0.02463165484368801, 0.0012294263578951359, -0.0007132957689464092, 0.02980865351855755, 0.013163638301193714, 0.005047474522143602, 0.021981723606586456, 0.007996703498065472, 0.000691007066052407, 0.031221142038702965, 0.015663130208849907, 0.023904019966721535, 0.019015349447727203, 0.017344629392027855, 0.006611012388020754, 0.040327902883291245, 0.018730035051703453, 0.007973969914019108, 0.02740437537431717, 0.022504271939396858, 0.016972171142697334, 0.010082066059112549, 0.01775767281651497, 0.012857392430305481, 0.0029989785980433226, 0.018172062933444977, 0.014200106263160706, -0.011242834851145744, 0.018258383497595787, 0.011994238011538982, -0.012303107418119907, 0.0130921620875597, 0.017540400847792625, 0.010888254269957542, 0.015377254225313663, 0.00965182390064001, -0.021359382197260857, 0.020060887560248375, 0.016151687130331993, 0.008140753023326397, 0.012765181250870228, 0.013475230894982815, -0.030152153223752975, 0.01147954910993576, 0.011813635006546974, -0.01880769245326519, 0.020633140578866005, 0.010035641491413116, -0.022250333800911903, 0.01222535502165556, 0.013073419220745564, -0.022374439984560013, 0.010228708386421204, 0.005998026113957167, -0.03499485179781914, 0.017300212755799294, 0.02583361230790615, -0.004857009742408991, 0.01706998609006405, 0.015372226946055889, -0.012660706415772438, 0.010347331874072552, -0.006409164983779192, -0.03835539147257805, 0.009232616983354092, 0.01017877459526062, -0.021333938464522362, 0.014202948659658432, 0.0003535399155225605, -0.015903985127806664, 0.006651005707681179, -0.005343496799468994, -0.02155311591923237, 0.005597826559096575, -0.00830054935067892, -0.02359570562839508, 0.013541567139327526, 0.01505916379392147, -0.0066603487357497215, 0.023719267919659615, 0.01735209859907627, 0.009461181238293648, 0.015462400391697884, 0.0033683725632727146, -0.0030535850673913956, 0.008871453814208508, 0.010063071735203266, 0.004831536207348108, 0.004716731607913971, -0.003665246767923236, 5.208065872509615e-41, 0.004636203404515982, 0.004834822379052639, -4.909729429454862e-41, 6.878133382291932e-41, 5.899046145268182e-41, 5.42008233016196e-41, -5.115440044017745e-41, 6.066361181908566e-41, -4.936634359969898e-41, 5.021973436447279e-41, 4.917296441162216e-41, 5.148790947468675e-41, 5.000113180403812e-41, 5.690813193469515e-41, 5.167007827504898e-41, 5.945709384130199e-42, 4.910990598072754e-41, -4.930468646726869e-41, 4.908608390683402e-41, 5.13043393758602e-41, -6.258479201367498e-41, -6.261281798296148e-41, 6.126196626335235e-41, -5.038228498633447e-41, 5.507523354335829e-41, 5.483140761056577e-41, -5.035285771858365e-41, -4.976431236356723e-41, 4.953169681848931e-41, 5.019871488750792e-41, -5.084751607649031e-41, 5.02029187829009e-41, 5.294245728065591e-41, -4.988342273303484e-41, -4.963399160638502e-41, -5.311481699176787e-41, -5.650876187236257e-41, -6.262402837067607e-41, -5.765502401618027e-41, -6.55219135948998e-41, -5.023935254297334e-41, -4.940417865823575e-41, -5.077044466095245e-41, 5.434235444651641e-41, -5.074802388552325e-41, 4.922901635019515e-41, 5.193912758019934e-41, 5.127070821271641e-41, -5.093019268588548e-41, 5.099465241524442e-41, 5.875504331067525e-41, 4.955271629545418e-41, -5.178638604758794e-41, 4.907627481758374e-41, 5.241276646114113e-41, 6.011009892567735e-41, 5.977518859270372e-41, 6.25861933121393e-41, 6.134324157428319e-41, 4.988062013610619e-41, 5.048037587883721e-41, -5.68660929807654e-41, 5.408871942447361e-41, 5.016648502282845e-41, -6.278657899253775e-41, -5.580110614787854e-41, 5.012024217350573e-41, -5.833745636830646e-41, 5.740279029260181e-41, 3.587324068671532e-42, 5.349176627867124e-41, -5.249824566746495e-41, 5.396400386114871e-41, -7.096175423340874e-41, 5.006419023493274e-41, 4.943921111984387e-41, -5.09035680150633e-41, 4.930048257187571e-41, -5.922307699775974e-41, -5.189848992473393e-41, 5.11347822616769e-41, -5.798713175222526e-41, 5.416859343694013e-41, -5.231327427017407e-41, -5.046215899880099e-41, 5.0186103201329e-41, 5.034304862933338e-41, -4.911971506997781e-41, -4.966482017260017e-41, -4.980354872056832e-41, -4.909869559301294e-41, -5.191530550630582e-41, 5.280513003115208e-41, -4.907767611604807e-41, 4.981195651135427e-41, 4.921220076862325e-41, -5.005858504107544e-41, -5.036546940476258e-41, 4.912251766690646e-41, -4.976571366203155e-41, 5.366973118364049e-41, 5.148790947468675e-41, 4.965921497874287e-41, -4.954570980313256e-41, 5.051400704198101e-41, -5.123427445264396e-41, 5.044534341722909e-41, 5.640086189060956e-41, 5.141083805914889e-41, -6.107559356759715e-41, 4.99604941485727e-41, 5.219836779609944e-41, 4.971666821578018e-41, -4.91925825901227e-41, 5.056305248823237e-41, -5.305736375473055e-41, -5.995595609460162e-41, 5.062470962066267e-41, -5.018470190286467e-41, -5.988589117138538e-41, 5.118522900639259e-41, 5.330259098598739e-41, -4.937615268894925e-41, 4.982036430214022e-41, -5.481879592438684e-41, 5.069757714080756e-41, -5.989429896217133e-41, -5.086993685191951e-41, -5.691794102394542e-41, 4.982176560060455e-41, 5.448108299448456e-41, 5.222218986999296e-41, -4.955271629545418e-41, 5.765782661310892e-41, 5.534848674390162e-41, -4.964940588949259e-41, 5.079706933177462e-41, -5.253187683060874e-41, -4.910149818994159e-41, 5.359826496195993e-41, -5.419942200315527e-41, -4.906786702679779e-41, 5.301112090540783e-41, -4.936634359969898e-41, 5.236512231335409e-41, -4.946443449220172e-41, -5.21283028728832e-41, 4.919958908244433e-41, 5.434936093883803e-41, 4.924022673790975e-41, 5.244639762428493e-41, -4.957934096627635e-41, -5.426107913558557e-41, 5.07508264824519e-41, 4.995348765625108e-41, -5.972053795259505e-41, 5.373839480839241e-41, -4.966902406799314e-41, -4.923882543944542e-41, -5.175695877983712e-41, -6.076030141312407e-41, 4.994648116392945e-41, -5.080127322716759e-41, 5.109274330774716e-41, -4.991845519464296e-41, 4.917436571008648e-41, 5.341749746006203e-41, 5.76788460900738e-41, -4.965080718795692e-41, -5.030381227233228e-41, -6.208172586498237e-41, 6.245306995802845e-41, 5.388553114714652e-41, -5.218575610992051e-41, -5.166727567812033e-41, 5.415317915383256e-41, -5.144587052075701e-41, 6.093546372116467e-41, -5.011884087504141e-41, -5.440821547433967e-41, 4.920239167937298e-41, -4.983717988371212e-41, 5.225161713774378e-41, -5.91754328499727e-41, -5.567218668916066e-41, 5.043273173105017e-41, -4.967042536645747e-41, -5.097223163981522e-41, 4.949666435688119e-41, 5.088254853809843e-41, -5.344131953395555e-41, -5.147109389311486e-41, -4.944341501523685e-41, -5.621168659792571e-41, -5.713093839052279e-41, -5.215212494677672e-41, -5.357864678345938e-41, -5.185364837387553e-41, 4.905805793754752e-41, -6.024742617518119e-41, -4.979233833285372e-41, 5.6329395668929e-41, -4.933131113809086e-41, -5.252767293521577e-41, 5.308679102248137e-41, -6.071966375765865e-41, 4.98077526159613e-41, 4.936494230123466e-41, -5.049859275887343e-41, 5.420923109240555e-41, -5.18690626569831e-41, -6.233536088702516e-41, -4.950787474459579e-41, -5.483561150595874e-41, -5.03724758970842e-41, 6.277536860482316e-41, 5.597486715745482e-41, -5.783439021961385e-41, -4.954570980313256e-41, 5.474592840424195e-41, 5.027298370611714e-41, 4.977552275128183e-41, -5.191810810323447e-41, -6.197242458476503e-41, -4.978673313899643e-41, 5.395559607036276e-41, -5.013705775507763e-41, 4.946163189527307e-41, -5.824076677426805e-41, 4.954290720620391e-41, 4.910710338379889e-41, -5.422044148012015e-41, -4.954711110159688e-41, 4.919398388858703e-41, 5.176256397369442e-41, -5.286678716358237e-41, -5.308118582862407e-41, -5.332220916448794e-41, -4.911410987612051e-41, 5.233429374713894e-41, 5.422184277858447e-41, 5.034865382319068e-41, -6.151980518078812e-41, 5.49799452477842e-41, -4.92037929778373e-41, 5.351698965102909e-41, 4.974889808045966e-41, -4.998011232707325e-41, -5.121745887107206e-41, 4.955692019084716e-41, 5.011603827811276e-41, 5.291583260983374e-41, -5.074942518398758e-41, -5.05588485928394e-41, 5.293685208679861e-41, 5.238474049185464e-41, 6.302339843300865e-41, -5.109414460621148e-41, -4.931169295959031e-41, 5.03892914786561e-41, 4.976991755742453e-41, -4.914914233772863e-41, -5.63125800873571e-41, 4.956813057856175e-41, -5.099885631063739e-41, 5.046356029726531e-41, 5.144587052075701e-41, -6.017455865503629e-41, -6.100973253977389e-41, -4.952749292309633e-41, 4.998571752093055e-41, 5.21170924851686e-41, 4.943360592598657e-41, -4.917436571008648e-41, 5.006699283186139e-41, -6.026424175675308e-41, 4.908188001144104e-41, 5.717998383677416e-41, -4.989042922535646e-41, -6.071405856380135e-41, 4.945182280602279e-41, 4.919818778398e-41, -5.003616426564624e-41, 5.086293035959789e-41, -5.345673381706312e-41, -5.129032639121695e-41, -5.032202915236851e-41, -4.905385404215455e-41, 5.248843657821467e-41, 5.366552728824752e-41, -4.956392668316878e-41, -5.046496159572964e-41, -5.835847584527133e-41, 4.927666049798219e-41, -5.191110161091285e-41, -5.42232440770488e-41, -5.029960837693931e-41, 5.179339253990956e-41, 5.208626391895345e-41, -4.908888650376267e-41, -5.170931463205007e-41, 5.235671452256814e-41, 5.270003264632772e-41, -5.557129319972927e-41, -5.59342295019894e-41, 4.916315532237188e-41, 5.083490439031139e-41, 5.056024989130372e-41, -5.680163325140646e-41, 6.03441157692196e-41, 5.500096472474907e-41, -5.93562003518706e-41, 5.259913915689633e-41, 5.01580772320425e-41, -4.974749678199533e-41, -4.939156697205683e-41, -5.027578630304579e-41, 4.955271629545418e-41, 5.554326723044277e-41, -5.030941746618958e-41, -5.13211549574321e-41, 4.958354486166933e-41, -5.395419477189843e-41, 5.042572523872854e-41, 5.829962130976969e-41, -5.612900998853055e-41, 5.277009756954396e-41, -5.38224727162519e-41, -5.09652251474936e-41, -5.083490439031139e-41, 5.005297984721814e-41, -5.563995682448119e-41, 4.919818778398e-41, -6.157865971628976e-41, 5.0954014759779e-41, 7.591814690172561e-41, -5.795209929061713e-41, -5.13323653451467e-41, -5.081808880873949e-41, 4.989463312074944e-41, 4.906646572833347e-41, -5.151033025011595e-41, 4.906366313140482e-41, -5.25122586521082e-41, 4.930748906419734e-41, -5.295366766837051e-41, -5.357304158960208e-41, 5.900307313886075e-41, -5.366552728824752e-41, 4.950086825227416e-41, 4.970685912652991e-41, 5.000113180403812e-41, -5.532606596847243e-41, -5.204983015888101e-41, -5.281634041886668e-41, -6.76392755744946e-41, -5.094981086438602e-41, -5.122166276646504e-41, 4.935373191352006e-41, 5.47431258073133e-41, -5.980321456199022e-41, -6.305142440229514e-41, -4.98245681975332e-41, 5.060789403909077e-41, -4.995629025317973e-41, -5.278971574804451e-41, -4.913653065154971e-41, 4.933271243655518e-41, 6.139929351285618e-41, 6.139929351285618e-41, -4.940417865823575e-41, 5.802636810922635e-41, 5.049579016194478e-41, 5.605614246838566e-41, -5.860790697192115e-41, -5.039069277712042e-41, -5.030801616772526e-41, -5.175555748137279e-41, 4.921079947015893e-41, -6.168936229497142e-41, 5.164625620115546e-41, -5.487064396756686e-41, -5.226983401778e-41, 4.920659557476595e-41, 4.979514092978237e-41, 4.909168910069132e-41, -5.233008985174597e-41, -4.913092545769241e-41, -6.305562829768812e-41, -6.11232377153842e-41, -4.904684754983292e-41, -6.236899205016896e-41, -5.109694720314013e-41, -4.986100195760564e-41, -5.210167820206102e-41], [-4.207221536489669e-06, -4.207021447655279e-06, -6.733568443451077e-05, -6.743386620655656e-05, -6.534272688440979e-05, -6.614685116801411e-05, -6.561058398801833e-05, -6.618210318265483e-05, -6.013981328578666e-05, -6.56776173855178e-05, -5.992951264488511e-05, -6.554020365001634e-05, -0.0002695761213544756, -0.00027767478604801, 1.3905561424554236e-10, 1.4398988668062884e-09, -9.969789577235488e-11, -6.978608871577308e-05, -1.6460459661971072e-08, 6.75931741134228e-11, -6.808770558563992e-05, -4.1508749859531235e-07, 1.8572811691375257e-11, -6.868632772238925e-05, -1.8748730212791997e-07, 1.4969506190176673e-10, -6.604207737836987e-05, -1.7029394427936495e-07, -4.4400771948005513e-10, -6.689460133202374e-05, -5.310351980369887e-07, -5.071398301303986e-10, -6.466673221439123e-05, -2.3320251330005703e-06, -1.1922705045464e-09, -6.870130891911685e-05, -4.165250629739603e-06, 3.313415375405526e-10, -6.778519309591502e-05, -5.339270501281135e-06, 4.016144750096373e-09, -6.819629925303161e-05, -4.65975108454586e-06, -4.283029042539965e-09, -6.67245767544955e-05, -6.286732514126925e-06, -1.9642237703010323e-07, -6.401136488420889e-05, -9.906052582664415e-06, -4.440614134182397e-07, -5.572209192905575e-05, -1.4139098311716225e-05, -6.369501193148608e-07, -5.006451829103753e-05, -1.6973926904029213e-05, -1.5895778915364644e-06, -4.6812707296339795e-05, -1.3642322301166132e-05, -2.294420255566365e-06, -4.3085048673674464e-05, -1.431708824384259e-05, -2.424161493763677e-06, -4.908647679258138e-05, -1.578056617290713e-05, -1.972873405975406e-06, 2.4768038201727904e-05, -1.3973823115520645e-05, -7.913606054898992e-07, 5.707240052288398e-05, -1.3210453289502766e-05, -3.962917674016353e-07, 7.091839506756514e-05, -9.297260476159863e-06, -2.6896723070990447e-08, 6.764468707842752e-05, -4.260904461261816e-06, 6.292300014365537e-09, 6.594859587494284e-05, -2.9041498237347696e-06, -4.571386824636647e-09, 5.9992686146870255e-05, -2.4129617486323696e-06, 1.674672400753252e-09, 7.529198774136603e-05, -1.3888699186281883e-06, 2.9954581037827666e-09, 6.768662569811568e-05, -3.949765812194528e-07, -2.2244188713216317e-09, 6.771381595171988e-05, -1.379098506504306e-07, 1.1249969844584484e-09, 6.80509619996883e-05, -2.8870186952190124e-07, 4.880433279730312e-10, 6.034234684193507e-05, -1.878965349533246e-06, 3.3212602112975276e-10, 6.313098856480792e-05, -4.303175046516117e-06, -4.464058900310874e-09, 5.4933203500695527e-05, -1.2574729225889314e-05, -6.372674477006512e-08, 3.5817764000967145e-05, -8.453576811007224e-06, 1.1612489743129117e-06, 1.1537946193129756e-05, -4.835564595850883e-06, -7.5848575420423e-08, -9.376667442495545e-09, -4.5552943106486055e-07, -1.734628618521583e-08, -1.4504995426989353e-08, 8.766434689277958e-09, -9.09258446313288e-10, -1.2662132923639047e-41, -1.6173027361787717e-09, -5.970882899219987e-09, 5.183963538923228e-41, 5.93898315150144e-41, 5.769706297011002e-41, 5.212550027595455e-41, 4.930188387034004e-41, 5.181861591226741e-41, -4.937755398741358e-41, 5.255009371064496e-41, 5.154956660711705e-41, -6.282441405107452e-41, -4.925143712562435e-41, -5.141644325300619e-41, -5.609678012385108e-41, -4.983437728678347e-41, -5.442503105591157e-41, -5.240295737189086e-41, 4.985259416681969e-41, -5.192931849094907e-41, -6.304021401458055e-41, -5.409432461833091e-41, -5.300831830847918e-41, 5.99769755715665e-41, -5.07396160947373e-41, -5.186485876159013e-41, -5.277290016647261e-41, 4.947704617838064e-41, 5.112076927703365e-41, -5.666010210650965e-41, 4.975029937892398e-41, 5.791706682900901e-41, 4.988062013610619e-41, -4.908608390683402e-41, 5.072420181162973e-41, -5.160842114261869e-41, 6.1320820798854e-41, 5.886154199396394e-41, 5.272945991407854e-41, 5.522937637443402e-41, -5.362208703585345e-41, -5.308118582862407e-41, -5.075503037784487e-41, 5.034164733086905e-41, -5.031922655543986e-41, -5.874243162449633e-42, 2.5489619066068423e-42, -4.997590843168028e-41, 4.925704231948164e-41, 4.939717216591413e-41, 6.216860636977051e-41, 5.842713947002325e-41, 4.951207863998876e-41, 5.129453028660993e-41, 5.612480609313757e-41, -5.684647480226485e-41, 5.355482470956586e-41, 6.270250108467826e-41, 5.181861591226741e-41, -5.679182416215619e-41, -5.297889104072836e-41, -5.017349151515008e-41, -6.199484536019423e-41, 5.011884087504141e-41, -5.119643939410719e-41, -6.232415049931056e-41, -6.203127912026668e-41, 5.525600104525619e-41, -6.187573499072662e-41, 5.621729179178301e-41, -5.031362136158256e-41, 5.457356869313e-41, -5.140943676068456e-41, 5.319609230269871e-41, 5.255429760603794e-41, 5.675398910361942e-41, -5.057146027901832e-41, -5.492809720460418e-41, -5.161963153033329e-41, -4.980495001903265e-41, 5.216193403602699e-41, -5.187606914930473e-41, 5.738317211410126e-41, 5.170931463205007e-41, -4.955131499698986e-41, 5.087554204577681e-41, -5.157619127793922e-41, -5.157478997947489e-41, -6.213357390816239e-41, -4.910710338379889e-41, -1.757088144416888e-41, 5.301672609926513e-41, -5.865835371663684e-41, 5.029120058615336e-41, 5.005017725028949e-41, 4.925844361794597e-41, -4.951067734152444e-41, -5.110815759085473e-41, 6.268148160771339e-41, 5.073681349780865e-41, 5.042292264179989e-41, 4.922341115633785e-41, 4.996890193935865e-41, 5.809503173397827e-41, -5.434795964037371e-41, -5.968690678945126e-41, -5.061490053141239e-41, -5.146829129618621e-41, -4.922200985787352e-41, 6.171038177193629e-41, -4.968443835110071e-41, 4.949386175995254e-41, -4.908328130990537e-41, 4.930468646726869e-41, -5.137720689600509e-41, 4.976711496049588e-41, -4.908188001144104e-41, -6.02880638306466e-41, 5.36304948266394e-41, 5.03836862847988e-41, -5.130013548046723e-41, 5.214792105138374e-41, -5.694456569476759e-41, -5.139682507450564e-41, -5.15131328470446e-41, -5.115580173864177e-41, 6.921573634686001e-41, -5.633219826585765e-41, 5.222779506385026e-41, -5.150892895165163e-41, 4.913793195001404e-41, 5.144446922229268e-41, -5.073120830395135e-41, -5.662506964490153e-41, 5.728087732620555e-41, -6.055711313579697e-41, 4.951347993845309e-41, 4.918417479933675e-41, 5.173173540747927e-41, -5.567779188301796e-41, 4.994367856700081e-41, 6.181127526136768e-41, 5.001234219175272e-41, -4.923041764865947e-41, -5.01973135890436e-41, 4.955411759391851e-41, -5.151033025011595e-41, -5.806980836162042e-41, -5.16714795735133e-41, -5.102548098145956e-41, -4.994227726853648e-41, 5.096382384902927e-41, -4.947564487991632e-41, 4.954290720620391e-41, -4.7293823170962576e-42, -5.296487805608511e-41, -4.938175788280655e-41, 4.984138377910509e-41, 5.49519192784977e-41, -5.282054431425965e-41, 6.008907944871248e-41, 4.993386947775053e-41, -6.303881271611622e-41, 4.917156311315783e-41, -5.086293035959789e-41, 5.399343112889953e-41, -5.944588345358739e-41, -5.3201697496556e-41, 4.922200985787352e-41, 5.342590525084798e-41, -4.906646572833347e-41, 4.982877209292617e-41, 5.01580772320425e-41, -4.971947081270883e-41, -5.548441269494113e-41, 5.636442813053712e-41, 5.027999019843876e-41, 5.403827267975792e-41, 5.207365223277453e-41, 5.160421724722571e-41, 5.596505806820454e-41, 5.798432915529661e-41, 6.247268813652899e-41, -4.950226955073849e-41, -5.229085349474487e-41, -5.270003264632772e-41, 5.108013162156823e-41, 5.985366130670591e-41, -5.217734831913456e-41, -5.058267066673292e-41, 5.157478997947489e-41, 5.086433165806221e-41, 5.271544692943529e-41, 4.933271243655518e-41, 5.023795124450902e-41, -5.01580772320425e-41, -4.990023831460674e-41, 5.263277032004013e-41, 5.754432143749861e-41, 5.144166662536403e-41, 5.042852783565719e-41, 4.913933324847836e-41, -5.081949010720382e-41, -5.253748202446604e-41, -5.038228498633447e-41, 4.954290720620391e-41, 5.968550549098693e-41, -5.523918546368429e-41, -4.92262137532665e-41, 5.064152520223456e-41, -5.097503423674387e-41, 5.292704299754834e-41, -5.258372487378876e-41, 5.150892895165163e-41, 5.023514864758037e-41, -5.148650817622243e-41, 5.759336688374998e-42, -5.980601715891887e-41, -5.618085803171057e-41, -5.113618356014122e-41, -4.909869559301294e-41, -5.672175923893995e-41, 5.407610773829469e-41, 5.078726024252435e-41, 6.119330263860044e-41, 5.233008985174597e-41, -6.065660532676403e-41, -1.1854985008187952e-41, -4.904965014676157e-41, -5.291022741597644e-41, 4.916175402390756e-41, -4.995208635778675e-41, 4.90622618329405e-41, 5.007960451804031e-41, 4.97853318405321e-41, -5.169249905047818e-41, -4.908748520529834e-41, 4.963118900945637e-41, -4.919678648551568e-41, -5.008801230882626e-41, 5.429611159719369e-41, 5.825057586351832e-41, -5.382387401471622e-41, 5.511727249728803e-41, -4.911691247304916e-41, -5.18690626569831e-41, -4.946583579066604e-41, -5.03780810909415e-41, -6.287345949732589e-41, 5.422744797244177e-41, 4.92150033655519e-41, 4.990304091153539e-41, 5.076904336248812e-41, -5.682965922069296e-41, -4.948125007377362e-41, 5.433254535726613e-41, 5.047897458037289e-41, -5.068076155923566e-41, -5.956359252459067e-41, 5.117682121560664e-41, 5.095541605824332e-41, 4.906506442986914e-41, 5.526861273143511e-41, 6.288186728811184e-41, -5.255009371064496e-41, -4.995068505932243e-41, 5.370756624217726e-41, -5.165186139501276e-41, 6.191497134772772e-41, -5.623270607489058e-41, 5.657602419865016e-41, -4.911971506997781e-41, 5.522937637443402e-41, -5.116420952942772e-41, -4.931589685498329e-41, 6.014793398421412e-41, 5.316666503494788e-41, -4.906366313140482e-41, -5.74868682004613e-41, -1.8399048836584848e-42, -5.488605825067444e-41, 6.270250108467826e-41, 5.194333147559232e-41, -4.919958908244433e-41, 7.091130748869304e-41, -4.908188001144104e-41, -5.411114019990281e-41, 4.909309039915564e-41, -5.035425901704798e-41, -5.059808494984049e-41, -5.523077767289834e-41, -5.032202915236851e-41, -5.186205616466148e-41, 5.558670748283684e-41, -5.022253696140144e-41, 5.54998269780487e-41, -5.278270925572288e-41, 5.108293421849688e-41, 5.204702756195236e-41, 5.346794420477772e-41, 4.958354486166933e-41, -4.946723708913037e-41, -4.948825656609524e-41, 4.965781368027854e-41, -5.270984173557799e-41, 4.958354486166933e-41, -5.526721143297079e-41, 5.058267066673292e-41, -5.015947853050683e-41, -5.372858571914214e-41, -5.344272083241987e-41, -1.7156097098728735e-41, 5.288360274515427e-41, -4.97965422282467e-41, -6.535095518225217e-41, 5.805299278004852e-41, 5.776852919179058e-41, -5.048878366962316e-41, -5.922587959468839e-41, -5.523217897136266e-41, 4.925704231948164e-41, -5.071439272237945e-41, -4.915895142697891e-41, 4.912391896537079e-41, -4.967182666492179e-41, -5.192371329709177e-41, -5.356463379881613e-41, -6.304581920843784e-41, 5.11067562923904e-41, -4.961997862174177e-41, 5.001514478868137e-41, -4.916595791930053e-41, -4.915054363619296e-41, -5.174714969058684e-41, 5.09203835966352e-41, 5.081949010720382e-41, 5.021272787215117e-41, -5.0350055121655e-41, -9.49519839426496e-42, 6.273753354628639e-41, -4.945322410448712e-41, 5.100446150449469e-41, 5.328017021055819e-41, 5.38000519408227e-41, -5.789324475511549e-41, -4.950787474459579e-41, -3.4208498111097434e-41, 5.018189930593602e-41, 4.930048257187571e-41, 5.01917083951863e-41, 4.907627481758374e-41, 5.141364065607754e-41, 5.170931463205007e-41, -6.198643756940828e-41, 5.143045623764944e-41, -4.937194879355628e-41, -5.020992527522252e-41, 5.285837937279642e-41, 4.91869773962654e-41, 5.036827200169122e-41, -5.234970803024652e-41, 5.366412598978319e-41, -5.819172132801668e-41, 4.944201371677252e-41, 4.973768769274506e-41, 4.935233061505573e-41, 5.233849764253192e-41, 5.647793330614743e-41, 5.234690543331787e-41, -5.487905175835281e-41, 5.126790561578776e-41, -4.906506442986914e-41, 4.942239553827197e-41, 5.471509983802681e-41, 5.581792172945044e-41, -5.074942518398758e-41, -5.667271379268858e-41, 4.992546168696458e-41, 6.272211926317881e-41, 4.965220848642124e-41, -5.147529778850783e-41, 6.03609313507915e-41, -5.033464083854743e-41, -4.955972278777581e-41, -6.087801048412735e-41, -4.974889808045966e-41, -5.118943290178557e-41, 5.972193925105938e-41, -5.041031095562097e-41, 5.05644537866967e-41, 4.988342273303484e-41, 6.096068709352252e-41, -5.684787610072918e-41, 5.088114723963411e-41, -4.907347222065509e-41], [-4.946163189527307e-41, -4.946163189527307e-41, -4.941959294134332e-41, -4.917436571008648e-41, -4.945462540295144e-41, -4.912251766690646e-41, -4.940978385209305e-41, -4.915474753158593e-41, -4.935233061505573e-41, -4.945182280602279e-41, -4.939717216591413e-41, -4.914493844233566e-41, -2.989729527291e-31, -5.3215448434350685e-33, 5.158740166565382e-41, 4.911691247304916e-41, 4.937755398741358e-41, -4.948685526763091e-41, 4.916735921776486e-41, -4.965641238181422e-41, -4.905245274369022e-41, 4.928086439337517e-41, 5.049018496808748e-41, 5.443484014516184e-41, 4.910570208533456e-41, 5.002074998253867e-41, -4.9418191642879e-41, 4.92486345286957e-41, 4.928787088569679e-41, -4.941398774748602e-41, -4.994788246239378e-41, -4.919538518705135e-41, -4.906786702679779e-41, -4.935513321198438e-41, 4.943921111984387e-41, -4.938315918127088e-41, -4.915614883005026e-41, -4.924162803637407e-41, 4.946443449220172e-41, -4.939156697205683e-41, -4.925844361794597e-41, -4.931869945191194e-41, -4.93957708674498e-41, 4.946863838759469e-41, -4.947844747684497e-41, -4.921920726094487e-41, 4.947144098452334e-41, 4.92206085594092e-41, -4.932850854116221e-41, 4.945182280602279e-41, -4.935373191352006e-41, -4.947003968605902e-41, 4.913092545769241e-41, 4.924443063330272e-41, -4.914073454694269e-41, -4.954711110159688e-41, -4.933131113809086e-41, -4.927385790105354e-41, -4.908328130990537e-41, -4.933551503348383e-41, -4.929627867648274e-41, -4.931169295959031e-41, -4.911691247304916e-41, -4.914633974079998e-41, -4.906926832526212e-41, 4.945322410448712e-41, -4.910149818994159e-41, -4.926685140873192e-41, 4.916175402390756e-41, -4.944341501523685e-41, -4.913372805462106e-41, 4.932010075037626e-41, -4.927245660258922e-41, 4.938035658434223e-41, 4.904965014676157e-41, -4.943640852291522e-41, 4.909589299608429e-41, 4.91869773962654e-41, -4.909168910069132e-41, 4.908608390683402e-41, 4.92093981716946e-41, -4.90510514452259e-41, 5.45623583054154e-41, 4.90566566390832e-41, -4.905385404215455e-41, -6.040577290164989e-41, 4.939717216591413e-41, -4.92430293348384e-41, 5.618366062863922e-41, 4.939156697205683e-41, 4.950507214766714e-41, -4.942659943366495e-41, 4.908888650376267e-41, 4.924162803637407e-41, 4.994507986546513e-41, 4.936213970430601e-41, 4.921780596248055e-41, -4.943080332905792e-41, 4.951908513231039e-41, 4.910430078687024e-41, -4.919958908244433e-41, 4.947564487991632e-41, 4.905245274369022e-41, 5.291723390829807e-41, 4.954150590773958e-41, -4.911270857765619e-41, 4.906366313140482e-41, 4.927806179644652e-41, 4.947424358145199e-41, -4.920519427630163e-41, 4.943220462752225e-41, -4.906366313140482e-41, -4.953309811695363e-41, 4.918557609780108e-41, -6.163891555025573e-41, -4.936914619662763e-41, -6.037774693236339e-41, -4.927806179644652e-41, 4.929627867648274e-41, -5.044954731262206e-41, 4.945742799988009e-41, -5.943467306587279e-41, -5.851401997481139e-41, 4.928646958723247e-41, -4.949666435688119e-41, 6.654065757846394e-41, -6.172579605504387e-41, -1.1059047480451456e-41, 5.133516794207535e-41, 6.256657513363876e-41, -5.135058222518292e-41, -5.989149636524268e-41, -4.956392668316878e-41, 2.0477174459178552e-41, -4.909589299608429e-41, -5.531205298382918e-41, 5.673997611897617e-41, 4.981055521288995e-41, 5.650175538004095e-41, 5.064572909762754e-41, 4.915755012851458e-41, 4.907767611604807e-41, -5.616964764399597e-41, -5.144867311768566e-41, 5.367954027289077e-41, 4.969424744035099e-41, -5.53302698638654e-41, -5.257811967993146e-41, -4.934672542119843e-41, 4.915474753158593e-41, 4.929347607955409e-41, -4.938035658434223e-41, -5.045094861108639e-41, 5.263417161850445e-41, -5.184944447848256e-41, 5.175976137676577e-41, 4.920519427630163e-41, -4.927245660258922e-41, 5.872701734138876e-41, -5.185785226926851e-41, -4.907907741451239e-41, -5.027438500458146e-41, 6.100272604745226e-41, 4.929908127341139e-41, 4.911971506997781e-41, -5.042712653719287e-41, 4.950507214766714e-41, -5.009782139807654e-41, 5.328717670287982e-41, -5.083910828570436e-41, 5.53470854454373e-41, 5.268461836322015e-41, -4.964520199409962e-41, -4.940277735977143e-41, -4.90566566390832e-41, 5.310921179791057e-41, -5.557549709512225e-41, 5.052942132508858e-41, 5.852663166099031e-41, -4.915755012851458e-41, -5.874803681835363e-41, 5.119643939410719e-41, -5.013425515814898e-41, -5.277149886800829e-41, -5.045655380494369e-41, -5.046496159572964e-41, -4.994507986546513e-41, -4.93733500920206e-41, 5.589219054805965e-41, 5.916842635765108e-41, -6.052908716651047e-41, 5.776432529639761e-41, 4.927105530412489e-41, 4.967182666492179e-41, 5.101146799681632e-41, -4.938035658434223e-41, -5.116981472328502e-41, 5.0186103201329e-41, 5.318488191498411e-41, 5.76732408962165e-41, 5.934218736722735e-41, 5.094140307360007e-41, -5.224180804849351e-41, -5.089516022427736e-41, -4.913933324847836e-41, -5.962805225394962e-41, 4.987501494224889e-41, -5.089656152274168e-41, 5.305876505319487e-41, 4.947284228298767e-41, -5.400604281507845e-41, 4.996750064089433e-41, -5.062190702373402e-41, -5.280933392654506e-41, -5.136879910521914e-41, -5.01748928136144e-41, -4.945182280602279e-41, -5.130574067432453e-41, 5.836548233759296e-41, 5.011043308425546e-41, -5.040610706022799e-41, 5.295086507144186e-41, -5.168409125969223e-41, -4.915334623312161e-41, -4.913512935308539e-41, 5.129733288353858e-41, 5.051120444505236e-41, 5.483280890903009e-41, -5.472210633034843e-41, 4.950927604306011e-41, -6.043800276632936e-41, 4.958354486166933e-41, 4.999272401325217e-41, -5.113197966474825e-41, -4.904965014676157e-41, 5.470669204724086e-41, 4.96213799202061e-41, 4.978673313899643e-41, -4.915755012851458e-41, 5.226282752545838e-41, 5.029400318308201e-41, 5.255009371064496e-41, 6.153942335928867e-41, 5.803897979540527e-41, -4.993386947775053e-41, -5.024495773683064e-41, 4.999832920710947e-41, -5.280232743422343e-41, -5.074802388552325e-41, 4.920519427630163e-41, -7.337198759204742e-41, -4.971386561885154e-41, 4.910710338379889e-41, -6.305002310383082e-41, 5.163924970883383e-41, -5.191530550630582e-41, -4.995909285010838e-41, -5.049719146040911e-41, 5.174154449672955e-41, 5.006559153339706e-41, 4.921079947015893e-41, 5.392196490721896e-41, 4.918277350087243e-41, 5.485943357985226e-41, -5.343711563856257e-41, 6.199064146480126e-41, 5.99265288268508e-41, 4.907907741451239e-41, -5.460299596088082e-41, 5.294245728065591e-41, -5.082929919645409e-41, -5.703705139341303e-41, 5.736915912945801e-41, -5.202040289113018e-41, 6.133343248503292e-41, 5.702023581184113e-41, 4.946583579066604e-41, -5.062891351605564e-41, -5.354361432185126e-41, 6.137126754356969e-41, 5.178078085373064e-41, 5.278411055418721e-41, -5.26369742154331e-41, 4.911691247304916e-41, -5.078305634713137e-41, 5.047477068497991e-41, -5.424005965862069e-41, -5.400043762122115e-41, -4.907627481758374e-41, 5.410693630450984e-41, -4.985119286835537e-41, 5.409572591679524e-41, 5.336705071534633e-41, 5.167988736429925e-41, -5.195454186330692e-41, -5.219416390070646e-41, -5.426107913558557e-41, 4.955271629545418e-41, -5.53134542822935e-41, 4.906646572833347e-41, 5.310781049944624e-41, -4.935793580891303e-41, 4.949246046148821e-41, -5.004457205643219e-41, -5.026877981072416e-41, 5.815108367255126e-41, -4.909168910069132e-41, 5.07508264824519e-41, 4.993106688082188e-41, 6.112744161077717e-41, 5.098484332599414e-41, 5.088535113502708e-41, -7.454907830208027e-43, -5.350718056177882e-41, -6.103075201673876e-41, -4.972787860349478e-41, 6.010309243335573e-41, -6.671581988650454e-42, 5.710711631662927e-41, -4.960876823402717e-41, 6.007646776253356e-41, -3.655987693423448e-42, 4.959475524938393e-41, 5.079987192870327e-41, -5.855465763027681e-41, -4.965921497874287e-41, 5.522517247904104e-41, 5.141924584993484e-41, 4.969985263420829e-41, 5.040190316483502e-41, 5.266640148318392e-41, 5.254168591985902e-41, -6.089902996109223e-41, 1.4377322243972623e-42, 5.100025760910172e-41, 6.029647162143255e-41, -5.119503809564287e-41, -4.94406124183082e-41, 4.908468260836969e-41, -5.015387333664953e-41, 5.755553182521321e-41, -5.239735217803356e-41, -5.052661872815993e-41, -5.70860968396644e-41, 4.954711110159688e-41, 4.92430293348384e-41, -4.988482403149916e-41, 6.075609751773109e-41, -4.908328130990537e-41, 5.711692540587954e-41, -4.917856960547946e-41, 5.0186103201329e-41, -4.991285000078566e-41, -4.969845133574396e-41, -5.93393847702987e-41, 5.160421724722571e-41, 5.99265288268508e-41, 5.015947853050683e-41, -4.925844361794597e-41, -5.027018110918849e-41, 4.918977999319405e-41, 5.552364905194223e-41, -5.0954014759779e-41, 4.907767611604807e-41, 5.388412984868219e-41, 4.914213584540701e-41, 4.906506442986914e-41, -5.943187046894414e-41, 5.226002492852973e-41, -4.943360592598657e-41, -5.079566803331029e-41, -4.915474753158593e-41, -5.724864746152608e-41, -4.915474753158593e-41, 4.957934096627635e-41, 5.753451234824834e-41, -5.76676357023592e-41, -5.079006283945299e-41, 4.929767997494706e-41, 5.396540515961303e-41, 5.025756942300956e-41, 4.946863838759469e-41, -4.993807337314351e-41, -5.754151884056996e-41, -4.934672542119843e-41, -5.571282434462608e-41, -5.910396662829213e-41, 5.662927354029451e-41, -5.983964832206266e-41, -4.917436571008648e-41, 5.846917842395299e-41, 6.017035475964332e-41, -4.91925825901227e-41, 4.909869559301294e-41, -5.774891101329004e-41, 5.97681821003821e-41, 5.735935004020774e-41, -5.451751675455701e-41, 5.099465241524442e-41, 5.116420952942772e-41, 5.010062399500518e-41, 5.026317461686686e-41, -4.913653065154971e-41, 5.26481846031477e-41, -4.908047871297672e-41, -5.211569118670427e-41, 5.025616812454524e-41, -4.948825656609524e-41, 4.944481631370117e-41, -5.754292013903429e-41, -4.912672156229944e-41, 5.684647480226485e-41, -5.526440883604214e-41, -6.027545214446768e-41, 5.03724758970842e-41, 5.517892962971832e-41, 6.07112559668727e-41, -4.935092931659141e-41, -4.99604941485727e-41, 5.241556905806978e-41, -5.285557677586778e-41, 5.412235058761741e-41, 6.007226386714058e-41, -5.336144552148903e-41, -4.910710338379889e-41, 5.079847063023894e-41, 4.967883315724341e-41, 5.980181326352589e-41, -5.708889943659305e-41, 5.401024671047142e-41, -5.925530686243921e-41, -4.907907741451239e-41, -4.935233061505573e-41, -5.042992913412152e-41, -7.377836414670162e-42, 5.504020108175016e-41, -4.905945923601185e-41, -5.319749360116303e-41, -5.057286157748265e-41, 5.879287836921203e-41, 5.909135494211321e-41, -5.050840184812371e-41, 5.558670748283684e-41, -4.945882929834442e-41, -5.947671201980254e-41, -4.968724094802936e-41, -4.920799687323028e-41, -4.911551117458484e-41, -5.028559539229606e-41, 5.62957645057852e-41, -5.137300300061212e-41, -6.174821683047306e-41, 5.44040115789467e-41, -4.93789552858779e-41, 6.289868286968374e-41, 4.97629110651029e-41, 4.98133578098186e-41, -4.932850854116221e-41, -5.42008233016196e-41, 5.102688227992389e-41, -4.928787088569679e-41, -5.083770698724004e-41, -6.687416661297325e-41, -5.580671134173584e-41, 4.985119286835537e-41, -4.938035658434223e-41, -6.157585711936111e-41, -4.948405267070227e-41, 5.007960451804031e-41, 4.905385404215455e-41, 4.964380069563529e-41, -5.390514932564706e-41, 4.926545011026759e-41, -5.159300685951111e-41, 4.908888650376267e-41, 5.815528756794423e-41, -6.16599350272206e-41, 6.1100816939955e-41, -4.932010075037626e-41, 5.032483174929716e-41, 4.92037929778373e-41, 5.938843021655007e-41, 5.134777962825427e-41, -2.0814887389080833e-41, 5.209887560513237e-41, -5.102828357838821e-41, 5.122306406492936e-41, 5.082229270413247e-41, 5.352119354642206e-41, -5.401585190432872e-41, 5.598888014209807e-41, -5.763120194228675e-41, 5.02029187829009e-41, 5.357584418653073e-41, 7.069550752518702e-41, -5.073541219934433e-41, -5.941645618583657e-41, 5.605053727452836e-41, -5.046075770033666e-41, 5.421904018165582e-41, -3.096869606157846e-42, -5.09708303413509e-41, 5.006419023493274e-41, -5.462121284091704e-41, 4.969985263420829e-41, 5.126790561578776e-41, 4.913653065154971e-41, 5.068916935002161e-41, -5.28513728804748e-41, -4.947844747684497e-41, 5.207645482970318e-41, 4.915334623312161e-41], [-4.906086053447617e-41, -4.906086053447617e-41, -4.907347222065509e-41, -4.93845604797352e-41, -4.907207092219077e-41, -5.024075384143767e-41, 4.949666435688119e-41, -4.909449169761997e-41, 4.936774489816331e-41, -4.913512935308539e-41, 4.913933324847836e-41, -5.201199510034424e-41, -9.743659318881883e-21, -1.2408305792312219e-18, -5.267200667704122e-41, -4.954711110159688e-41, -4.956252538470445e-41, -4.952048643077471e-41, -4.930889036266166e-41, -4.946023059680874e-41, -4.908047871297672e-41, 4.963399160638502e-41, -4.937755398741358e-41, -5.291303001290509e-41, 4.947564487991632e-41, 4.952469032616768e-41, -4.915614883005026e-41, 4.927245660258922e-41, 4.947003968605902e-41, -4.948125007377362e-41, -4.915334623312161e-41, 4.92037929778373e-41, 4.934112022734113e-41, -4.909449169761997e-41, 4.956672928009743e-41, 4.929347607955409e-41, -4.9254239722553e-41, -4.932150204884059e-41, -4.91869773962654e-41, -4.925143712562435e-41, -4.930889036266166e-41, 4.918557609780108e-41, -4.930188387034004e-41, 4.904965014676157e-41, -4.949246046148821e-41, -4.949386175995254e-41, 4.907347222065509e-41, 4.924723323023137e-41, 4.955692019084716e-41, 4.920659557476595e-41, -4.915194493465728e-41, 4.914774103926431e-41, 4.946163189527307e-41, 4.94350072244509e-41, 4.935373191352006e-41, -4.960736693556285e-41, 4.916735921776486e-41, 4.930889036266166e-41, -5.629856710271385e-41, -4.948545396916659e-41, 4.927105530412489e-41, -4.926124621487462e-41, 4.926965400566057e-41, 4.915054363619296e-41, 4.929767997494706e-41, 4.907907741451239e-41, -4.94069812551644e-41, 4.939436956898548e-41, -4.232355764784888e-40, 4.947003968605902e-41, 4.904824884829725e-41, 4.913372805462106e-41, -4.926965400566057e-41, 4.915474753158593e-41, -4.907907741451239e-41, -4.93845604797352e-41, -4.986100195760564e-41, 4.906646572833347e-41, 4.950367084920281e-41, -4.917716830701513e-41, -4.907207092219077e-41, 4.947984877530929e-41, -4.937054749509196e-41, 4.923882543944542e-41, -4.941118515055737e-41, 4.920659557476595e-41, 4.908468260836969e-41, 4.959615654784825e-41, 4.958634745859798e-41, 4.915755012851458e-41, 4.949386175995254e-41, -4.94125864490217e-41, 4.917997090394378e-41, 4.929347607955409e-41, -4.917716830701513e-41, -4.927946309491084e-41, -4.90566566390832e-41, 4.954010460927526e-41, 4.926264751333894e-41, -4.923882543944542e-41, 4.910990598072754e-41, -4.909869559301294e-41, -4.947003968605902e-41, -4.917856960547946e-41, -4.948125007377362e-41, -4.951488123691741e-41, -5.524198806061294e-41, 4.907907741451239e-41, -4.928646958723247e-41, -4.905245274369022e-41, 4.913512935308539e-41, 4.955832148931148e-41, 4.942239553827197e-41, -4.928086439337517e-41, -4.955832148931148e-41, -4.941538904595035e-41, 4.983157468985482e-41, 4.946303319373739e-41, -4.929347607955409e-41, 5.329558449366577e-41, -5.028559539229606e-41, -5.019451099211495e-41, 4.910570208533456e-41, 5.486784137063821e-41, -5.638404630903766e-41, -5.3257749435129e-41, 4.966762276952882e-41, 5.349176627867124e-41, 5.028559539229606e-41, -5.005438114568247e-41, -5.810624212169286e-41, 4.915614883005026e-41, -4.974049028967371e-41, -4.965781368027854e-41, -5.016508372436413e-41, 5.742941496342398e-41, 5.04005018663707e-41, 6.072526895151595e-41, -5.488465695221011e-41, 5.328157150902252e-41, -4.955972278777581e-41, 5.567358798762498e-41, 4.928506828876814e-41, 4.916876051622918e-41, -6.244326086877817e-41, 5.011743957657708e-41, -4.924162803637407e-41, -5.153835621940245e-41, 4.932710724269789e-41, 4.918417479933675e-41, -4.986940974839159e-41, -5.669933846351075e-41, 4.96213799202061e-41, 5.029260188461768e-41, -4.93789552858779e-41, -4.334216150156659e-42, -5.345393122013447e-41, -5.123987964650126e-41, -5.65325839462561e-41, 6.215879728052024e-41, 4.953169681848931e-41, 5.062190702373402e-41, -5.322271697352088e-41, -6.138528052821294e-41, 5.075362907938055e-41, 5.395279347343411e-41, -5.132395755436075e-41, -5.146408740079323e-41, 4.936914619662763e-41, 5.436337392348128e-41, -5.317507282573383e-41, -5.078585894406002e-41, 5.537651271318812e-41, -4.929347607955409e-41, 6.086680009641275e-41, 5.150472505625865e-41, -6.513655651721047e-41, -5.034725252472635e-41, 4.916175402390756e-41, -4.99717045362873e-41, 4.995068505932243e-41, 4.994367856700081e-41, -4.981475910828292e-41, 6.18182817536893e-41, 