{"version": 3, "feature_size": 512, "hidden1_size": 256, "hidden2_size": 64, "state_dict": {"fc1.weight": [[-1.0435637525482058e-33, -9.874256321017874e-34, -9.79181284105196e-34, -1.0554050214228172e-33, 1.0553028085155934e-33, -1.0425130626366622e-33, -1.0051440972240217e-33, -9.659528400611182e-34, 9.996645486747628e-34, -1.0495225905519132e-33, -1.0290229792640303e-33, -1.0498644941041094e-33, 9.882011828668416e-34, 1.0179055577701362e-33, -1.0838805455520217e-33, 9.763623017151303e-34, 1.0867509558199359e-33, 1.0539364800037548e-33, -1.0073557714779946e-33, 9.80588571248321e-34, -1.042776814181628e-33, -1.02363094994261e-33, -5.709243818829383e-34, -1.0078393772007626e-33, 1.0277436189670533e-33, -1.1000651742174253e-33, -1.0429021696338836e-33, 1.0863639610391261e-33, 1.10560744641056e-33, -9.970706550857804e-34, -9.622777671758677e-34, 1.0237060713784672e-33, -1.0128052898200098e-33, 9.516699408501543e-34, 1.0021397908027092e-33, -1.0280666962425371e-33, -1.0599076239639473e-33, -1.0733315857793456e-33, -1.078009318611649e-33, -1.0237051530235056e-33, -1.1702883802160833e-33, 1.0263733415288799e-33, 9.941763675888651e-34, -9.84467886277027e-34, 9.977439011081146e-34, -1.0570517237044261e-33, 1.0508758784232974e-33, 1.0170878545123454e-33, -1.0644381444959095e-33, -1.0060611664886554e-33, -1.0454321457175401e-33, -9.787311065030295e-34, -1.0349289200219507e-33, -1.0480824263011636e-33, 9.847628618906864e-34, 9.855666061530611e-34, 1.0509551324564817e-33, -9.651350449678313e-34, -1.0541915990120817e-33, -9.910006042962256e-34, -1.0088200884642338e-33, 1.0391275470707979e-33, 1.0031611851909784e-33, 9.499760351235201e-34, 1.0545132987551231e-33, 1.04970791458316e-33, 9.842735623671566e-34, -9.665855866296467e-34, 1.0199360405901894e-33, -9.991021480962913e-34, -1.0336910693692371e-33, 1.1536735022511795e-33, -1.0043573425284362e-33, 1.004470024682222e-33, 1.0250194108090226e-33, 9.650734233499092e-34, -1.0317359834915296e-33, 1.0032646837951484e-33, -1.0005629753336765e-33, 1.0528070870720038e-33, 1.005694742858985e-33, 1.058368828390324e-33, 1.010619788682442e-33, 9.81946910071994e-34, 1.1216887601427859e-33, -1.0836001717822513e-33, 1.007962253094622e-33, 9.603864151324938e-34, 1.0619707083851366e-33, -1.061963361545444e-33, 1.0168319089845531e-33, -9.821112956101167e-34, 9.723650699093576e-34, -1.0147169375080346e-33, -1.1745132722168317e-33, 1.0605336665412564e-33, 9.483178534048914e-34, 1.0688509319217972e-33, -9.82399750903549e-34, -1.05463121553219e-33, 1.0103608125832764e-33, 1.0831960955991562e-33, 1.0648840058297566e-33, 1.0292520169914483e-33, 1.1146256921332748e-33, 1.063388097432839e-33, -1.043907400974829e-33, 1.0508758784232974e-33, 1.1057988315845533e-33, 1.032899906569836e-33, 1.0510334681347045e-33, -1.0234074223449614e-33, -1.0681385639780996e-33, -1.032298292234505e-33, -1.0346153018025711e-33, 1.0319069811853758e-33, -1.0592287759763475e-33, 1.0976011360200102e-33, 1.1523532751584123e-33, -1.0688743499733174e-33, 1.0942665891545135e-33, 1.0447259307520852e-33, -1.0119894232721422e-33, 1.0128072183654291e-33, -1.0194410472658978e-33, 1.0559632894039616e-33, -1.0357107156007437e-33, 1.023524604438059e-33, 1.0492032785317719e-33, 1.0092861536072356e-33, -1.0219773599987892e-33, -9.651233818598192e-34, -1.0649423213698169e-33, -1.0454571249724951e-33, 1.052918850870828e-33, -1.1194058215437944e-33, -1.1314633630118578e-33, 1.1537815007946613e-33, 1.090839655779882e-33, -1.037669750404786e-33, -1.1612078700269734e-33, 1.094329037291901e-33, -1.0268612635199673e-33, 1.0304827963109577e-33, -9.655896306738133e-34, 9.718522604988114e-34, -1.1472326197281388e-33, 1.0461138406055209e-33, 1.0870861553809125e-33, 1.0597386466510166e-33, 1.0125151814876467e-33, 9.861043029830662e-34, -1.1655780457826438e-33, 1.1315495965427502e-33, 1.0920438028055055e-33, 1.165525883220826e-33, 1.1587835965993948e-33, 1.104620398497854e-33, 1.0379660117153916e-33, -1.0091460126400985e-33, 1.0287329627671633e-33, -1.048984159037939e-33, 9.76812020139816e-34, 1.0074469641256795e-33, 1.0379182572573895e-33, 1.1176514880606883e-33, -1.0633724853984922e-33, -1.162168469316786e-33, 1.0312055416657211e-33, -9.954128407091363e-34, -1.003364968156953e-33, 1.0611997493948903e-33, -1.1368588820821321e-33, 9.789446240315969e-34, -1.03651418435663e-33, 1.0032431942890474e-33, -1.016923652645215e-33, 1.0084831440288301e-33, -1.0549043342977638e-33, -1.154554388330327e-33, -1.1273090006721588e-33, -1.0142548212913675e-33, 1.0308886173684799e-33, 9.795611157173055e-34, -9.502275725474969e-34, 1.072593044719243e-33, -1.0534335888267936e-33, -9.610531408346009e-34, 1.1179788816044915e-33, 1.0500585425074913e-33, -1.0532457852371505e-33, 1.071773504751529e-33, 1.1174337460992977e-33, -1.0233119134289571e-33, 1.0718674524640987e-33, -1.0733523406014773e-33, -9.997083542064302e-34, -1.048291352054923e-33, 1.0397872014397007e-33, -1.1306204968281198e-33, -1.058483347254033e-33, 1.0446551255845474e-33, 1.023860538683005e-33, 1.0292260275460356e-33, 1.0913920462892723e-33, 1.0311581545497036e-33, 1.0460885858440775e-33, -1.0482072307404423e-33, -9.766548896058897e-34, -1.0417824194292293e-33, 9.841065135996452e-34, -1.1037500735007647e-33, -1.0357588374007305e-33, -1.0494721728645225e-33, 1.0019365588497116e-33, 1.0353369451313806e-33, 1.0641823826391095e-33, -1.0435497935527898e-33, 1.0240968314146195e-33, 1.0094499881323814e-33, 9.538589317365761e-34, 1.0611500663914688e-33, -9.907449342749218e-34, 1.054993322893541e-33, -1.0688469829954624e-33, -1.0598950425009737e-33, 1.0549769761752248e-33, -1.078975979044208e-33, 1.0716429146759924e-33, 1.0188954525832232e-33, -1.0180171378979681e-33, 1.059735340573155e-33, -1.0377271475898847e-33, -1.0118715983305715e-33, -1.0514041161971981e-33, 1.0537847677641018e-33, 1.044285212206023e-33, 9.84581854127759e-34, 1.060935079494963e-33, -9.518542546909434e-34, 1.0601778958291403e-33, -9.970845222457002e-34, 1.001987435714583e-33, 1.0115203275577672e-33, -1.0257420643282899e-33, 9.856476050606725e-34, 1.0438084023099707e-33, 1.0434591519180819e-33, 9.624236019437666e-34, -1.0111898116070946e-33, -1.1613457151067066e-33, -1.1310029916696178e-33, -1.1407562887035811e-33, -1.0548098355722173e-33, -9.749496881132281e-34, -9.604679650530821e-34, 1.0946941752246252e-33, -9.87056361571736e-34, -1.0147963752122112e-33, 9.984892379949329e-34, 1.042081068462735e-33, -1.0294264125986523e-33, -1.056704034515972e-33, -9.94187938861381e-34, -1.095884546925825e-33, 1.0703059735229244e-33, 1.0468654223060779e-33, -9.934988052982115e-34, 1.0382766911988941e-33, 1.1586722001425552e-33, 1.157053324016282e-33, 1.0113648500627717e-33, -1.1434159365078127e-33, 1.171047308756333e-33, 1.030889260216953e-33, 9.81332530602697e-34, -1.0738774559685087e-33, 9.871770334136877e-34, -1.049786984945352e-33, -1.080289042968275e-33, -1.0173685956241004e-33, -1.1299875665885989e-33, 1.1260659153961642e-33, -1.0408438606584946e-33, -9.816251184934563e-34, 1.022635820506242e-33, -1.1166234815166957e-33, -9.577444915790208e-34, 1.047283365649093e-33, 9.586381427921342e-34, 1.0412764976808949e-33, 1.0823972186180778e-33, -1.039547327123736e-33, 1.0178893028873162e-33, 9.622362575316043e-34, 1.0860497918067696e-33, -1.0519715677279584e-33, -1.076169027104139e-33, -1.0452120160332494e-33, -1.0486223271830764e-33, 1.023101426471763e-33, -1.0682668581662323e-33, -1.0580740364476569e-33, 9.806976718177568e-34, -1.1093249472950355e-33, 9.746846508713161e-34, 1.1508484587183674e-33, -1.1262399436613836e-33, 1.0376896787074522e-33, -1.0659312978279423e-33, 1.0558270055276632e-33, 1.0778985650032825e-33, -1.0553146552945977e-33, 1.1091955510809489e-33, 9.60681207075161e-34, 1.0208835074040513e-33, -1.0589014742680404e-33, -9.89629592174083e-34, -1.0229381429595941e-33, -1.0362537388895259e-33, -1.0518430898688333e-33, 1.0569177357155316e-33, -1.0707446716880711e-33, 1.0584445008391582e-33, -1.0463878777260564e-33, -1.0345988632487589e-33, 1.069231590053372e-33, -1.0468749731976783e-33, 9.947800941406078e-34, -1.0248275664575486e-33, -1.0804847444105876e-33, 1.0693662208907397e-33, 1.0376027104925906e-33, -1.1213380403829585e-33, -1.021030903375385e-33, 1.0584366948219848e-33, -1.0653555811025279e-33, 1.0169746213455826e-33, 1.0530006762979048e-33, 1.0720089709636782e-33, 1.1336911084776584e-33, 1.1171303216199917e-33, 1.0262387106915123e-33, 1.1264268288960651e-33, -1.0838724640283598e-33, 1.0622792756522275e-33, 1.0980862111107167e-33, 1.0212600329382991e-33, -1.1337726583982467e-33, 9.97524414272297e-34, 1.0338093534882886e-33, -1.0880201223768393e-33, 1.170874107010579e-33, -1.0574169534726465e-33, 9.792699971944846e-34, 9.575355658252613e-34, 1.0957013351109898e-33, -1.088474524411829e-33, 9.768491216802638e-34, -1.0607138477847184e-33, 9.956110217098453e-34, 1.022392272770431e-33, 1.030397481135027e-33, 1.0511410075007055e-33, -1.053674473333216e-33, 9.60684696824015e-34, -9.997705268373292e-34, 1.007891907104565e-33, -1.1070998650586236e-33, -1.0822884853906268e-33, 1.07358293953233e-33, -1.1424898673645555e-33, 9.931564425685345e-34, 1.1032440599169341e-33, -1.0909641847126722e-33, 1.1244912121435431e-33, -9.833056162376514e-34, 1.0441638975155983e-33, 1.0757823996653139e-33, 1.0704113088370176e-33, -9.88513607224771e-34, 9.83886108408866e-34, 1.0471095210548658e-33, -1.0639527020632184e-33, 1.1298462317600118e-33, -9.707382040949188e-34, -1.0120290043709863e-33, 1.0497022207823983e-33, 1.0962566643562572e-33, -1.059673718955233e-33, 1.1620450424099497e-33, -1.1491198391741855e-33, 1.0075339323405411e-33, -1.1315606168022891e-33, 1.1637368359201722e-33, -9.64743733918702e-34, 1.083669140239866e-33, -1.0210438521803432e-33, 1.1720293975522465e-33, -1.0654774468059295e-33, 1.0789497140923068e-33, -1.0734996447373147e-33, -1.115611638020027e-33, -1.0980034673286784e-33, 1.0644591748245297e-33, -1.0419750903001687e-33, 9.721660623891832e-34, 1.0301750555633323e-33, -1.0848377469284764e-33, -1.015673955213497e-33, 1.0729869271622646e-33, 1.0210022507005836e-33, 1.0571837831479013e-33, 9.803137076083202e-34, -1.0244222045775072e-33, -1.061054832981953e-33, -1.0260347440545454e-33, -1.0969376245602687e-33, -1.082129977324258e-33, -1.1007632158237222e-33, 1.0685813947405735e-33, 1.0354130767576956e-33, 1.0228859803977763e-33, -9.949109597226329e-34, 1.1382658018832726e-33, -9.77201494479022e-34, 1.161622048114646e-33, -1.0740118112993878e-33, -1.0955318986205783e-33, -1.16402850545597e-33, -1.0511958332919118e-33, 1.085040336033001e-33, -9.551598733751503e-34, -1.141701367794543e-33, -9.545834219657665e-34, 9.935285599989667e-34, 1.0244380002828464e-33, 9.900819738281573e-34, -1.0534020892516114e-33, -1.066551371098001e-33, 1.1491129515119737e-33, -1.0841721232523233e-33, -1.032087254264334e-33, -1.061907617399276e-33, 1.1535179329206879e-33, 1.0056764675952496e-33, -1.0555656417055975e-33, 9.78264582182547e-34, -9.467376400225009e-34, -1.057165599719662e-33, -9.783723970550364e-34, 9.956990001151646e-34, -1.0219283198438408e-33, 9.848516668154712e-34, 9.928376815613701e-34, -1.028915256227037e-33, -1.0370654728400663e-33, 1.0567131262300916e-33, -9.441233589533713e-34, 1.050657677284426e-33, -1.0038281863995739e-33, 1.0493501234901285e-33, -1.049746852833531e-33, -1.1343683952618236e-33, 1.0622771634358158e-33, -1.0574254941737892e-33, 1.0481114463179495e-33, -1.0918626113715858e-33, 1.047064889003733e-33, 1.014473022430239e-33, 1.0624003148361637e-33, 1.0669398352467494e-33, 9.638880107655019e-34, -1.1240750136749551e-33, 1.0226517080470773e-33, 1.0566644534171279e-33, 1.036225361721213e-33, 1.107415779165407e-33, -1.0337244056543425e-33, -1.0703757685000044e-33, 1.1564486791095779e-33, 1.0312785508851667e-33, -1.0565554446831884e-33, 1.0121955021255207e-33, -1.0067158617407657e-33, 1.0620915638980805e-33, -1.0910365510836447e-33, -1.1248338503797086e-33, 1.0212456147654023e-33, -1.072854041199324e-33, -9.844445600610028e-34, 1.0540239992315933e-33, -1.0682405932143312e-33, 1.0218107704087586e-33, 1.0411003571992639e-33, -1.1013598710422606e-33, 9.869251286477263e-34, -1.0174799002454439e-33, -1.0403635610135883e-33, 1.0402211241590472e-33, -1.0315708632694376e-33, -1.0306656407838083e-33, 1.0900537276037619e-33, 1.092971249481205e-33, 1.0273557976667781e-33, 1.035865550247266e-33, -1.0412388451274701e-33, 1.0488317121143167e-33, -1.0237690705288316e-33, -1.0601066314841217e-33, -1.0005494755157413e-33, 1.0484609722163268e-33], [-0.00020037924696225673, -0.00022733067453373224, -0.00027353729819878936, -0.0018021330470219254, 0.001293507288210094, 0.001057188375853002, -0.0035362776834517717, -0.0006104319472797215, -0.001996963983401656, 0.003396766260266304, -0.00241976254619658, -0.002259714063256979, 0.01773129589855671, -0.014928837306797504, 3.5124066926073283e-06, -6.771828338969499e-06, -2.649785983521724e-06, -0.0031637416686862707, -8.864922710927203e-05, -3.3726874448802846e-07, -0.0012248363345861435, -0.00017068210581783205, -7.563635590242257e-14, 0.0011747615644708276, -8.529951446689665e-05, -2.950299176518456e-06, -0.0018397473031654954, -9.828024485614151e-05, -8.55336907079618e-07, 0.0008945530862547457, -2.935511110990774e-05, -8.959317347034812e-05, -0.0011157423723489046, -0.00035003767698071897, -1.391709884046577e-05, -0.0019355504773557186, -0.00011280395847279578, -0.00012509648513514549, -0.001762653118930757, -0.00011316822201479226, -2.8955473680980504e-05, -0.004493877291679382, -0.00014996284153312445, -4.627015732694417e-05, -0.0010154516203328967, -9.349227912025526e-05, -7.569085573777556e-05, -0.0010159199591726065, -0.0003381059505045414, -0.00010799322626553476, -0.0015977524453774095, -0.0009394418448209763, -0.00017849211872089654, 0.0004328923823777586, -0.0005183122702874243, -0.0001106920390157029, -0.0009275432676076889, -0.00040661892853677273, -0.00018728019495029002, -0.0026230583898723125, -0.0004749275394715369, -0.0001925589021993801, -0.0006087720394134521, -0.0007272629882209003, -0.0001725006295600906, -0.0036603091284632683, -0.0007335703121498227, -0.00022617599461227655, 0.0009743398404680192, -0.0006808124599047005, -0.00012854950909968466, 0.0014697617152705789, -0.00047578386147506535, -6.180627678986639e-05, 0.003018516581505537, -0.0001688422344159335, -5.965632954030298e-05, 0.001682913163676858, -8.740558405406773e-05, -2.208472869824618e-05, 0.003951587714254856, -0.00011551612260518596, -9.830863746174145e-06, 0.002344443229958415, -0.0003378769615665078, -2.8604285944311414e-06, 0.0009660269715823233, -0.00027274666354060173, -1.8510991139919497e-07, -0.00018322696269024163, -0.00013224744179751724, -2.263889655296225e-06, 0.0018959009321406484, 6.287376891123131e-05, -2.8302813461777987e-06, 0.0011359710479155183, -0.00016955398314166814, -0.00013938524352852255, 0.004098410718142986, -0.00040755586815066636, 1.111305891754455e-06, 0.0005955210071988404, -0.0002174505643779412, -9.280251106247306e-06, 0.0025381629820913076, -0.0007000900222919881, -0.0003356297384016216, -0.0014282413758337498, -0.0010121538070961833, -0.0002761881332844496, -0.0009276892524212599, -0.0006785207078792155, -0.0017210489604622126, -6.15872850175947e-05, 0.0006659665959887207, -2.334932105441112e-07, 1.0147616613946635e-33, 6.2117542256601155e-06, 7.0495616455446e-06, 1.1030531339204217e-33, 1.0249704624895704e-33, -1.0955756123167496e-33, -1.1527294333506754e-33, 9.978961643607446e-34, 1.09442491354989e-33, 9.585651335726886e-34, -1.0754044047631276e-33, -1.1701441984871153e-33, -9.991488923638357e-34, -1.1392211665498041e-33, -1.017387513736309e-33, 1.0498576982773937e-33, 9.95134211813793e-34, 1.0202356079786567e-33, 9.939057283816875e-34, -1.1418572126315231e-33, 1.1485432040938095e-33, -1.102062228916877e-33, -9.944044869613216e-34, -1.0549619151538549e-33, -1.0622880000243625e-33, -9.926192049160102e-34, 1.0250706550158788e-33, -1.0926629577206027e-33, -1.0530802976730738e-33, -1.0772976853519207e-33, 9.62842922819224e-34, 1.0679885966128736e-33, -1.0937386268871013e-33, -1.0627661874528571e-33, 1.0426714788675348e-33, 1.1106292868469675e-33, 1.0121104624560784e-33, -1.0651253495136598e-33, -1.0336208152146763e-33, 1.0491011574600442e-33, -1.0309794426741801e-33, -1.141998363789118e-33, -1.1501025708185722e-33, 1.0441796932209375e-33, 1.0039437154537406e-33, -1.0479894887790517e-33, 1.0746889144125607e-33, 9.75087349521969e-34, 1.0476380343352551e-33, -1.0617179770997098e-33, 1.0501619492761652e-33, -1.0117912422714333e-33, -1.1616655781398249e-33, -9.881439693527352e-34, 1.0094517330068084e-33, 9.978137879206909e-34, 1.0633291390443056e-33, 1.0741878599455227e-33, 1.0678385374121515e-33, 9.986713477838142e-34, 9.632879576336056e-34, 1.0539229801858195e-33, -9.901439627880639e-34, 1.0185474878882805e-33, 1.166897630026938e-33, 9.804525628785111e-34, -1.1728546313207222e-33, 1.0234459014178516e-33, 1.0340821049118778e-33, 1.0833254918132428e-33, -1.0204285543560847e-33, 9.587466005130968e-34, 1.0828218659523124e-33, -1.0820847942601483e-33, -1.1678128625816485e-33, 9.789347057980118e-34, -1.0673609009966338e-33, 1.1221011015205353e-33, -1.0237069897334288e-33, -9.981958235847081e-34, -1.0130872247932148e-33, -1.1705467134667757e-33, 1.107126313681517e-33, -1.027789904057117e-33, 1.1638095696331293e-33, 1.0259527349564763e-33, 1.046900319794618e-33, 1.0242220031958828e-33, 1.007891907104565e-33, 1.0156246395520601e-33, -9.862021996219706e-34, 1.0194668530403182e-33, 1.0446579724849283e-33, -9.579906107087242e-34, -1.0529405240479213e-33, -1.1725559822872164e-33, -9.723470701521106e-34, -1.1395137544405635e-33, 1.0045078609066391e-33, 1.1010693035324167e-33, 9.497555380972448e-34, 9.805898569452673e-34, -1.0232261390755455e-33, 1.1573196469551403e-33, 1.040536028075373e-33, 9.706998168575247e-34, 1.150668001968417e-33, -1.0580815669583418e-33, -1.1384257793175798e-33, 1.0613296047864577e-33, -1.1190202961309231e-33, 1.0902388679640164e-33, 1.0031677973467017e-33, 1.0525165195621599e-33, -9.936777926802234e-34, -1.0162995386133252e-33, -1.0731209151511591e-33, 1.0494200103027047e-33, -9.972748053937396e-34, 1.0574524019741635e-33, 9.533137962313823e-34, -9.808610471654218e-34, 1.0809869927390757e-33, 1.0048510501557816e-33, 1.0586795078738265e-33, 1.0082339943277535e-33, 1.0315824345419535e-33, -1.0488129776731004e-33, 1.071176482191006e-33, -1.0759027041652808e-33, -9.971386133529373e-34, 9.707311327617146e-34, 1.1007250122573204e-33, 1.066914672320802e-33, 9.923532493191367e-34, -1.0839047901230074e-33, 1.1097967062387991e-33, -1.0367530484821369e-33, -1.0561172975310186e-33, -9.777349668762038e-34, -9.769208452027632e-34, 1.0162752940423395e-33, -1.0976999510138762e-33, 1.0560536555321811e-33, -1.050218795448287e-33, 1.0362373003357136e-33, -9.548402858485204e-34, 1.0294055659410245e-33, -1.1388517123487605e-33, 9.634528941847053e-34, 9.738578558994057e-34, -1.0753275384528433e-33, 1.1111891160315466e-33, 1.066509494111753e-33, 1.0650154224247587e-33, -1.1309502780948231e-33, 1.046982879905664e-33, -1.0261533036800854e-33, 9.423761886389656e-34, 1.0483997179403895e-33, 1.112088001867941e-33, -1.0143402283027945e-33, 9.69291519523942e-34, -1.0577057761080633e-33, 1.0579371097228853e-33, -1.1622142033938727e-33, -1.012354377533874e-33, -1.085847753715222e-33, 9.92970200182326e-34, -1.1314259859649215e-33, -1.1158688692447655e-33, -9.884392204728831e-34, -1.0716084763649332e-33, -1.0417610217586244e-33, 1.0043404447971431e-33, 1.0743513271286839e-33, -1.1207144773640458e-33, 1.0721461731949382e-33, 1.0276464570121181e-33, -1.0866538857004969e-33, -1.05754809456116e-33, -1.0229245513061627e-33, 1.0263467092349941e-33, -1.0130837350443608e-33, -1.0984893689388503e-33, 1.0176218779225041e-33, 1.0497665056297088e-33, 1.049477131981315e-33, 1.0055591018311597e-33, 1.0426428261927335e-33, -1.0591264712336275e-33, 1.0096972092880388e-33, -1.0553423896144374e-33, -1.037058309671366e-33, 1.07319116930572e-33, 1.05631804992562e-33, 1.0457214275304378e-33, 9.869375264397076e-34, 1.03929266729289e-33, 1.0174799002454439e-33, 1.1106114707607128e-33, -1.0991353398188256e-33, 1.0423209427786997e-33, -1.0934952628222826e-33, 1.1085154173964028e-33, -1.0181580135490745e-33, 1.0212627880031839e-33, 1.067061700950151e-33, -9.841300234866617e-34, -9.817882183346329e-34, 1.0460085052914277e-33, -1.0048632642767706e-33, -9.684829079802708e-34, -9.975617913192333e-34, 1.1663243010244236e-33, 9.599676452700134e-34, 1.0553923481243474e-33, 1.0573377912749583e-33, -1.081377201762251e-33, -1.1044697882841548e-33, -9.931513916162458e-34, 1.052892677754423e-33, 1.162994988782208e-33, 9.856311665068602e-34, 1.0781725102883217e-33, 1.0790258457186218e-33, 1.0120605957816647e-33, -1.0595372514079422e-33, -1.0504259763276194e-33, -1.1277845248712649e-33, -1.0871702766953932e-33, 1.0154521724902754e-33, -9.751337264475287e-34, 1.107238444822326e-33, -1.0923682576134317e-33, -1.0672799939245186e-33, 1.0075850847119011e-33, -1.0081043226071784e-33, 9.893377389672929e-34, 1.0637237561712965e-33, -1.0199566117413287e-33, 9.977451868050608e-34, 1.0340940435263784e-33, 1.0401523393724249e-33, 1.0705151747831723e-33, 1.0696141767303662e-33, -1.0834919895677772e-33, -1.0339963305584663e-33, 1.056322733535924e-33, 1.1368172806023726e-33, -1.0458414565239163e-33, 1.0468969218812601e-33, 1.0327903468229195e-33, 1.034458814117118e-33, -1.038388822339703e-33, -1.063878682653315e-33, -9.656325178505191e-34, 1.1538054698591586e-33, -9.63236437920261e-34, 1.065248133572023e-33, -1.0334539501181572e-33, 1.1025042331598854e-33, 1.1441974565801172e-33, 1.040255837976595e-33, 9.914560165216731e-34, -1.0580946994342924e-33, -1.0565551691766999e-33, 1.0366527641203323e-33, 9.489741098604364e-34, 9.836490809932823e-34, -1.0627900646818582e-33, 1.0480891302923831e-33, -1.0513777594098008e-33, -1.0737321722135867e-33, -1.0379810727367615e-33, 1.0729886720366916e-33, 1.0386124417728477e-33, -1.1231299345839932e-33, -9.651926258239223e-34, 1.066296160254178e-33, -9.8768993465973e-34, -1.0543176891483066e-33, -1.0834216435777202e-33, 1.0574085964424961e-33, -9.886008509461212e-34, 1.0551498105789941e-33, 1.0500459610445176e-33, 9.834804710223362e-34, -9.996782321636904e-34, 1.1473027820472035e-33, -1.0406796587913641e-33, -1.0249524627323235e-33, 1.0326386345832665e-33, -1.0005503938707028e-33, -1.0044237395921584e-33, 1.1539605800121694e-33, -1.0246963335335388e-33, -1.1620221753714064e-33, -1.0329101003099096e-33, -9.765434013135539e-34, -1.0874702114258452e-33, -9.653107262719815e-34, 9.664110991869465e-34, -1.0626349545288474e-33, 1.155111829792006e-33, -1.0730173247114929e-33, -1.0007624420313316e-33, -9.76485912292959e-34, -1.0174565740294197e-33, -9.664502211083099e-34, -9.444594768693096e-34, 1.0577646426611006e-33, 1.0463444395363736e-33, 1.0386177682316249e-33, 1.072480913578434e-33, 1.0499224423021851e-33, -1.0465939565794349e-33, 1.0711260645036152e-33, -1.007315272024189e-33, 9.722069291849735e-34, -9.733437607919133e-34, 1.1629354793806976e-33, 1.0061331655176433e-33, -1.045518103741944e-33, -9.959779963524926e-34, 9.881773056378405e-34, 1.05147960497504e-33, 9.822234267509256e-34, 1.0484043097151974e-33, -9.91100796822534e-34, -1.0773595824763312e-33, 1.0508199506061372e-33, 1.1220594082052795e-33, 1.1264057067319488e-33, 1.139821495188189e-33, 1.0650421465541406e-33, 1.0995730277935146e-33, -1.1169224978921861e-33, -1.0678048337850615e-33, 1.0292213439357315e-33, 1.0669084275070633e-33, -1.0679107201121316e-33, 1.0208633035948966e-33, -1.028860614106823e-33, -1.1089870845046703e-33, -1.1003600579955886e-33, -9.661339396595417e-34, -1.0289917551953366e-33, -1.1507812351351798e-33, 1.0675922346114557e-33, -1.037556425402527e-33, 1.0337556297230362e-33, -9.982869243968968e-34, 1.0617609561119118e-33, -1.0816447185625592e-33, 1.009895022946763e-33, -1.0485905521014058e-33, -1.0690971428869967e-33, 1.0165758716212646e-33, -1.0343040713060917e-33, -1.0261624872297012e-33, 1.061757558198554e-33, 1.0814679352324551e-33, 1.0652821127056015e-33, 9.848798603127917e-34, -1.1125156797735488e-33, 9.663855689190146e-34, 9.61700764753507e-34, -1.1749910923033417e-33, -1.0655746087608647e-33, 9.945299342490734e-34, -9.484787491941602e-34, -1.028093420371919e-33, 1.0114064515425313e-33, 1.0775691510785637e-33, -9.822657629146545e-34, -9.749847692727604e-34, 1.0377038213738605e-33, -9.83350707466265e-34, 9.752318067574254e-34, -1.022226050522385e-33, -1.0539485104537515e-33, -9.800533539767123e-34, -9.593907346831489e-34, 1.109250285036659e-33, -1.1394235719833364e-33, -1.0517281118276435e-33, -1.0392716369642698e-33, -1.0958050173861522e-33, 1.1271817166744838e-33, -1.0599595110192766e-33, -1.0953860638526795e-33, 1.0006695963447159e-33, -1.042794262925898e-33, 1.0024684700434586e-33, -1.0965819456836488e-33], [-9.980512745137554e-34, 9.749012908067528e-34, -1.0108885911796964e-33, -1.0376815971837903e-33, 9.830372729178777e-34, 9.66384650564053e-34, -9.884015679194583e-34, -9.875502528700738e-34, -1.0055577242987173e-33, 9.92441778737433e-34, -9.733042715285654e-34, -1.0366718659035332e-33, -5.21056638068155e-23, -1.0286716929946839e-26, 9.982793938862119e-34, 9.628694632776136e-34, 9.884646589053189e-34, -1.0127651577081888e-33, 9.786309139767212e-34, 1.0184303976306791e-33, -1.0011748752445772e-33, -9.794047198673484e-34, -1.0350631835173337e-33, -1.0535429649027178e-33, 1.0414462096777948e-33, -1.0521981258969801e-33, -1.0192619680483897e-33, -1.015493222957058e-33, -9.877902190215346e-34, -9.96264798606994e-34, 1.0363925023242206e-33, 1.0032903977340727e-33, 1.0078900703946418e-33, 1.0547052349420933e-33, -1.0571543039536346e-33, -1.0330102010007218e-33, -9.801873419656068e-34, -1.0039168076533663e-33, -9.735413907796453e-34, -1.0361469342074941e-33, 1.0440642560022669e-33, -9.478640942183748e-34, -1.0496744864625585e-33, -1.027139525073326e-33, 1.0168543168456156e-33, -1.0295835431325786e-33, 9.795008716318258e-34, 9.675435226900707e-34, 9.844634781732114e-34, 1.029450657169638e-33, -1.0327117356382083e-33, -1.0006549026653306e-33, -9.885946979678786e-34, 9.761787225583105e-34, 1.0337914455665378e-33, -1.0536764937141315e-33, 1.0576529706977725e-33, -1.0387801333888322e-33, -9.722140923536739e-34, 9.488934782948097e-34, -9.826773696084346e-34, 9.489501407959392e-34, -1.0049081718343918e-33, -1.0213522357764417e-33, 9.426802559667447e-34, 1.0412930280702033e-33, 9.743391657347698e-34, -1.0405845172173444e-33, 1.0319694293227633e-33, 9.972815093849591e-34, -1.03624336147846e-33, -1.0551560553927329e-33, 1.0445033215093982e-33, 1.0173130351489248e-33, 1.0497942399495486e-33, 1.055499703819356e-33, 9.96624610080941e-34, 9.679585272972087e-34, 1.022193448921249e-33, 9.525025214583226e-34, -1.0393681560707318e-33, 1.0108704077514571e-33, -1.0385729525094998e-33, -9.591704213278659e-34, -9.731432839038004e-34, -9.743476146004163e-34, 1.056605770535083e-33, -9.478015542454912e-34, -1.0289521740964925e-33, -9.57918979021721e-34, -1.0356387165717558e-33, -1.0488213347032508e-33, 9.730747746236665e-34, 9.504784671230005e-34, 9.764032603464168e-34, -1.0376486282406696e-33, -9.447360853837375e-34, -9.504648754695691e-34, 9.453041797629708e-34, 9.751105839024969e-34, -9.976413208589061e-34, -1.0533218250279693e-33, 9.694126505433743e-34, 1.0300913015908362e-33, 9.756230259710585e-34, -1.0495163457381745e-33, 9.840183515233336e-34, -1.0485897255819404e-33, -1.024427347365292e-33, 1.1087900973654114e-33, 1.0311783583588583e-33, 1.011551643461957e-33, -1.0003334784287777e-33, -1.0413385784762977e-33, -9.77412440613697e-34, 1.0561816742138253e-33, -1.0265984303299631e-33, 9.526257646941666e-34, -1.0179884852231668e-33, -1.0605087791217976e-33, 1.0766437247837797e-33, -1.1736410186743231e-33, -1.0362542899025028e-33, 1.0220742464472359e-33, 1.175403984694068e-33, 9.619717713026693e-34, -1.0432246958963905e-33, 1.0175441850927545e-33, 1.0669743653933048e-33, -9.76965477253896e-34, 1.0813895995542323e-33, -1.0322626600619957e-33, 1.0218503515076027e-33, 1.0260322644961491e-33, -1.1354840128691508e-33, -1.0696444824440984e-33, 1.157548501011566e-33, -1.1587061792761336e-33, 1.0429929949395839e-33, -1.121011657029613e-33, -1.0569944183548235e-33, -1.0511037222892654e-33, -1.0351318764684598e-33, 9.927193056068224e-34, -1.008333084828108e-33, -1.1730463838367001e-33, -1.0153607961715982e-33, 1.0304733372548534e-33, -1.0564747212820655e-33, 1.0682371034654771e-33, -1.0577531632240809e-33, -9.777417627029195e-34, 1.09557010218698e-33, -1.093867472088211e-33, 1.0688615848393515e-33, -1.061265870952124e-33, 1.122535207910874e-33, -9.856871861595166e-34, -1.0075246569554292e-33, -1.0613770837379714e-33, 9.661432150446537e-34, 9.804155531735594e-34, -9.726050360608184e-34, -1.0058837403100782e-33, -1.0518699058337115e-33, 1.0506447284794677e-33, 1.1677571184354806e-33, 1.09449470852697e-33, -1.0447749709070336e-33, 1.0312065518561788e-33, -1.066827428599452e-33, 1.0597240448071275e-33, 1.0061437265997014e-33, 9.729905614736897e-34, -1.0670235892192455e-33, -1.139958146406472e-33, -1.0620635540717523e-33, -9.621263304427032e-34, 1.030303349751465e-33, -9.848587381486753e-34, -1.0768858031516521e-33, -1.0776037730606153e-33, 9.48493718380034e-34, -9.978831237202901e-34, -1.0963046024852517e-33, -9.894949613367154e-34, 1.0480152945534721e-33, -1.0488729462520916e-33, 9.551249758866102e-34, 9.849081456456083e-34, -1.0603251081294816e-33, 1.0312723979069241e-33, -1.0739388939154383e-33, 9.747455378052689e-34, -1.04597617919678e-33, 1.0869599734091914e-33, -9.552844941434366e-34, -1.1541188125720496e-33, 9.659850743202696e-34, -1.0587472824699911e-33, -1.0626224649013699e-33, -1.1393015226089424e-33, 1.013960947703662e-33, 1.0233802390380987e-33, 1.0460623208921763e-33, 1.0622696329251309e-33, -1.0894746129649896e-33, 1.1103801371458908e-33, 1.131514607218714e-33, 1.0101224994707464e-33, 1.102748148237681e-33, 1.068627036982164e-33, 1.1448604170268817e-33, -1.0892112287620084e-33, -1.0846255150968553e-33, -1.0760114373927319e-33, 1.0827269998847812e-33, -1.1255598099768375e-33, 1.0539492451377207e-33, 9.66255621691951e-34, 9.674464525706317e-34, 1.0760076721373894e-33, 1.0113345443490396e-33, -9.757992582881857e-34, -1.0363920431467398e-33, -1.0402501441758332e-33, 1.1129752245963234e-33, -9.532254504840783e-34, 1.1753740463223205e-33, 1.146596842588237e-33, -1.0446835945883564e-33, -1.0494739177389495e-33, -1.10935663054121e-33, -1.0441784993594874e-33, 1.054681816890573e-33, 1.0430944731628385e-33, 1.0585692134429408e-33, 1.1467832686454378e-33, 1.0070422450941112e-33, -1.0105881972717636e-33, 1.1031173269322361e-33, -1.090922215890928e-33, -1.134083246046253e-33, -1.051846395946695e-33, 9.727144121367426e-34, -1.0386919713125205e-33, -1.1464703851100275e-33, -1.0603960969680117e-33, -1.1163485260411987e-33, 9.673479130832542e-34, -1.0228609093073252e-33, -1.05381516531333e-33, 9.795657993276095e-34, 1.122352638944512e-33, 1.1634198197874348e-33, 1.1426266104183348e-33, 9.49695202176269e-34, 1.0736804688292498e-33, 9.920808652375321e-34, -1.0766282964204251e-33, 1.075794705621799e-33, 1.0522814206919954e-33, 9.975124756577965e-34, 9.833777071021354e-34, 1.1589957365955198e-33, -1.0744288362874412e-33, 9.677549280022264e-34, 1.1060999601764553e-33, -1.038552748700345e-33, 9.963433179562091e-34, -1.0596533314750859e-33, 1.0732646377026464e-33, -1.0014930852387646e-33, 1.010418117932879e-33, 1.1505053613047212e-33, 1.0550520057755859e-33, 1.0141605980723094e-33, -1.0463581230253012e-33, 1.0596246788002846e-33, 1.0280779001730684e-33, 1.0654239985471656e-33, -9.781346349554834e-34, -9.789081653396221e-34, 1.0116016938073632e-33, 1.054318515667772e-33, 1.1208188943231774e-33, -9.464208075607558e-34, -9.97090767059439e-34, 1.004230517708242e-33, 1.0481655374251866e-33, 1.0664707395323743e-33, 1.0121051359973013e-33, 1.1462663266375644e-33, -1.1091166643897492e-33, -1.1047210502016431e-33, 1.06836778537651e-33, 1.1451662292290879e-33, -9.612196385891353e-34, 1.0554771122873012e-33, -1.051517349363961e-33, 1.0455470319232338e-33, 1.1461648484143099e-33, -1.1308716669101119e-33, 1.0423872480069258e-33, 1.0562739688874641e-33, -1.1225036165001957e-33, 1.0409364308386218e-33, -1.0143687891420996e-33, -1.0535146795699011e-33, 9.953640760606764e-34, -1.1025898238423046e-33, 1.071661281775224e-33, -1.0771818807912655e-33, -9.676543681339334e-34, 1.0952098315355523e-33, -1.0649316684522626e-33, 1.014960760750334e-33, -1.0119359750133783e-33, -1.0126555061257761e-33, -1.0480034477744677e-33, -1.0654412636204433e-33, -1.02669770450131e-33, -1.0389884162941185e-33, -1.1350261210853071e-33, -1.0426789175427236e-33, 1.0696145440723509e-33, 1.0558231484368245e-33, 1.1215724045691537e-33, -1.087074216766412e-33, 1.0153643777559484e-33, -9.749237905033115e-34, 1.0429633320743249e-33, -1.0969052984656211e-33, 1.0638563666277487e-33, -1.0573590052745708e-33, 1.1551671147606931e-33, -1.0002859076417678e-33, -1.0022021471046005e-33, -1.1532202940776398e-33, -1.0544694932234557e-33, -9.871179831896581e-34, -1.0797486829088813e-33, 1.0562557854592248e-33, -1.0177582536342988e-33, 1.0741050243279882e-33, 9.821028467444702e-34, 1.0289331641487878e-33, 1.0727752463436204e-33, 1.160418819443984e-33, -1.0530500837948378e-33, 1.081420180774453e-33, 1.1400801039453698e-33, -1.0196221468643213e-33, 1.0135308820751541e-33, 1.065133063695337e-33, -1.004774000174505e-33, 1.0193292834670735e-33, -9.85630431822891e-34, 1.0534116401432118e-33, 1.0624590895537048e-33, -9.729859696988818e-34, -9.717846695736391e-34, -1.0464559278287094e-33, 1.0203864018633481e-33, -1.054402820653245e-33, 1.0583759915590244e-33, 9.748401283663116e-34, -1.0751986932517337e-33, 1.0937926261588422e-33, -1.0864771023703927e-33, -1.0504515065955513e-33, -9.7657839063759e-34, -1.1479399367195477e-33, -1.0355655236813179e-33, 1.0517629174806874e-33, -1.1660247336359562e-33, 1.038162172335185e-33, 1.0278283831300071e-33, 1.1042211895960552e-33, -1.1048891091596122e-33, -1.0232899647453754e-33, -1.1630811304776042e-33, 1.0585134692967729e-33, 1.0141192720990383e-33, -1.0335454182723305e-33, 9.481777124377543e-34, -1.0035524044046114e-33, -1.0136851657086995e-33, -9.846656081002551e-34, -1.0429329345250966e-33, 1.0764749311418413e-33, 9.74706691390394e-34, 9.998450972602095e-34, -1.1318287764510705e-33, 1.0651405023705258e-33, -1.0346665460094273e-33, 1.0450283450409335e-33, -1.1708589541537129e-33, 1.0308814541997795e-33, 9.852010090428562e-34, -1.1595592391999452e-33, -1.135292260353173e-33, -1.0072448341986358e-33, -1.0626274240181624e-33, 1.1615390288261192e-33, 1.013309374858421e-33, 1.0143353610214981e-33, -1.164728934785167e-33, 9.537445965438595e-34, 9.75438528459277e-34, 1.1650738689087364e-33, -9.577634096912293e-34, -9.690254720915722e-34, -1.0123974483815722e-33, -1.1577114171817502e-33, 9.930851782235159e-34, -1.142769781956845e-33, 1.0242526762515996e-33, 1.047224131754071e-33, 1.0908624309829291e-33, -9.933611438894706e-34, 9.787568204419538e-34, 1.1044662066998047e-33, -1.143583536288301e-33, -1.0412228657511386e-33, 1.086407491064305e-33, -1.0234751051056299e-33, -1.089339431114645e-33, 1.068918798353458e-33, 1.0428677313228244e-33, 1.0460519434811104e-33, -1.136147891670877e-33, -1.0404463966311228e-33, 9.723602944635574e-34, -1.01055936092597e-33, 1.1439017462824885e-33, -1.0962472971356491e-33, -1.020352606400762e-33, 9.469128621491703e-34, -1.0121511455808764e-33, -1.0633475979790334e-33, -9.84479549385039e-34, 1.1054828256422736e-33, 9.685769475283366e-34, 1.1002270801971518e-33, -9.653681234570802e-34, 1.1289833454381113e-33, -9.502238072921544e-34, 9.966142326698752e-34, -1.1188709716141702e-33, -1.0310294930195862e-33, 9.73007000027502e-34, -1.0514374524823035e-33, 1.0582698297254657e-33, -1.1268087727245862e-33, -1.1036540135717834e-33, -9.580182531930677e-34, 1.0853219954997175e-33, -1.0196473097902686e-33, 1.1310318280154114e-33, 9.63377129900375e-34, 1.131262335110768e-33, 9.92727203459492e-34, 1.1675518661015675e-33, -1.1090431959928228e-33, 1.0145820311641785e-33, -9.999767893617e-34, 9.846893016582639e-34, 1.0852628534401918e-33, 1.0338943013222348e-33, 9.428819267163076e-34, -1.052469499788127e-33, -1.0520128937012295e-33, -1.1445412886777327e-33, 1.0105776361897054e-33, -1.0436543941829137e-33, 1.0579153447102959e-33, 1.058472878007471e-33, 1.0979433150786949e-33, 1.0171893327356e-33, -1.0163705274518553e-33, 1.1031234799104787e-33, 9.659313505550172e-34, -1.0248684332533389e-33, -9.859029995754879e-34, -1.097413240594871e-33, 1.0558116689998048e-33, 1.0635086774392945e-33, 1.0843012439599214e-33, 1.0269320686875051e-33, 1.1069063676682187e-33, 9.559128326081496e-34, -1.0142169850669505e-33, 1.0406796587913641e-33, -1.0293446790070717e-33, -9.830324974720775e-34, -1.046453907447794e-33, 9.793067313929478e-34, 1.0272503705171887e-33, 1.0846294640231901e-33, -1.0300704549332083e-33, -1.058185157398008e-33, -1.1216404546718068e-33, 9.826061970989121e-34, 1.1687394827378826e-33, -1.005656355621591e-33, -9.873293885018138e-34, -1.0418262249608966e-33, 1.053273978734471e-33, -1.0186171910298644e-33, -1.0169366932856694e-33, 1.0730733443641493e-33], [4.7630019200313895e-18, 4.947786624250223e-18, 3.0209344037040916e-17, 2.3859445742663296e-17, 2.55567012456139e-17, 1.4107813501275653e-17, 2.893840418691034e-17, 3.1727405749532934e-17, 1.6923369215922423e-17, 2.7636655167684615e-17, 2.1150545041837888e-17, 3.1071640120958045e-17, 1.748423386865698e-14, -2.7066756564460455e-14, 1.7405695749560256e-18, -8.249125867109838e-20, -1.2121317288244536e-19, 1.9375357544656212e-17, -9.044045401797532e-18, 2.646785543742042e-20, 2.6428458621377412e-17, -2.1856006027253738e-18, -1.5238177780314386e-19, 3.079499452817336e-17, -2.8191413358070347e-18, 4.539015317126078e-20, 1.6642691944832155e-17, -3.1094744929827876e-18, -1.268631525083064e-19, 2.6424335953204447e-17, -1.7861679062230113e-18, 2.0116931167664595e-18, 3.3376698011845264e-17, 3.8097263084910846e-18, 1.9776639403417937e-18, 1.647039022323736e-17, 5.85875587656635e-19, -8.052322848976069e-18, 2.3410620851014474e-17, 4.7838882304983535e-18, -1.4805191277745634e-17, -7.398243179925686e-17, 2.2421998157538553e-18, -5.644604399445506e-18, 3.7466454322597294e-17, 6.189189509067755e-18, -6.283675041717237e-18, 1.8571440559650626e-17, 1.2173703101726614e-17, -3.893696307603486e-18, 4.176437890630442e-17, 1.3102668288654292e-17, -5.630846317907218e-18, -6.449621948256094e-18, 1.0607547454059538e-17, -4.350496047537933e-18, -4.762107903225342e-17, 1.4243681225609938e-17, 1.5245057596565355e-19, -5.661177790198618e-17, 1.2284148257114694e-17, 4.526642504619875e-18, 3.0381526644627504e-17, 1.5330090315969734e-17, 2.0409614551755764e-18, -3.565784707430725e-17, 1.8646323566143826e-17, 1.127635978884592e-18, 2.9474091314683357e-18, 9.511827618724845e-18, -3.0214757106969463e-18, -1.3276619408390518e-17, 6.186594643486176e-18, -3.3990594652944863e-18, -4.204689086399333e-17, 1.0717817247157757e-17, -2.8688290412273294e-18, -1.7183381860949892e-17, 3.586220866208338e-18, -8.998611679472445e-18, 4.175011748536339e-18, 3.5999993687679983e-19, -1.604453386245245e-18, -2.0675498524771134e-17, 4.724215007518472e-18, -5.2413306897687535e-19, -3.7315599739924773e-17, 5.021535566123613e-18, -1.0521528528569842e-18, -2.341437459663424e-17, -2.2408544064875378e-18, -1.4347344327155696e-19, -2.4846584887710603e-17, -8.554007063308868e-18, 6.513613467623809e-18, 6.611561991907744e-17, 5.435072932840924e-20, -1.040613579914293e-18, -1.0306401598711645e-17, -1.0342976423471443e-18, -9.607849639362145e-19, 2.1721880758879796e-18, -2.234547361111974e-18, 5.469121341214831e-18, 1.1759511435144774e-17, 4.7971460745612e-20, -6.40794383270715e-19, -9.652705576029364e-19, -3.0588301531840753e-19, -9.11814734299733e-19, -1.1706843191182298e-18, -1.4132862184584984e-17, -5.413392942576215e-18, -8.310340524747285e-28, -1.686831553816971e-19, -4.323978609731373e-22, -1.0058443428822264e-33, 9.900436784262594e-34, -9.845210590293024e-34, -1.148234820497711e-33, -1.0919842934039951e-33, 1.089406287355848e-33, -1.0893846141787547e-33, -1.0098834516742472e-33, 1.056347161777902e-33, -1.0020347309951044e-33, -9.690656960388894e-34, -1.0388365203834732e-33, -1.0918758356830326e-33, 1.0290047040002948e-33, -1.1244013051928045e-33, -9.925665831767117e-34, -1.0530952668589476e-33, -1.1062307339229843e-33, -1.0384171076725197e-33, -1.010190825079888e-33, -1.0444345367227759e-33, -1.0094360291369654e-33, -9.974941085585649e-34, -1.1553771425404064e-33, -1.0754222208493822e-33, 1.0182811649494224e-33, -1.1641545955921949e-33, 1.1280854697921746e-33, -1.1131958134580949e-33, 1.0306839160475437e-33, -1.0235294717193554e-33, 9.993431244382099e-34, -1.0788548480247756e-33, 1.0745302226751997e-33, -1.1603088923550829e-33, -1.0162926509511134e-33, -1.142982472965947e-33, -1.0326564506695212e-33, 1.0654413554559394e-33, -1.146116726614323e-33, 1.0580387716171322e-33, 1.0946495431734924e-33, 1.0530487980978916e-33, 1.0286391068900899e-33, -1.1018184975100736e-33, 9.627559546043623e-34, -1.013409934726714e-33, -1.0258553893305488e-33, -1.0573785662352524e-33, 9.839446076199187e-34, -9.544925048245701e-34, -1.1478115506959188e-33, -1.0456317042506915e-33, -1.0288498693537725e-33, -1.1045623584642821e-33, -1.058507775496011e-33, -1.1241410433966927e-33, 1.0456377653934379e-33, -9.466558145954241e-34, -1.1414286163709538e-33, -1.0324888508890329e-33, -9.619208944377977e-34, 1.0423480342500663e-33, 1.0659564607538896e-33, -1.02749988756025e-33, 1.0596780352235524e-33, 1.1217962995087869e-33, -1.1137032045743678e-33, 1.0039162566403894e-33, -1.0987822323360981e-33, 1.0326893277771458e-33, 1.1686242291902043e-33, -1.019444077837271e-33, 1.0129167781123456e-33, -1.0457579780579087e-33, -1.036832210679825e-33, 1.0531801228573975e-33, 9.992452277993055e-34, -1.0772131966954554e-33, -1.1515612858395457e-33, -1.0904695587303652e-33, -1.0015976858688886e-33, 1.0837176293818374e-33, -1.0261220796113916e-33, -9.441826846838894e-34, -1.0872168372919453e-33, -1.078735921057251e-33, 1.0792229246933768e-33, -1.0440715110064633e-33, 1.007827438586262e-33, -1.1020957488729746e-33, 1.0392847694402204e-33, -9.808618736848873e-34, -1.0209258435677802e-33, -1.0588051388325707e-33, -1.0216376604985008e-33, 1.0548248965935872e-33, 1.0302782786610139e-33, 1.1228829889348244e-33, 1.0410484701439346e-33, 1.0615945501928735e-33, 1.04079234094515e-33, 1.0644219814485857e-33, -9.707673159472009e-34, -1.0202042920744668e-33, 1.0308163428330035e-33, -1.0238323451856844e-33, 1.1004291182886994e-33, -9.88050297146654e-34, 1.0613149111070724e-33, 1.0855264213141652e-33, -1.0553957460377052e-33, -9.731793752537905e-34, 9.920916099905826e-34, 1.0157701069779744e-33, -1.0762880459071598e-33, -1.0742240431310089e-33, -1.0662597015622033e-33, -1.0189753494648806e-33, -1.0317975132739555e-33, -1.0005268839836864e-33, 1.037257041685052e-33, 1.1137054086262755e-33, 1.0223616915502104e-33, -1.0256180864084766e-33, -1.03770813764218e-33, -1.057705592437071e-33, 1.0865618665333466e-33, 1.043102922028485e-33, 9.78266327056974e-34, 1.0637244908552658e-33, 1.0925641427267367e-33, -1.0365242862612073e-33, -1.1564796276717831e-33, -1.0438994112866633e-33, -1.0649785963907993e-33, -9.89680193532466e-34, 1.0481121810019188e-33, -1.0861297805239232e-33, -1.0377009744734796e-33, -1.0040714586288964e-33, -1.010104775219988e-33, 1.0356329309354978e-33, 1.0243120938176138e-33, -1.0585068571410495e-33, 1.1654877714899205e-33, -1.0136363092247435e-33, -1.0320723769139564e-33, 1.1497656263831685e-33, 1.0708729658762038e-33, -1.0653374895097847e-33, 1.034053084895092e-33, -1.0724747606001915e-33, 9.870881366534067e-34, 1.0282723159184348e-33, 1.0586732630600878e-33, -1.0150348719957335e-33, -1.0075174019512327e-33, -1.1540575582961123e-33, -1.0591936948168151e-33, 1.0423226876531267e-33, -1.0352227936096563e-33, -1.1487908844269476e-33, -1.1182555819544155e-33, 1.0630169901928646e-33, 1.0568250736999082e-33, 1.124831738163297e-33, 1.0578046829374255e-33, 1.1202180146718156e-33, -1.0096362305185899e-33, 9.896268371091983e-34, 1.0180865655330636e-33, 1.0123614488670782e-33, 1.1288046335625878e-33, -1.0165926775170615e-33, 9.743612062538477e-34, 1.1168952227498272e-33, -9.608237357651982e-34, -1.078078470740256e-33, -1.0460738921646922e-33, -1.0386477066033724e-33, -1.0714010199791123e-33, 1.1677629040717385e-33, 1.0850249995051426e-33, 1.050838409540865e-33, 9.917036968548112e-34, -1.0146523771542355e-33, -1.0068467273227909e-33, -1.058604753779954e-33, 1.1295953371845081e-33, 1.1171563110654044e-33, -9.535538542183393e-34, -1.0801688303038042e-33, -9.978209510893912e-34, -1.1485053678693924e-33, -1.0536887078351205e-33, -1.1632522200069465e-33, 1.0117432123069426e-33, -1.1275652217064396e-33, -1.1191406924663863e-33, -1.0600974479345059e-33, 1.1558821459337792e-33, 1.0642836771913718e-33, -9.939132588923725e-34, 1.0377672797017057e-33, -1.0084593586353252e-33, -1.0135673407671288e-33, 1.0278945046872409e-33, -1.0120884219370005e-33, 1.0389597636193172e-33, 1.0527768731937678e-33, 1.0604674531485265e-33, -1.1618369431756557e-33, 1.0587031095963391e-33, 9.677885397938203e-34, 1.1159957859004558e-33, 1.0507078194653283e-33, 1.0019539157584854e-33, -1.0157539439306506e-33, 1.0919678548501829e-33, -1.0855997060400993e-33, 9.989906598039555e-34, -1.0563116214408889e-33, 1.050310630944445e-33, -1.091822020082284e-33, -1.084241091709938e-33, 1.0594969356251288e-33, 1.0347212799651375e-33, 1.126003559094273e-33, 1.0016841949062694e-33, -1.0112432598658585e-33, 1.0431519621834334e-33, 9.88142132642812e-34, 1.0983719113392642e-33, -1.1590547868195493e-33, 1.1349525608528845e-33, 1.0273175022648802e-33, -1.0929844737926518e-33, 1.0667147464456661e-33, 1.098879210620041e-33, -1.0519043441447707e-33, -1.0778742285968006e-33, -1.063889151899877e-33, 9.735361561563643e-34, -1.0580865260751344e-33, 1.066978589826128e-33, 9.622710631846481e-34, 1.0990224739940474e-33, 1.0452852089236874e-33, 1.0565649955747888e-33, -1.0152685014979595e-33, -1.018719771279073e-33, -1.057406208719596e-33, -1.0441889686060494e-33, 9.87094105960657e-34, 9.574299550046796e-34, -1.0204471969618047e-33, -1.0666249313304236e-33, -1.1712631221723042e-33, -1.0852552310940107e-33, 1.0158415549939853e-33, 1.001633960889871e-33, 1.0999555226350126e-33, -1.0866612325401895e-33, 1.08810424369132e-33, 1.0951431589653416e-33, 1.0564579153862686e-33, -1.0053917775571598e-33, 1.0315726081438646e-33, -1.1022564609912511e-33, 1.125353180110482e-33, 9.759630928133315e-34, -1.1469722660965309e-33, -1.15910281678404e-33, -9.92999220199112e-34, 1.0951933011462438e-33, -1.029371586807446e-33, 1.0621260022091398e-33, -1.0202437813378148e-33, 1.1699181913310704e-33, 1.0887654592636576e-33, -9.713262267768184e-34, -9.447269936696178e-34, -1.042389084716849e-33, -9.631647143977616e-34, 1.044451434454069e-33, -9.69528730610518e-34, -1.1515498982380221e-33, -1.1052716040011103e-33, -1.1307034242811505e-33, 1.1450870670313997e-33, -1.1532049575497815e-33, 1.1157293711261015e-33, -9.583742994116723e-34, -1.0560933284665213e-33, 9.839466280008342e-34, 1.0481493743778628e-33, -1.0553540527224495e-33, -1.1126052193823028e-33, 1.0026683040830984e-33, -1.1442978327774179e-33, -9.707562956876619e-34, 1.0629193690604487e-33, 1.0940349800332031e-33, 9.974450684036165e-34, -1.0295056666318367e-33, -1.0663193027992098e-33, 1.1128470222436868e-33, 1.0225651990096965e-33, 9.910757257320829e-34, 1.1191258151160087e-33, -1.0696592679589798e-33, -9.91196673080523e-34, 1.131955784942257e-33, 1.074890768833116e-33, -1.0542640572185503e-33, 9.706143180106016e-34, 1.1228064899665248e-33, -1.0352593441371271e-33, -1.0992114714451406e-33, -1.076432319471624e-33, -1.132409176786789e-33, -1.1407842985299093e-33, 1.1233474928743915e-33, -1.0115808471497353e-33, -1.1448982532512988e-33, -1.0214730912893857e-33, 1.0354358519607428e-33, -9.803843291048657e-34, 1.13227720917881e-33, -1.0099065023837828e-33, 1.027922514513569e-33, -1.0875697611036805e-33, 1.066518218483888e-33, -1.0138215414204941e-33, -9.643855754836859e-34, 1.0052600854556693e-33, -1.0568369204789126e-33, 1.0962857762085393e-33, 1.0656998723776242e-33, 1.0401711656491373e-33, 1.0551127090385463e-33, 1.0140141204559374e-33, -1.0688697581985095e-33, -9.833771560891585e-34, -1.1475602887784305e-33, -1.0540262032835011e-33, -1.0583280534300299e-33, 1.0275346932132939e-33, 1.0799247315550162e-33, -1.0529303303078478e-33, -9.976201068592936e-34, 1.073910241240637e-33, -1.0889142327674335e-33, -1.1296612750707496e-33, -1.0560621043978276e-33, 1.1494968238859141e-33, 1.0696735024608843e-33, 1.1652429380571633e-33, 1.054391157545233e-33, 9.941661738487916e-34, 1.0591884601935341e-33, 1.0525568353449733e-33, 1.1472591601865285e-33, -9.688490561034527e-34, -1.1724733303406742e-33, 1.0105858095488635e-33, 9.923803407905033e-34, -1.047844939708099e-33, 1.0432044002517396e-33, 9.537035460770768e-34, 1.0442571105441986e-33, 1.053804053218295e-33, -1.070179607880211e-33, 1.1704403679622248e-33, 1.0836393855391108e-33, -1.0678925366838924e-33, 1.0198716639073826e-33, -1.1168071525090117e-33, -1.0580433633919401e-33, -1.0851628445848757e-33, -1.0462815322215054e-33, -1.0317573811621345e-33, 1.0525943960629019e-33, 1.1493192140363445e-33, 1.1402140919342643e-33, -1.0620617173618292e-33, 1.001539278493332e-33, -1.0663842304949935e-33, -1.0935369561375383e-33, -1.099201277705067e-33, -1.0601975486253181e-33, 1.0635059223744098e-33, 9.7318488538356e-34, 1.0686662507390234e-33, 1.0145618273550237e-33], [0.006624686531722546, 0.0066063557751476765, 0.010586566291749477, 0.01242363452911377, 0.009224679321050644, 0.009972535073757172, 0.0093853073194623, 0.007952844724059105, 0.011749858036637306, 0.015247102826833725, 0.012921220622956753, 0.010756817646324635, 0.025317607447504997, 0.014930800534784794, -0.0057602087035775185, 0.00641798647120595, 0.003886572318151593, 0.008489695377647877, 0.008208374492824078, 0.0021468871273100376, 0.010648314841091633, 0.007562474813312292, 0.005328452680259943, 0.008728046901524067, -0.0012668962590396404, 0.00791909173130989, 0.009165573865175247, 0.00356083270162344, 0.0003317187074571848, 0.011485354974865913, 0.003361726878210902, 0.005894467234611511, 0.01216177735477686, 0.005743010900914669, 0.001055137487128377, 0.014958572573959827, 0.012266098521649837, 0.0036578658036887646, 0.010391931049525738, 0.0037342337891459465, 0.003571895882487297, 0.011210143566131592, 0.004221546463668346, 0.005155979655683041, 0.016366969794034958, 0.004838996566832066, 0.003342418232932687, 0.013104609213769436, 0.007322153076529503, 0.0058140321634709835, 0.015470031648874283, 0.007024453021585941, 0.0028370388317853212, 0.021263403818011284, 0.0041316719725728035, 0.007055124267935753, -0.009068746119737625, 0.008286131545901299, 0.00510318111628294, 0.006235134322196245, 0.010673214681446552, 0.006737572606652975, -0.017719486728310585, 0.010777011513710022, 0.005404648371040821, -0.016040150076150894, 0.009067346341907978, 0.00863689836114645, -0.009157375432550907, 0.007180898915976286, 0.003322501899674535, -0.01267410907894373, 0.00218582502566278, 0.002278371714055538, -0.022570312023162842, 0.010790212079882622, 0.0026335185393691063, -0.015862757340073586, 0.007768343668431044, 0.0064969416707754135, -0.006963276769965887, 0.0053015039302408695, 0.0037214604672044516, -0.010666235350072384, 0.0041188523173332214, 0.0008159161079674959, -0.011758852750062943, 0.013943983241915703, 0.004473992623388767, -0.01416377816349268, 0.0008970182971097529, 0.006273243110626936, -0.0059841289184987545, 0.005748544353991747, 0.0045849354937672615, -0.00985446572303772, 0.012860932387411594, 0.010991506278514862, 0.0034350550267845392, 0.008312585763633251, 0.002945642452687025, -0.007663315627723932, 0.004984850995242596, 0.005720095243304968, 0.0035945873241871595, 0.003498533507809043, 0.0022590826265513897, 0.0014449432492256165, -0.00030547796632163227, -0.0008344418602064252, -0.002598753198981285, 0.0019816060084849596, 0.002258849795907736, 0.001665875082835555, 0.0012461264850571752, -0.001173213473521173, -1.0787031357851226e-33, 0.0005160532891750336, 0.0006828671903349459, 1.0595991485323527e-33, -1.0322260176990287e-33, 9.44339998888808e-34, 1.0079014579961654e-33, -1.1517072124429408e-33, 1.1125362509246882e-33, -1.029128590084612e-33, 1.0426380507469333e-33, -1.0505718110955183e-33, -1.0069495830784878e-33, -1.0260710190755278e-33, 1.0292843430860959e-33, 1.0339377395119175e-33, -1.0754449042169332e-33, -1.0409070434798513e-33, -1.1541642711426478e-33, 1.0461665541803156e-33, 1.1084132963246751e-33, -1.1603359838264495e-33, -9.557919770952057e-34, 1.0400386470281813e-33, 1.0404229785796025e-33, -9.948939701558437e-34, 9.792776195406657e-34, 1.1596264627831328e-33, 1.0437208830821321e-33, 1.0908509515459094e-33, -9.772441979847355e-34, -1.0661673150530683e-33, -1.0727745116596512e-33, 1.0872956321476489e-33, -1.0297028374420879e-33, -1.061268717852505e-33, -9.898520177457776e-34, 1.0679083323892315e-33, 9.715915395252188e-34, 1.089813118603828e-33, 1.0863180432910471e-33, -1.1636635511942381e-33, -1.021147167113521e-33, 1.0528178318250543e-33, 1.0953090138714029e-33, -1.0719912467129197e-33, -1.1690741312858823e-33, -1.0567807171552639e-33, 1.0483432391102523e-33, 1.0599564804479034e-33, 1.1027002101086865e-33, -1.1288822345568413e-33, 9.642003432879352e-34, 1.0422219441138414e-33, -1.0777180164178358e-33, -1.041364384250718e-33, 1.0082152598865373e-33, 1.0074046279619507e-33, 1.055474081715928e-33, 1.0422672190134473e-33, 9.905169067379615e-34, 1.0717093117397146e-33, -1.0839068105039229e-33, -9.926146131412023e-34, -1.1346323304777816e-33, 1.0951217612947368e-33, -1.0361139652643734e-33, -1.0397248451378095e-33, -1.0037336876740273e-33, -1.0124494272723976e-33, -1.0267531731409894e-33, 1.0446291361391347e-33, 1.0007820029920133e-33, -1.1657458292341244e-33, 1.0321589777868334e-33, 1.0335996012150638e-33, 1.1620610217862812e-33, 9.987690607517263e-34, 1.0237252649971642e-33, -1.0852233641768438e-33, 1.163603582615247e-33, 1.0640212113433522e-33, 1.1620472464618575e-33, -9.902503082926149e-34, 1.1141478720467647e-33, 1.0438778299450661e-33, 1.0553626852590884e-33, 1.0738310790429489e-33, 9.586309796234338e-34, -1.1193448427743455e-33, 1.048640051433835e-33, -1.0481191604996268e-33, -1.0724078125234923e-33, 1.0703409628469606e-33, -1.050882582414517e-33, -1.0093833155621707e-33, 1.161486039744836e-33, 9.729801840626238e-34, 1.0322637620879496e-33, 1.00360622000536e-33, 1.0613212477563073e-33, 9.691518377342856e-34, -1.0359976096907412e-33, -1.0848522569368694e-33, 1.0646248460595987e-33, 1.061194331100617e-33, -1.0052567793778076e-33, -1.009730453737648e-33, 1.0027792413624573e-33, 9.615528177691965e-34, 1.0541375997403408e-33, -9.733530361770253e-34, 1.0152422365460583e-33, 9.707878870983402e-34, 1.1100803860864312e-33, -1.0240859029905767e-33, 1.0251895819834034e-33, 1.0008059720565105e-33, 1.1007233592183896e-33, 1.1325536340222455e-33, -1.1633401984122658e-33, 1.1640537602174134e-33, -1.0201623232527226e-33, 9.897238153931411e-34, 1.0812393566825179e-33, -1.0623140813052713e-33, -1.012313694409076e-33, 1.0268852325844645e-33, 1.0093036023515056e-33, -1.1492529088081185e-33, 1.1547138147516573e-33, -1.0540153666949545e-33, -1.0684586106822102e-33, -9.758443495167992e-34, -1.0474579449272893e-33, -1.0696449416215792e-33, -1.1720213160285846e-33, 1.0612010350918365e-33, -1.0577582141763696e-33, -1.100645115375663e-33, -1.013750552581964e-33, -1.0863420123555443e-33, -1.0833880317861264e-33, 1.0027537110945254e-33, 9.809712497608114e-34, -9.608850818766317e-34, 1.1504182094188672e-33, -1.0023264005309022e-33, 1.1049547715393652e-33, 1.004941967296978e-33, 1.1406964119600861e-33, 1.0743900817080626e-33, -1.1016950706032373e-33, 1.1308712995681273e-33, -9.606988394904233e-34, 1.000651596587469e-33, 9.62990043284069e-34, -1.0100549085455741e-33, 1.0001624807349315e-33, 9.68973585036243e-34, -9.620203522801368e-34, -1.0505320463256819e-33, 1.0756868907493096e-33, 1.026132732528946e-33, 1.0465136005202966e-33, -1.0724639240116449e-33, -1.0140031920318946e-33, -1.1705226525667823e-33, -1.0420163244379437e-33, -1.0534001607061921e-33, -1.0373780808689882e-33, 9.672401900462609e-34, 1.0027917309899348e-33, 1.0252618565188797e-33, 1.079324770258616e-33, -1.0140205489406685e-33, -9.655892633318287e-34, 1.039561837132129e-33, -1.0271213416450867e-33, 1.1656701567852902e-33, 1.1558021572166256e-33, -1.1681696434842223e-33, -1.0364785521841206e-33, -1.0246345282446245e-33, 9.542510693051708e-34, 1.1152735915586694e-33, -9.882365395328624e-34, 1.0648771181675447e-33, 1.1151743173873226e-33, -1.0210997799975034e-33, -1.0608009996705723e-33, 1.0314904153748032e-33, -1.1733888384018732e-33, 1.0582809418205008e-33, -1.1521414106687758e-33, -1.0687736064340321e-33, 1.0677061106266916e-33, 1.058020588188893e-33, -1.144921028454346e-33, -1.1646040385103921e-33, -1.0769814957386488e-33, 1.0794532481177411e-33, -1.0588760358356046e-33, 1.0790610187136503e-33, -1.0482019042816652e-33, -1.0531003178112362e-33, -1.0508138894633907e-33, 1.0412517020969322e-33, 1.0340295750080755e-33, -1.1350279577952303e-33, -1.0554425821407458e-33, -1.0286963204041963e-33, 1.056649392395758e-33, 1.143201041446803e-33, 1.1263717275983703e-33, -9.62400643069727e-34, -1.0278405972509961e-33, 1.0053464108220578e-33, 1.0519189459886598e-33, -1.1619971961164514e-33, -1.0641940457471216e-33, 1.1455936316282071e-33, -9.89420299078339e-34, 1.0501395414151026e-33, -1.0876745454047968e-33, 1.0270786381393733e-33, 1.0690615107144874e-33, -1.0752423151124087e-33, -9.75314091361983e-34, 9.931278817292294e-34, 1.0485000941376902e-33, -1.0217643934831988e-33, 9.627610973921472e-34, -9.848391771879937e-34, -1.0903359380834554e-33, 1.040820809948959e-33, -1.1226935323062505e-33, -1.0407463313615748e-33, 1.0471762854605727e-33, 1.0342128786584068e-33, 1.115487843771206e-33, -1.040069228248402e-33, 1.0141281801421657e-33, 1.060649103759927e-33, -1.0088962200905488e-33, -1.0200436717916865e-33, 1.0104312504088296e-33, 1.0436056295344539e-33, -1.0731255987614632e-33, 1.006926991546433e-33, 9.92266189268779e-34, -1.1197582861780487e-33, -1.0489339250215405e-33, -1.0558503317436873e-33, 1.0799787308267571e-33, -9.492498918553989e-34, 1.0565063126927438e-33, -1.0669906202761247e-33, -1.051690551109715e-33, 1.0553672770338963e-33, 1.0209232721738878e-33, -1.0249737685674321e-33, -9.557221821181256e-34, 1.0273141043515224e-33, 1.0676268565935073e-33, 1.0898249653828323e-33, -1.0060523502810242e-33, -1.0555799680429982e-33, 9.84987583349785e-34, -1.0924555013347818e-33, -1.078425517080237e-33, 1.092555602025594e-33, 1.0545664715073986e-33, 1.0408404627451367e-33, 1.1175851828324622e-33, 1.0781644287646598e-33, -1.0778798305620662e-33, -1.069021194931674e-33, -1.018992430867166e-33, 1.0234101774098462e-33, -1.1426683037335905e-33, 9.89636571671791e-34, -1.17377757805711e-33, -1.0833973990067345e-33, -1.1667532646269776e-33, 1.0013371485662883e-33, -1.1303476535690344e-33, 1.0715635688073119e-33, 1.0218746879140845e-33, 1.053435517372213e-33, -1.0291341002143814e-33, 1.1276960872884647e-33, -9.762060895361656e-34, -1.0073486083092943e-33, -1.0587333234745751e-33, -1.0160321136485131e-33, -1.0655849861719305e-33, -1.0323993112802788e-33, 1.0524706018140809e-33, -1.0870810125931277e-33, -1.0389964978177804e-33, -1.0424987362992616e-33, 1.0463166133810378e-33, 1.0599000016177662e-33, 1.0519499863863612e-33, -1.1424620412092196e-33, 1.0863780118700383e-33, -1.0939620626492536e-33, -1.0303636856724408e-33, -1.0723989963158612e-33, 1.0541876500857469e-33, 1.095904291557499e-33, 1.0934952628222826e-33, -9.788384621980382e-34, 1.0029563001990499e-33, 9.708218662319187e-34, -1.0586038354249923e-33, 1.0104667907458427e-33, 1.0101935801447727e-33, 1.1658110324363966e-33, 9.571390201528511e-34, -9.548620508611099e-34, 1.0448917856581465e-33, 1.063105611446657e-33, 9.721836948044456e-34, -1.0124495191078938e-33, -9.448441757627154e-34, 1.0111998216761758e-33, -1.0535243222969977e-33, -1.0582323608430333e-33, 9.77620539847991e-34, 1.1315664942740433e-33, -1.042289718710006e-33, 1.0499803905002608e-33, -1.0748202391720666e-33, -1.0406945361417417e-33, 9.644773191443477e-34, 1.0217013943328344e-33, 1.0605552478828535e-33, -1.0852230886703554e-33, 1.0654653245204367e-33, -9.917180231922119e-34, 1.1270127393615531e-33, -1.1267723140326115e-33, 1.101854772531056e-33, 1.1421471372928939e-33, 1.0289616331525967e-33, -1.0743065114065588e-33, 1.1680574205079172e-33, 1.1377013809238855e-33, 1.0895921624000718e-33, -9.981433855164019e-34, 1.036018364512873e-33, 1.1299641485370786e-33, -1.0342447455755736e-33, 9.636745850724307e-34, 1.055838576800179e-33, 1.0617887822672476e-33, -1.1671925138051013e-33, -1.0899816367392778e-33, -9.971945411700975e-34, -1.0479541321130309e-33, 9.678294984251067e-34, -1.003479487020662e-33, -1.057864284174432e-33, -1.0485219509857758e-33, 1.0458340178487275e-33, -1.0208481507380305e-33, 1.0224499454620182e-33, 1.1535687179500633e-33, -9.693978650284929e-34, -9.671958335016166e-34, -1.0959176077044419e-33, -1.0795190941684864e-33, 9.710894748677231e-34, -1.025790369799269e-33, 1.0618380060931883e-33, -1.0223874973246308e-33, 1.0615311837005245e-33, 1.129904455464576e-33, -1.0443168954521975e-33, -1.125286323869279e-33, -1.0859222323026061e-33, 1.0593201522950247e-33, 1.0604178619806011e-33, 1.1048648645886265e-33, -1.111618906153566e-33, 1.0456206839911525e-33, 1.0149766482911694e-33, -1.0129258698264653e-33, 1.1729157019256673e-33, -1.1040853648972375e-33, 1.0631129582863497e-33, 1.0505486685504865e-33, 1.0074775453459001e-33, -1.16201730809011e-33], [0.0004285504692234099, 0.0004410001274663955, 0.00016638150555081666, 0.0013791038654744625, -5.768318078480661e-05, -0.00013634050264954567, 1.1358558367646765e-05, 6.419957207981497e-05, 0.0009621780482120812, 0.0016405321657657623, 0.0007988446159288287, -0.0006409145426005125, 0.001604628749191761, 0.007602428551763296, 8.7785127107054e-05, 0.0003894473775289953, 0.00011213895049877465, 6.127023516455665e-05, 0.00043701945105567575, 0.00010718652629293501, -4.090728180017322e-05, 0.0002968134358525276, 0.00012019660789519548, 0.0002257296146126464, 0.00039509416092187166, 0.00030964662437327206, 0.0004431441775523126, 0.0006716166390106082, -0.0001554965419927612, -0.001303764758631587, 0.0006131022237241268, 0.0001832388952607289, -0.00013588040019385517, 0.0005509600159712136, 0.0004540163208730519, -0.0009750877507030964, 0.00047668933984823525, 0.00044197446550242603, -0.0009560875478200614, 0.0005934332148171961, 0.0005399213405326009, -0.001000071526505053, 0.0006324526621028781, 0.00043776596430689096, 0.0006381595740094781, 0.000721436575986445, 0.0004908263799734414, 0.00012491834058891982, 0.0005920701078139246, 0.00055678904755041, -0.0004349902446847409, 0.00040633376920595765, 0.0005935757071711123, -0.0001397106098011136, 9.496590791968629e-05, 0.0004762645985465497, -0.0020584850572049618, 0.0005687511875294149, 0.000432027067290619, -0.0021391266491264105, 0.0005085966549813747, 0.0004035437013953924, -0.0013549947179853916, 0.00033290640567429364, 0.0005138094420544803, 0.0016424054047092795, 0.0002600163279566914, 0.00038685763138346374, -0.0005285554216243327, 0.0001191114861285314, 0.00048366174451075494, 0.0008570920326747, 0.0002436130162095651, 0.0003966216463595629, 0.0002115308161592111, 0.0004838289460167289, 0.00017695031419862062, 0.0011971164494752884, 0.00034499692264944315, 0.000392560672480613, 2.0991645214962773e-05, 0.00045476757804863155, 9.638885239837691e-05, 0.0005495040095411241, 0.000345761509379372, 0.00039018233655951917, 0.00033552106469869614, 0.0005613258690573275, 0.0004606576985679567, 0.0007635052315890789, 0.00046974903671070933, 0.0002918321988545358, -0.00035197133547626436, 0.000667925167363137, 0.00036556259146891534, -5.1832823373842984e-05, 0.000427486578701064, 0.00031950048287399113, 0.0005282885394990444, 0.0002550641947891563, 0.00025506672682240605, 0.0011764399241656065, 0.00028729598852805793, 0.0003636586188804358, 0.0010142051614820957, 0.0005059375544078648, 0.00021441240096464753, 0.0008399185026064515, 0.0003296845534350723, 8.302102651214227e-05, 0.00031784840393811464, -0.0008792007574811578, -0.0006163426442071795, -0.00040733831701800227, -0.0005410386947914958, 3.799593469011597e-05, -1.0630737445294903e-33, -3.06617803289555e-05, -3.200054197805002e-05, 9.957202141147771e-34, 1.0273048289664104e-33, 1.084571883167099e-33, 1.0562647853378483e-33, -9.466662838419861e-34, 1.0260184891717254e-33, -9.656246199978495e-34, 1.1267182229253744e-33, 1.1465867406836597e-33, -1.0100498575932854e-33, -1.0679137506835049e-33, 9.598958299120179e-34, 1.0569512556716293e-33, -1.06361539028583e-33, -1.047428190226534e-33, -1.0373824889728037e-33, -1.025922888420225e-33, 1.068156196393362e-33, 1.025159092598679e-33, -1.0620879823137304e-33, -1.0540763454644034e-33, 1.0586316615803282e-33, -1.03830690507713e-33, -1.074110167115773e-33, -9.701363142530993e-34, 1.025378854940985e-33, 1.0811612965107836e-33, 1.0040505201357724e-33, -1.0104783620183586e-33, -1.0009555720797519e-33, 9.778816281635681e-34, -1.0085409085559135e-33, -1.0540729475510455e-33, 1.0468865444701942e-33, -1.0738646908345427e-33, 1.0606322060286339e-33, 9.95119150792423e-34, 9.743424718126315e-34, 1.1161619163130057e-33, 1.1017717532425292e-33, 1.0628782267581699e-33, 1.0579587828999786e-33, 1.1470701627354353e-33, 1.0339709839615267e-33, -1.0288828382968932e-33, 1.1337721992207659e-33, 1.0533479063088782e-33, -1.0820228053002417e-33, 1.1741041450814478e-33, 1.0962924801997588e-33, 1.1160035919176293e-33, -1.0556201001548192e-33, 1.0016425934265098e-33, 1.0504674859718828e-33, 9.78248878312704e-34, -9.80359533520903e-34, -1.0271078418271515e-33, -1.1517484465807157e-33, 1.175196987485728e-33, -9.53700699176696e-34, -1.0947716843833825e-33, 1.1574122171352675e-33, -1.0158260347951346e-33, -9.497552625907563e-34, -1.0223856606147076e-33, 1.0348463599109046e-33, 1.073453359647251e-33, -1.1192028650972852e-33, -1.1232133212145047e-33, 1.1225477893738477e-33, 1.1443255670972576e-33, -1.0460688412124035e-33, 1.070012191770715e-33, -1.0066380770755199e-33, 9.524823176491679e-34, 1.0030338093578072e-33, -1.0053730431159436e-33, -1.0315276087507472e-33, 1.0011196821113862e-33, -1.1269368832417266e-33, 1.1654807919922125e-33, 1.1028102290330838e-33, -1.0648254147832078e-33, -1.0250037069391796e-33, 1.1516994064257674e-33, 1.0096736994010223e-33, -1.1044383805444688e-33, 1.06766790706029e-33, 1.0692410491094763e-33, -1.0959882292009874e-33, -1.0661201116080431e-33, -1.041660829232316e-33, -1.0447210634707888e-33, -1.0527052415067646e-33, 1.0143952377649931e-33, 1.1218795943038022e-33, 9.653934700540198e-34, -1.0546616130814183e-33, -1.047299069518936e-33, 9.847264950342078e-34, -1.0816299330476778e-33, 1.1342794066660465e-33, -1.1219856643018647e-33, -9.59691863275051e-34, -1.0271782796527047e-33, -1.060449728897768e-33, 9.942289893281637e-34, -1.1363470828620436e-33, -9.848880336719497e-34, 1.1066286571278369e-33, -1.0936189652356074e-33, 1.112943633185645e-33, -9.719401470686346e-34, 1.018708200006557e-33, 1.1175865603649046e-33, -1.0264323917529095e-33, 9.873807245441661e-34, -1.1438836546897454e-33, -1.0444955154922248e-33, -1.0592159190068854e-33, 1.105977727131069e-33, 9.454789427121595e-34, 9.935658452104068e-34, -1.0128348608497727e-33, 9.948803785024123e-34, 1.1607906613679277e-33, -1.1030669092448454e-33, 1.0161304694648984e-33, 9.685395704814003e-34, 1.0072463035665743e-33, 9.674455342156702e-34, 1.1126150457803917e-33, 1.1279389003403064e-33, -1.0309942281890616e-33, 1.0902713777296563e-33, -1.0526993640350105e-33, -1.0736519079899446e-33, -1.1499469096525844e-33, 1.0843101520030488e-33, 1.0449902333100279e-33, -1.0189545028072527e-33, -1.1692858121045265e-33, 1.1363283484208274e-33, -1.1378863376131477e-33, -1.0482870357866036e-33, -1.1489574740169782e-33, 1.0167730424315158e-33, -1.041588738367832e-33, 1.0352700888901776e-33, -1.027869617267782e-33, -1.0139581926387772e-33, -1.0584720514880056e-33, -1.0160989698897162e-33, 9.706103690842669e-34, 1.1460961554631837e-33, 1.0205573995571943e-33, 1.0513188010212674e-33, -1.0807514346914305e-33, 1.1000626028235328e-33, -1.1100705596883423e-33, -1.1454275012156573e-33, 9.778715262589907e-34, 1.0399731683194207e-33, -1.050729217135933e-33, -9.946079944208077e-34, -1.0531159298455831e-33, -9.814044377961887e-34, -1.0034197021126631e-33, -9.55240504940777e-34, -9.861543533284723e-34, -9.759733783889012e-34, 1.0635419218889037e-33, -1.1672053707745634e-33, -1.0714442744978027e-33, -1.0671999133718688e-33, 1.050074062706342e-33, 9.599899612955798e-34, -1.0424385840492781e-33, 1.020742080739968e-33, -9.930462399731449e-34, -1.0561702866123017e-33, -1.0028320467727481e-33, 1.1150477680736169e-33, 9.529813517352904e-34, -1.1513035036018303e-33, -1.018182166284564e-33, -1.1737462621529201e-33, 1.0288146045232478e-33, 1.021261134964253e-33, -1.0389051214991032e-33, 9.86994097105341e-34, -9.921243034272148e-34, -1.0077368887870503e-33, -1.0344701098831454e-33, -1.0770493621703095e-33, 1.0798845994431952e-33, 9.92638857712188e-34, 1.0762220161854222e-33, 1.0010215099659933e-33, 1.0678652615415334e-33, 1.0646748045695087e-33, -9.81827799433477e-34, -1.0800497196652872e-33, 1.1570213652636191e-33, 1.1556678937212426e-33, 1.08635000204371e-33, -1.1560700413589185e-33, -9.940038086915843e-34, 9.960600972860579e-34, -1.0687796675767786e-33, -1.1103808718298601e-33, -1.0849045113341833e-33, -1.083459296131145e-33, -1.0895342142019961e-33, -1.1710567678124372e-33, -9.946356369051512e-34, 1.115582618003241e-33, 1.0542562512013769e-33, 1.1227427561321911e-33, 1.028170654024188e-33, -1.08619415720673e-33, 1.1625065157781436e-33, 1.0003065706284034e-33, -9.499667597384082e-34, 1.0782270605730396e-33, 1.016666237749484e-33, -1.1718604202393158e-33, -9.964076028035197e-34, -9.962554313863859e-34, -1.1295328890471207e-33, -1.0704107578240406e-33, -9.717228642847248e-34, -1.0958647104586549e-33, 1.1237029880800191e-33, 1.1391971974853069e-33, -1.028917643949937e-33, 1.0613487065696585e-33, -9.941122664125469e-34, -1.0166036059411043e-33, 1.062906236584498e-33, 1.0963631935318005e-33, -9.90148646398368e-34, -1.0993831119874599e-33, -1.0856430523942859e-33, -1.0791420176212617e-33, 1.096172267535288e-33, -1.0075669012836618e-33, -9.91697176534584e-34, 1.033973463519923e-33, 1.040458702587608e-33, -9.732323643350737e-34, 1.0396267648279127e-33, 1.0003824267482299e-33, -1.0243359710466149e-33, 1.060209119897834e-33, -9.759178179137256e-34, -1.0269583336394063e-33, 1.1015405114632034e-33, -1.0606345019160378e-33, -9.884282920488403e-34, -1.1655267097402915e-33, 1.0076299922695224e-33, 9.97053573683495e-34, -9.839812499828857e-34, 1.1401335522041338e-33, 9.8417906364161e-34, -1.0183188175028471e-33, 1.0858531720094953e-33, -1.0608450807087281e-33, 9.49377818701547e-34, -1.1304114792388642e-33, -1.0272111567603293e-33, 1.1546870906222753e-33, -1.0409038292374857e-33, -1.1436635250054546e-33, -1.1239593927852922e-33, -1.0435910276905647e-33, -1.0512561692128876e-33, 1.172541196772335e-33, 1.0608086220167534e-33, 9.842014715026726e-34, -1.0551738714789875e-33, -1.0813282534427988e-33, -1.0083945227750377e-33, -1.0425744087480958e-33, -1.0398627820530388e-33, 1.1615230494497877e-33, 9.642693117455499e-34, -1.1462296842745974e-33, -1.0457297845605882e-33, -1.139437898320737e-33, -1.0344964666705427e-33, 1.053098389265817e-33, 9.85298538339776e-34, -1.157250862168518e-33, 1.0648200883244306e-33, 1.0270881890309737e-33, 1.062706769886843e-33, 1.1689447350717957e-33, -1.021240196471129e-33, 1.0164136901350496e-33, 1.0988511089582166e-33, 1.0007854927408673e-33, 1.0755903716428475e-33, 1.0251130830151038e-33, -1.0349748377700297e-33, -9.813890094328341e-34, 1.0002472448978853e-33, -1.1561624278680534e-33, 1.0489614756703879e-33, -1.0495432535385488e-33, -1.0349247874246236e-33, 9.504395288726295e-34, 1.0587131196654204e-33, 1.1096564734361659e-33, -1.1503102108753854e-33, -9.843240718900435e-34, -1.0338399347085092e-33, -9.629137279867618e-34, -1.0775618042388711e-33, 1.0741088814188268e-33, 1.0312837855084477e-33, -1.0827355405859239e-33, 9.831412306995286e-34, -1.1026931387754823e-33, -1.0438207082664559e-33, -1.174783727753017e-33, 1.044836868031444e-33, 1.1067890937396249e-33, 1.0806526196975645e-33, 1.1462669694860375e-33, -1.0082330759727919e-33, 1.088661134140022e-33, -1.0140845582814906e-33, -1.0076769202080591e-33, -1.051265720104488e-33, 1.1325612563684266e-33, 1.0365790202169175e-33, -1.0180578210227661e-33, 1.0840227987355704e-33, -1.0768216101398377e-33, -1.0903801109571074e-33, 9.566626694342796e-34, -1.028184613019604e-33, 1.0603162919218504e-33, -1.143450374818872e-33, -1.075799297396607e-33, 1.011101098517806e-33, 9.573374766600485e-34, 1.1367956074252793e-33, 1.002085056846999e-33, 1.0430259638827046e-33, -1.0276186308567823e-33, -1.0481741699618254e-33, 1.0430507594666673e-33, 1.0099864911009364e-33, -1.0732671172610426e-33, 1.0742301961092515e-33, 1.0866980585741489e-33, -1.138160282898187e-33, 1.01879250499203e-33, 1.007300762015796e-33, -1.0467930559351054e-33, -1.1222624564872849e-33, -1.0321775285570573e-33, 9.953455252904525e-34, -1.0857729996213494e-33, 1.0764948594445076e-33, 1.0123622753865437e-33, -1.005148321656845e-33, -1.0211269633043662e-33, -1.0842646934324506e-33, 1.075166367157086e-33, 1.0597977887105424e-33, 1.150884825574846e-33, 1.0509975604557067e-33, 1.1421635758467062e-33, 1.040700505448992e-33, 9.537555249679023e-34, -9.69127042150323e-34, -1.0756774316932053e-33, 1.0058311185707796e-33, 9.811866039993019e-34, -9.660446755572762e-34, -9.956404090686158e-34, 9.834259207376184e-34, 1.1041545170258445e-33, -1.0329820075034013e-33, -1.0350258983058935e-33, 1.0174341661683572e-33, -1.0594175897564483e-33, -9.817152091151873e-34, -1.1256932469527551e-33], [2.7495386626034606e-21, 2.7500477744990286e-21, 3.6465590874707494e-21, 1.3390650575910949e-21, 2.536969602997063e-21, 2.8430944862496987e-21, 3.977644186096851e-21, 2.9058812509825598e-21, 2.8563445221799273e-21, 3.0740618521368654e-21, 3.481617334623115e-21, 3.968662329425975e-21, -1.320783679429141e-21, -6.516265726938319e-22, 3.91623895031186e-21, 3.911970569104115e-21, -2.094817735677245e-22, 3.9078605154354925e-21, 2.8941581468422513e-21, -3.9477717275556864e-23, 3.3060155339692736e-21, 4.796305605744471e-22, -1.7275632257072408e-22, 3.476145341000621e-21, 4.137983131200025e-21, 1.929105145818352e-21, 2.9006822915856933e-21, 3.683252302455719e-21, 1.9519576258272633e-21, 3.2670720080551834e-21, 3.860715663384588e-21, 2.0877594374376598e-21, 3.3544264004879746e-21, 3.744380868944031e-21, 2.8810201922694365e-21, 5.082845698049561e-23, 2.0287315381201916e-21, 1.2552751552466502e-21, 3.2142170652279273e-21, 3.0878658325056275e-21, 2.678898730761139e-21, 3.2176001046862985e-21, 3.8492082401266544e-21, 2.1177962314826e-21, 1.921039327052393e-21, 3.1731233947870178e-21, 2.4366028678911173e-21, -1.427343262941885e-21, 1.6923631666436737e-21, 3.0400834293820108e-21, -1.8651198173805344e-21, 3.749031740405724e-21, 2.4528667816196227e-21, -6.222697510007724e-20, 1.7391759145643673e-21, 1.510347182145691e-21, -1.6729568349655513e-21, 3.047358620194321e-21, 2.118842728048579e-21, -1.6299399090159385e-21, 2.554968859255761e-21, 8.678584712553516e-22, -4.16759482388036e-21, 2.8621816384946814e-21, 2.079636669225231e-21, -6.747235112309403e-22, 2.133692397189753e-21, 2.378343180255815e-21, -2.5646841924854243e-21, 2.8190135541738538e-21, 5.514614426673567e-21, 2.3236204672404853e-22, 2.3846991019889404e-21, 4.4033235269995e-21, -3.129304430799623e-22, 1.4399214165728061e-21, 4.283700204947904e-21, 1.0373423463557292e-21, 9.939179895257879e-22, 3.9595834365528693e-22, -3.070255730797806e-21, 1.692832090809286e-21, 1.7714380284249507e-22, -3.45475819852215e-21, 2.7565398094481844e-21, 1.706216927290999e-21, -1.0067228302264333e-21, 1.6082809440021904e-21, 2.6451303343336906e-21, -5.345395709811539e-22, 3.0772439529454587e-21, 4.990180302727813e-21, -1.5320654442559627e-22, 4.156438386927264e-21, -3.510442236369244e-21, -2.31020538898711e-21, 5.139040905141464e-21, 6.1165430147739646e-21, 1.5502646041789307e-21, 2.1048884980763647e-21, 1.3411190746834476e-22, 2.111900076817699e-23, 9.094626672305712e-22, 2.3747802047804066e-21, 3.757070346625897e-22, 3.7958661472914317e-22, -4.96830151688966e-23, -3.52313610642863e-23, 4.1893575398803625e-23, 9.949994105417628e-23, -1.1743254803271378e-23, -3.606272895052424e-24, -5.95710268952692e-23, -5.650326674172228e-24, 7.7845814716005575e-25, -2.8601781116557064e-24, 1.0555163260441607e-33, -2.9965173363355065e-24, -3.341033798459511e-24, -9.870119131915956e-34, 1.0072421709692472e-33, 1.064367522999364e-33, 1.0293704847814921e-33, 1.0620596051454176e-33, 1.0876815249025048e-33, 1.100008052538815e-33, 1.1152684487708846e-33, -1.040123319355639e-33, -1.069831459514276e-33, 1.0012371397109723e-33, -1.0499407175659206e-33, 9.96213646235634e-34, 9.669340105020701e-34, -1.0113943292570384e-33, -1.0780986745494107e-33, 1.0206098376255005e-33, 1.0197901139867943e-33, -9.645190124596035e-34, 1.0832496356934163e-33, -1.0835915392456125e-33, -9.948851539482125e-34, -1.1551650025442815e-33, 1.0289191133178756e-33, 1.0110496706399575e-33, 1.092763701259888e-33, 1.045539593248045e-33, 1.0561124302497222e-33, -1.0955767143427034e-33, 1.0391852197623851e-33, 1.0347648099903164e-33, -1.1368476781516009e-33, 1.0233325764155927e-33, 1.0474875159570521e-33, -9.976100967902124e-34, -1.1523154389339952e-33, -1.0511073957091117e-33, -1.0825944812638252e-33, 9.784689161614985e-34, -9.912547131140948e-34, 1.1376270860074937e-33, 9.77042802741661e-34, 1.164904524253821e-33, 1.0199339283737777e-33, -1.0596850147212604e-33, 1.1700613628695807e-33, 1.1642333904478985e-33, -9.583902787880038e-34, -1.0430728918212413e-33, -1.0451909857046293e-33, 1.0578551006248162e-33, -9.98416045104495e-34, 1.0809385035971043e-33, 1.0637247663617543e-33, -1.0981360777851305e-33, -1.1011511289594935e-33, -1.0175510727549663e-33, -1.0542624960151156e-33, -1.055766485935695e-33, 1.0413385784762977e-33, -9.739338956902246e-34, 1.0039696130636572e-33, 1.003621923875203e-33, 1.046075545203623e-33, -9.860584770704833e-34, 1.1118835760534933e-33, -1.0045737987928806e-33, 1.0402548277861372e-33, -1.080909299909326e-33, -1.002691354792634e-33, 1.058325757542626e-33, -1.0216711804545984e-33, 1.1011535166823936e-33, -1.029591257314256e-33, -1.0606868481488479e-33, -9.604538223866738e-34, 1.0304186951346394e-33, -1.0940021029255785e-33, -9.986155118021501e-34, -1.0550016799236913e-33, -1.0257115749435654e-33, 1.108815994975328e-33, 1.168466547643301e-33, -1.0415632999353963e-33, 1.0261619362167242e-33, -1.0155620077436804e-33, -1.1646460073321363e-33, -1.052436990022487e-33, -1.0110071508052363e-33, -1.07532212015857e-33, 1.0004485483054636e-33, 9.848692992307335e-34, -1.0851446611566364e-33, 1.008029109335825e-33, -1.1313673030828766e-33, -1.0691690500804884e-33, 1.0011830486037352e-33, -1.1074941148436298e-33, 1.0752492027746206e-33, -1.0453383816759628e-33, -1.0581678923247304e-33, 1.1612883179216078e-33, -1.0378840026173225e-33, 1.0119484646408558e-33, 9.736065021464213e-34, 1.1582625219941944e-33, -9.776383559342456e-34, -1.0933522749547646e-33, 9.887275839308192e-34, 1.1069469589575205e-33, 1.1003505989394843e-33, 1.04698177787971e-33, -9.809238626447939e-34, -1.0489492615493989e-33, -1.0516347151280509e-33, -1.028160827626099e-33, 9.96374633860399e-34, 1.0142989941650195e-33, 1.1287184000316955e-33, 1.1473380468777282e-33, 9.726944838340763e-34, 1.0773318481564915e-33, 1.0836283652795718e-33, -1.034157777360712e-33, 1.064157127877666e-33, 1.1545764288494049e-33, 1.0314224571076463e-33, 1.0672425250420861e-33, 1.0870406968103143e-33, -9.704274327759201e-34, -1.1425820702026981e-33, 1.053955765457948e-33, -1.1040314574609928e-33, -1.1052091558637228e-33, 9.511296726262568e-34, 1.071828055036247e-33, 1.0941378357889e-33, 9.502595313001598e-34, -1.0617615989603849e-33, 1.0814780371370325e-33, 1.1666747452777625e-33, 1.0392143316146672e-33, -1.0416004933113403e-33, 1.0428264053495533e-33, -1.06395362041818e-33, 1.0703213100507828e-33, 1.0703314119553601e-33, -9.642557200921185e-34, 9.976555553608106e-34, -9.545420041569993e-34, 1.041827051480362e-33, 1.0670450787253464e-33, -1.0435660484356098e-33, 1.121536496890156e-33, -1.065895665655433e-33, -1.0876413927906837e-33, 1.0478105013970398e-33, -1.1480189152462435e-33, 1.0880291222554628e-33, -1.1219838275919415e-33, -1.0342285825282498e-33, 1.0451474556794504e-33, 1.0936201590970574e-33, -1.07653113446549e-33, 1.0594239264056832e-33, -9.77626968332722e-34, 1.1086496808917858e-33, -1.0696440232666176e-33, 1.069243161325888e-33, 9.66728758168157e-34, 1.031704208409859e-33, 1.1409761428813834e-33, 9.802776162583301e-34, 1.1402665300025706e-33, -9.965247848966173e-34, -9.731059068568641e-34, -1.0497521792923082e-33, 1.0504628941970749e-33, -1.0794959516234546e-33, -1.031919287141861e-33, -1.1161977321565073e-33, -1.04273613105683e-33, 9.869996072351104e-34, -9.69994887589016e-34, 1.0717808515912217e-33, -1.0345235581419093e-33, 1.0117617630771666e-33, 1.141935640145242e-33, -9.922231184210808e-34, 1.1447148577654713e-33, -9.857115225659985e-34, 1.1587556786085628e-33, 1.0548357331821338e-33, -1.0594455077472803e-33, -9.757766667561308e-34, -1.0421518736302729e-33, 1.0830011288408128e-33, 1.0533200801535423e-33, 1.0718348508629626e-33, 1.0600573158226849e-33, -1.0592166536908546e-33, 1.0187388730622738e-33, 9.63413221250365e-34, -1.0534718842286915e-33, 1.0621750423640881e-33, 1.0331344544270235e-33, -1.1112972064105245e-33, 9.909061974061752e-34, -1.02939013757767e-33, -9.871677580285757e-34, 1.0546136749524238e-33, 1.0342486026664123e-33, -1.1011516799724705e-33, 1.072479076868511e-33, -1.0931221352013927e-33, -1.0873184073506961e-33, 9.942311015445753e-34, 1.0450438652397842e-33, -1.0524988871468976e-33, -9.86961036326724e-34, -1.1624892507048659e-33, 9.999720139158998e-34, 1.0153497759120593e-33, 1.0658075035791213e-33, -1.0418777446742412e-33, -1.049021444249379e-33, -1.0571522835727191e-33, 9.80482776756747e-34, -1.0260976513694136e-33, 1.1383233827393636e-33, -9.979314291912692e-34, 1.035345853174508e-33, -1.0653767951021404e-33, 1.0496552928438615e-33, 1.1062794985714442e-33, -9.615184712936334e-34, -1.0603724952454991e-33, 9.824873619668837e-34, 1.151296983281603e-33, 9.54341251762398e-34, -9.973567226563125e-34, 9.783627543279398e-34, 1.0690265213904512e-33, 9.922966786535034e-34, 1.093517578847849e-33, 1.021752271197706e-33, 1.0540862636979884e-33, -9.529472807662158e-34, -1.0149591077114032e-33, 1.029787234263057e-33, 1.0623456727159497e-33, 9.774098692198045e-34, 1.019910234815769e-33, 1.0595674652861781e-33, 1.0087485486127267e-33, -1.1399484118438793e-33, -9.6626664195149e-34, -1.076597990706693e-33, 1.0640505987021228e-33, 9.656046916951832e-34, 9.855650449496265e-34, 1.1099439185391404e-33, -1.1012478317369479e-33, -1.0523855621446386e-33, 1.0576455320225837e-33, -1.1066356366255449e-33, 1.0124553047441517e-33, 1.0629339709043378e-33, 1.118969602937044e-33, -1.0842309898053606e-33, -1.0408320138794902e-33, 1.059413365323625e-33, 1.0478440213531375e-33, -1.1051770134400675e-33, -1.0537863289675364e-33, 1.00718569213911e-33, -1.0407098726696e-33, 1.0802205336881411e-33, 9.812332564313502e-34, 1.1574743897661665e-33, 1.0231690173969353e-33, -1.1504669740673271e-33, 1.1238106192815163e-33, 1.0513494740769841e-33, -1.0592543062442794e-33, -9.660665324053618e-34, 1.002545979202216e-33, 1.0507645738019539e-33, -1.0260202340461524e-33, 1.10635489551379e-33, -1.1286988390710138e-33, 1.0279107595700608e-33, -1.0409290839989292e-33, -1.1180386665124904e-33, 1.1069928767055995e-33, -1.0069605115025306e-33, 1.1207655378999096e-33, -9.892431484062502e-34, -9.712737887085122e-34, 1.0432216653250173e-33, -1.129641163097091e-33, -1.0861475966101779e-33, -9.666468409055841e-34, -1.1584998249162666e-33, 1.0926613046816719e-33, -9.52192944000774e-34, 1.1076323272653476e-33, -1.0815747399144868e-33, 1.0106924305599029e-33, 1.1448946716669487e-33, 1.1591345918657106e-33, 1.037990072615385e-33, 1.0634323621419872e-33, 1.0463989898210915e-33, -9.950710289924363e-34, -1.0674849707519432e-33, -1.0303471552831323e-33, -9.783784581977829e-34, 1.1597409816468419e-33, 1.1379406123913771e-33, 1.0673808292993e-33, 9.857719503224704e-34, 1.112209500229358e-33, -1.076801406330683e-33, -9.847531273280937e-34, -1.0182946647673576e-33, 1.0101332442237969e-33, -1.026218231375869e-33, 1.159026685157725e-33, 1.0821224468135731e-33, -9.98388127113663e-34, 1.0760802221793542e-33, -1.0536214842519328e-33, -1.081664922371714e-33, 1.0732524235816574e-33, 1.1614077040666132e-33, 1.0831482493056579e-33, -1.020548491514067e-33, 1.0524028272179163e-33, -9.953551680175491e-34, 1.0245660189644906e-33, 1.1175596525645303e-33, -9.959924145253894e-34, -1.0172828212706888e-33, -1.0690241336675511e-33, 1.0128904213249483e-33, 1.0492623287558015e-33, 1.1753073737521098e-33, 1.0726954412974591e-33, 9.818351462731696e-34, -1.0389726205887794e-33, -1.0207558560643917e-33, -1.0610378434151637e-33, -1.0706186733873423e-33, 9.497279874483974e-34, 1.0639221208429978e-33, 9.873427964842529e-34, -1.1699159872791626e-33, -1.061527969458159e-33, -1.0063805703442929e-33, 1.0367603953218295e-33, -1.0135631163343056e-33, 1.1705708662022653e-33, -1.1212867961761024e-33, -9.597228118372562e-34, -1.1017746919784063e-33, -1.0622777144487928e-33, 1.0457892021266024e-33, 1.0156236293616024e-33, 1.0895179593191761e-33, -1.1735722338877008e-33, -9.856756148870007e-34, 9.637955324208708e-34, -1.1241913692485873e-33, 9.818165955029457e-34, 1.1470483058873497e-33, 1.026697153488333e-33, 1.0175541951618357e-33, 1.0146656933011784e-33, -1.0599375623356949e-33, -1.0765678686639532e-33, -1.0048656519996707e-33, -1.1140464856590063e-33, -1.1153207031681985e-33, 1.1427189969274697e-33, -1.0613031561635642e-33, 1.144672797108231e-33, -1.0420649054154112e-33, -1.1147550883473614e-33, 1.0691212956224863e-33, -1.051690551109715e-33, 1.0371614409335515e-33, 9.825267593947355e-34], [-4.534773390130198e-10, -3.282870919552039e-10, 5.470081987368758e-07, 1.3632896980197984e-06, -1.2410608007940027e-07, -7.290963708328491e-07, -4.942789928463753e-06, 1.8523234075473738e-06, 5.843304279551376e-06, -1.1969906381636974e-06, -1.819895828703011e-06, -6.0375828070391435e-06, -0.0009689625003375113, -0.0001325068442383781, -1.0047493882615347e-33, 2.4455565669608424e-24, 1.0000375844601566e-33, 1.6160116445007588e-07, 4.202190590667839e-15, -1.0230424680832296e-33, -5.821021659357939e-06, -6.90210909259914e-13, -1.050916377877103e-33, 4.5009746827417985e-06, -5.265985672693596e-13, 1.031957674379255e-33, 4.575311777443858e-06, -4.0937244642335474e-14, 1.0044335659902473e-33, -2.0015615973534295e-06, 3.813982549921713e-13, 6.117831142590656e-22, -5.2842947297904175e-06, -1.2536680027430691e-11, 2.1244670412455405e-22, -7.490695566048089e-07, -9.08895441548152e-12, 1.4289175435517318e-19, 2.556467279646313e-06, -7.445389443860861e-11, 1.940021101334098e-17, -7.600754656778008e-07, -3.8005203151225686e-11, 1.5214095784523048e-14, -5.521442744793603e-06, -5.108298783973453e-10, 4.918561421324817e-14, -1.0306273907190189e-05, -4.401321529456936e-09, -1.2650642896249158e-14, -7.383954994111264e-07, -1.0236581360345554e-08, 7.326610021798907e-14, 9.67843106991495e-07, -2.8442601163192194e-08, -3.1101534108540774e-12, 3.691291681207076e-07, 5.472184039234662e-09, -3.024379705007796e-11, -1.3789580179945915e-06, -1.167290086812045e-08, 5.218927720540556e-11, -1.1387063523216057e-06, -1.2361029533280998e-08, -5.605281863663159e-13, 1.183066274279554e-06, -1.1739060834514703e-09, -1.1218481005270675e-11, 3.852259851555573e-06, 1.0238620617997185e-08, -1.599711845195334e-13, -4.1046137084777e-06, -4.874603387605703e-09, 7.274447700027914e-14, -2.7534501896298025e-06, -9.604421424835863e-11, 2.564336174231286e-14, 2.7104533728561364e-06, -7.908421834068591e-11, 1.1950201547192746e-16, -5.944025360804517e-06, -3.066394707595954e-11, 1.074556253926401e-17, 4.0355260466640175e-07, 6.434684035605542e-11, 2.498779748480934e-21, -4.1342277654621284e-06, -1.6890604583388868e-12, 2.15398580611124e-23, 2.819904693751596e-06, 3.681565685989541e-14, -1.0317729931964813e-33, -7.968298632476944e-06, -1.7184841603120476e-13, 4.4919769361870655e-30, 1.3638203881782829e-06, 4.601687954297606e-12, 3.5593194502394103e-26, 4.58257233049153e-07, 9.43686968846169e-13, 1.4197176924777054e-18, 2.892529209930217e-06, 2.1210217610034832e-11, -6.535412131174895e-14, 1.5034956390991283e-07, 1.5836016942216702e-09, -4.2218607082533666e-12, 1.2873053378825716e-07, 2.0147930968050787e-07, -3.5028591138797083e-09, 3.986023955349083e-08, 9.23478580716619e-07, -3.8038638905391053e-08, -3.600311368479048e-11, -1.257772441753957e-09, -2.6750240479430853e-22, -1.1067755020861935e-33, -2.67079336521471e-25, -1.0296055748839733e-24, -1.1617867091592573e-33, -9.630895011264082e-34, -1.0067930035575384e-33, 1.0417093183742875e-33, -1.0631576821729787e-33, -1.1027948006697292e-33, -1.0904273144021326e-33, 9.535915986072602e-34, 1.1157533401905987e-33, -9.846820466540674e-34, 1.0752683045578214e-33, 1.0622729390029926e-33, -1.015207798234999e-33, 1.0886563586942219e-33, -1.0069832867055778e-33, -1.1095456279923032e-33, -1.0501609390857074e-33, 1.0322635784169573e-33, 1.0671220368711268e-33, -1.0330227824636954e-33, -1.0524509490179031e-33, -1.0450520385989422e-33, 1.0751467143609082e-33, -1.0775310393476582e-33, 1.050695421673347e-33, -1.0357798677293506e-33, 9.677630095258883e-34, 9.831401286735747e-34, -1.0351345396978484e-33, 1.0606280734313068e-33, 1.1272086244748581e-33, -9.90050474252975e-34, 1.0237897335154671e-33, 1.0393445543482192e-33, -1.014249862174575e-33, -1.0408943701813815e-33, 1.0234391974266321e-33, -1.0180508415250581e-33, -1.1716971367271469e-33, -1.0511501910503213e-33, 9.733973927216696e-34, 1.066471657887336e-33, -1.1430269213460875e-33, 1.1343368038511452e-33, -1.0185142434386713e-33, 1.0599427051234797e-33, 1.0126679957532536e-33, -1.1221766821338733e-33, 1.0478494396474108e-33, 1.0445261885479416e-33, -1.0450444162527611e-33, 1.0085741530055227e-33, -1.0167479713410647e-33, -9.703390870286161e-34, -9.652211866632275e-34, -1.0710607694658469e-33, -1.0530936138200167e-33, -1.1151878172052578e-33, -1.07493154379341e-33, -9.916906562143568e-34, -1.071449692792076e-33, -1.1066570342961497e-33, -9.654925605543743e-34, -1.0542683734868697e-33, -1.0171214663039392e-33, -1.0509606425862512e-33, 1.1508157652817352e-33, -9.985412168857583e-34, -1.0438113410458478e-33, 1.068454386249387e-33, 9.532268280165207e-34, -1.1115240400860348e-33, -1.1415611349919098e-33, 1.0068668392964495e-33, 1.086223269059012e-33, -9.838648944092536e-34, -9.907417200325563e-34, 9.854814746481227e-34, 9.846443022651464e-34, -1.122426474683423e-33, 9.529721681856746e-34, -1.0443604254773764e-33, -1.100931642123676e-33, -1.0275239484602434e-33, -1.0548224170351909e-33, -1.027691089063251e-33, 1.135418442324894e-33, -1.0047933774641943e-33, -1.1262707085525965e-33, 9.83672131702818e-34, -1.0145107668191599e-33, 1.1539819776827742e-33, 1.1008691939862885e-33, 1.0780493588879739e-33, 1.0449863762191892e-33, -1.0409465327431992e-33, 9.571541730097172e-34, -1.1417411325643794e-33, -1.0982533517137243e-33, -1.1087617201970986e-33, -9.746127436778244e-34, -1.0930246059044729e-33, 1.0633603631129993e-33, 1.0460779329265231e-33, 1.0434436317192312e-33, 1.1474679941047918e-33, -1.1646575786046522e-33, 9.496390906881165e-34, 1.0763397492914967e-33, 1.0745208554545915e-33, 1.0579312322511312e-33, -9.720098502102185e-34, -1.0596448826094393e-33, 1.0022995845660241e-33, 1.0610436290514217e-33, -9.632261523446913e-34, 1.0123396838544888e-33, -1.0511882109457307e-33, -1.0840205028481665e-33, 1.0532587340421088e-33, 1.0435622831802673e-33, -1.0112630044975325e-33, -1.002766292557499e-33, -1.0075520239332842e-33, -1.0564533236114607e-33, 1.0140473649055466e-33, -1.1102399961787537e-33, 1.0173748404378391e-33, -1.1061653470497198e-33, -1.0456247247529834e-33, -9.96026485494464e-34, 1.1180941351521698e-33, -1.0953429011694852e-33, -1.0357052054709742e-33, 1.027446439301486e-33, 1.0588040368066168e-33, 1.0678770164850417e-33, 1.032582523095114e-33, 1.053795971694633e-33, -1.052983319389131e-33, -9.473426522711897e-34, 1.085055488889867e-33, 1.0730323857328628e-33, 1.0509716628457902e-33, -1.1580040969080058e-33, -1.0314184163458153e-33, 1.1547277737470733e-33, -1.0409856546645625e-33, -1.0152396651521658e-33, -9.722906831574696e-34, -9.631435922336452e-34, -1.1276135271774187e-33, 1.0321874467906423e-33, -1.0626228322433545e-33, -1.1364487447562905e-33, -1.135904986783539e-33, -1.1116453547764595e-33, 1.1358297735121857e-33, 1.021927217817887e-33, 1.0736768872448996e-33, 9.696515146688813e-34, 1.058456531289155e-33, -1.1569719577666861e-33, -1.0660587654966096e-33, 9.729129604794362e-34, -1.0588585870913346e-33, 9.510062457194205e-34, 9.491956170771695e-34, -1.102244155034766e-33, 1.0161195410408556e-33, -9.692089594128959e-34, -1.0086625905883228e-33, 9.947269213883323e-34, -1.0481463438064896e-33, -1.067825496771697e-33, -1.0242920736794514e-33, -1.0304570823720335e-33, -1.0526616196460895e-33, -1.0534115483077157e-33, -1.0652824800475861e-33, 1.124083095198617e-33, 9.735101667109516e-34, -1.114869423540078e-33, 9.721229915414851e-34, -9.716451714549751e-34, 1.075299987803996e-33, 1.1128748483990227e-33, -1.0614805823421414e-33, 1.0200406412203133e-33, 1.0652390418579034e-33, -1.0904666199944882e-33, 1.056168725408867e-33, 1.0237447341223497e-33, -1.081555087118309e-33, 1.1253784348719255e-33, 9.707891727952865e-34, 1.0875291698143787e-33, -1.156387149327152e-33, -1.0529462178486831e-33, 1.0185356411092761e-33, 1.0626964843112732e-33, 1.075504597289436e-33, 1.1313648235244803e-33, -1.0095094056983957e-33, 1.0216599765240672e-33, -1.1271117380264114e-33, -1.0604066580500699e-33, 1.1506946342623028e-33, 1.0535115571630317e-33, 1.0083890126452682e-33, -1.0653664176910745e-33, -1.0592397962358864e-33, -9.586861727566248e-34, 1.0637302764915237e-33, -9.620703107900468e-34, 1.0462062271146558e-33, 1.1361178614636333e-33, -1.1027920456048445e-33, 1.0071352744517193e-33, -1.1413487194892963e-33, -9.670347540413555e-34, 1.0166550338189528e-33, -1.0168618473563006e-33, -9.85469995211103e-34, 9.66893786554753e-34, 1.0399748213583515e-33, 1.1269540564795081e-33, -1.049983972084611e-33, 1.0480028049259946e-33, 1.0232637916289703e-33, -1.0006240459386215e-33, 9.67505870136646e-34, 9.579592948045343e-34, -9.990866278974406e-34, -1.0814130176057526e-33, -1.0574578202684368e-33, -1.0296080632100528e-33, 1.0383813836645142e-33, 1.0397349470423868e-33, 1.04687947313699e-33, -1.107631408910386e-33, -1.0742061352092581e-33, -1.0536798916274893e-33, 1.032745806607283e-33, -1.0415176576938058e-33, -1.0737482434254144e-33, -1.0661981717797774e-33, 9.94494210241068e-34, 1.037628516267011e-33, -9.49334288676368e-34, -9.885858817602474e-34, 1.0711941146062683e-33, 1.0765246141452627e-33, 1.1401065525682633e-33, 9.732611088453711e-34, 1.1149688813824172e-33, -1.0961163397181278e-33, -1.0514595848368776e-33, 9.83944791290911e-34, 1.0773593069698427e-33, 1.0482630667221064e-33, 9.827662663687155e-34, -1.0632795478763803e-33, 1.154223045860189e-33, 1.1380285907966965e-33, -1.0939127469878168e-33, -9.718291179537796e-34, -1.0623694581094546e-33, -9.664063237411463e-34, 1.0220397163006805e-33, -9.936160792268052e-34, 1.0539117762552883e-33, -1.124192930452022e-33, 1.0233818002415333e-33, 1.0267557445348818e-33, -9.916784420933678e-34, 1.0230243764904864e-33, 9.689438303354878e-34, 1.0585603972353096e-33, 1.0290789070811905e-33, 9.700521011031224e-34, 9.632617845172006e-34, -1.0590544722046396e-33, 9.871437889640785e-34, -1.1150053400743919e-33, 1.056882470885007e-33, 1.0393785334817977e-33, -1.0254069566028094e-33, 1.0689069515744535e-33, 9.752314394154408e-34, -1.1481357299973565e-33, -1.1070803040979419e-33, 1.001656644257422e-33, -1.0069786030952737e-33, -1.1642309108895022e-33, 1.1313031100710621e-33, -1.0882241808493024e-33, -1.0328939372625858e-33, 1.0540219788506778e-33, -9.890346818299715e-34, -1.0082312392628687e-33, -9.644290136733686e-34, -1.0661449071920058e-33, -1.1321683841158627e-33, -1.0689382674786434e-33, 1.1122485303152252e-33, 1.065238215338438e-33, 1.0212264211467053e-33, 1.074835575699925e-33, 1.0357501130285954e-33, 1.0563118969473774e-33, 1.0641542809772852e-33, 1.0690847450950154e-33, 1.076518369331524e-33, -1.1234973684041214e-33, 1.1216905050172129e-33, 1.0444172716494982e-33, 1.065653311781072e-33, -9.716212023904779e-34, -1.0092626437202191e-33, 1.061336216942181e-33, -1.0684734880325878e-33, 1.1284883521138197e-33, -1.0107638785759138e-33, 1.0141195476055268e-33, -1.0245542640209824e-33, 9.818224729746998e-34, 1.0228034202867303e-33, 1.0332853401472111e-33, -1.0566937489404023e-33, 1.1617765154191837e-33, -1.0719729714491842e-33, 1.0585695807849254e-33, 1.0040012044743355e-33, 1.015655404443273e-33, -1.0874582728113447e-33, 1.0441877747445994e-33, -1.0617033752558207e-33, 1.0536888915061128e-33, 1.0072551197742055e-33, 1.0511170384362083e-33, -1.0417058286254335e-33, 1.0930632686483554e-33, 1.0447744198940566e-33, -1.0392441781509185e-33, 1.0768137122871681e-33, 1.0369346990935374e-33, 1.1159932145065634e-33, 1.1460096464258028e-33, -1.0574304532905817e-33, -1.0456822137735783e-33, -1.0254616905585195e-33, 9.566577103174871e-34, 1.0437206075756437e-33, -1.0534292725584742e-33, 1.0456435510296958e-33, -1.0182014517387572e-33, -1.0586578346967332e-33, -1.0363644924978924e-33, 9.978221449508412e-34, 1.1227512968333338e-33, -9.711834225802927e-34, 9.706615214556269e-34, -1.0643722984451642e-33, -1.0952563002966082e-33, 9.741965452092364e-34, 1.0996936996354662e-33, 9.494781948988477e-34, -1.0523749092270843e-33, 1.051485941624275e-33, -1.0093531016839348e-33, -9.789636339793016e-34, 1.0510131724900536e-33, -9.579901515312434e-34, 1.1224711067345558e-33, -1.0682769600708097e-33, 1.0226844014837096e-33, -1.0422826473768018e-33, -1.0539444696919205e-33, -1.0531771841215205e-33, -9.7828267377529e-34, -1.0418370615494433e-33, 1.0407630454218755e-33, -1.0597127490411001e-33, 1.1352442303886823e-33, 1.121655148351192e-33, 1.1594565671152406e-33, 1.035554503421779e-33, -9.559525055424899e-34, 1.0644309813272092e-33, -1.1670845152616195e-33, -9.997978019796881e-34, -1.0633278533473594e-33], [1.390574652759824e-06, 7.635821020812728e-06, 0.00015203875955194235, -0.00016240861441474408, 2.9639162676176056e-05, -0.0003686079289764166, 0.00017755018780007958, -0.00024391105398535728, -0.00012324005365371704, 0.00034528449759818614, -0.00018407336028758436, 0.0007260196143761277, -0.00337775400839746, -0.0020063582342118025, 2.50208461379575e-25, 1.32430483246182e-10, -9.613431040545346e-19, -2.4476685211993754e-05, 3.88388485816904e-08, 1.1559610252511029e-25, 0.0003293640911579132, 4.6085293092801294e-07, -5.141552246755226e-15, -0.0009259940125048161, 3.979195994929796e-08, -8.521767411737505e-14, -0.0005382384406402707, 4.322913298437925e-07, -2.7468579169055707e-13, -0.00015306244313251227, 2.9385140010163013e-07, -1.9938781181672027e-10, -0.0005423322436399758, -3.574269413775255e-08, -8.444149546260604e-11, 0.0001169602110167034, 9.81443804448645e-07, 1.6782280010119166e-09, 0.0001739636209094897, 1.349103513348382e-06, -7.802534618406298e-09, -0.0006478432333096862, 7.748429197818041e-06, 9.614603557750456e-10, -0.0002511241182219237, 6.149320142867509e-06, 2.1094865587656386e-07, -0.00022997535415925086, -3.119268285445287e-06, 4.122566821251894e-08, -0.00013210003089625388, -4.04574302592664e-06, 7.865609319424038e-08, 1.8141134205507115e-05, 3.0189901735866442e-05, 1.3506397067430953e-07, 0.00014348239346873015, 1.2989646165806334e-05, -4.1410586959500506e-07, -0.0002709974651224911, 9.906470040732529e-06, -2.470560502843e-07, -0.0002129100466845557, -1.0499034033273347e-05, -5.557919280363421e-07, 